tree
version=v3
num_class=6
num_tree_per_iteration=6
label_index=0
max_feature_idx=40
objective=multiclass num_class:6
feature_names=feature1 feature2 feature3 feature4 feature5 feature6 feature7 feature8 feature9 feature10 feature11 feature12 feature13 feature14 feature15 feature16 feature17 feature18 feature19 feature20 feature21 feature22 feature23 feature24 feature25 feature26 feature27 feature28 feature29 feature30 feature31 feature32 feature33 feature34 feature35 feature36 feature37 feature38 feature39 feature40 feature41
feature_infos=[0:59.999988999999999] [6:128] [0:12] [0:7] [1:9492] [0:7958] [24:12594395] [0:10625785] [0:255] [0:254] [0:5344000000] [0:22353024] [0:4745] [0:3978] [0:60009.919999999998] [0:57739.239999999998] [0:1483830.9169999999] [0:463199.2401] [0:255] [0:4294958913] [0:4294881924] [0:255] [0:3.8214649999999999] [0:3.226788] [0:1.876614] [24:1504] [0:1500] [0:172] [0:6558056] [1:63] [0:6] [1:59] [1:59] [1:46] [1:63] [0:4] [0:4] [0:30] [1:60] [1:62] [0:1]
tree_sizes=3399 3383 3379 3343 3414 3367 3427 3407 3390 3367 3462 3394 3425 3407 3400 3373 3476 3389 3434 3429 3428 3366 3470 3401 3429 3422 3416 3359 3474 3406 3432 3407 3419 3396 3433 3403 3427 3404 3414 3399 3447 3394 3417 3404 3412 3402 3449 3397 3446 3440 3422 3417 3456 3414 3431 3414 3413 3413 3465 3426 3440 3426 3413 3390 3446 3412 3475 3437 3429 3398 3482 3422 3454 3441 3431 3419 3468 3426 3425 3433 3420 3410 3450 3424 3453 3440 3426 3414 3466 3420 3441 3417 3440 3410 3464 3425 3462 3445 3447 3433 3481 3425 3466 3437 3431 3437 3463 3429 3451 3425 3435 3405 3469 3406 3458 3435 3428 3425 3456 3399 3459 3440 3438 3414 3466 3408 3453 3434 3420 3412 3475 3418 3448 3426 3416 3395 3454 3411 3461 3426 3407 3422 3450 3430 3469 3446 3433 3442 3470 3429 3468 3422 3414 3412 3460 3416 3456 3430 3447 3401 3461 3413 3480 3437 3442 3427 3477 3443 3471 3440 3432 3409 3471 3443 3497 3472 3459 3444 3500 3452 3482 3453 3439 3441 3494 3434 3447 3465 3449 3430 3490 3440 3443 3447 3431 3434 3460 3426 3454 3432 3430 3413 3474 3437 3450 3431 3439 3419 3482 3437 3495 3473 3462 3452 3510 3444 3421 3430 3426 3404 3455 3417 3463 3447 3431 3403 3493 3442 3477 3457 3449 3438 3497 3449 3435 3442 3425 3413 3457 3429 3441 3437 3427 3420 3466 3409 3442 3438 3437 3429 3473 3438 3427 3439 3429 3412 3459 3409 3481 3477 3447 3454 3510 3450 3461 3471 3440 3439 3470 3436 3515 3481 3464 3434 3468 3446 3455 3436 3427 3414 3448 3432 3444 3431 3425 3431 3448 3441 3453 3455 3449 3434 3439 3433 3426 3441 3437 3447 3472 3421 3501 3484 3463 3461 3514 3451 3469 3460 3450 3444 3487 3436 3426 3443 3443 3439 3478 3421 3468 3462 3455 3457 3497 3434 3495 3462 3451 3425 3435 3442 3499 3474 3484 3459 3512 3482 3501 3482 3465 3446 3478 3446 3451 3455 3435 3433 3443 3426 3480 3470 3459 3453 3474 3449 3502 3471 3468 3433 3462 3459 3520 3487 3454 3434 3464 3460 3458 3455 3438 3418 3445 3435 3509 3472 3486 3464 3490 3460 3447 3449 3450 3432 3441 3424 3464 3454 3443 3430 3448 3434 3471 3443 3437 3447 3441 3433 3494 3471 3461 3473 3496 3466 3450 3431 3433 3460 3439 3414 3493 3474 3464 3445 3499 3456 3450 3449 3439 3435 3449 3443 3430 3438 3439 3454 3432 3443 3483 3461 3438 3457 3487 3451 3521 3487 3489 3486 3512 3494 3507 3485 3471 3478 3494 3454 3483 3469 3446 3438 3497 3428 3455 3453 3424 3429 3458 3439 3490 3470 3454 3448 3489 3456 3475 3479 3462 3454 3493 3452 3426 3467 3438 3437 3438 3413 3443 3455 3431 3419 3460 3418 3505 3495 3469 3458 3518 3463 3495 3480 3483 3464 3507 3446 3435 3435 3438 3413 3435 3412 3499 3492 3468 3453 3509 3451 3481 3487 3458 3462 3508 3473 3524 3484 3483 3480 3520 3475 3516 3494 3489 3438 3484 3464 3517 3480 3477 3442 3486 3471 3445 3439 3436 3400 3453 3424 3516 3507 3488 3464 3516 3476 3448 3440 3438 3429 3428 3426 3434 3449 3450 3409 3431 3429 3509 3495 3489 3490 3506 3475 3433 3434 3437 3431 3436 3417 3387 3429 3416 3417 3420 3409 3448 3432 3418 3413 3413 3385 3396 3426 3411 3407 3428 3416 3434 3435 3437 3416 3419 3425 3496 3498 3495 3483 3523 3456 3433 3432 3417 3413 3433 3414

Tree=0
num_leaves=31
num_cat=0
split_feature=8 6 39 25 26 25 7 3 26 26 0 26 8 2 29 34 0 0 26 39 25 29 27 34 25 26 34 7 26 1
split_gain=6239.97 2910.56 1705.81 1400.42 1208.19 620.772 519.798 516.19 481.841 289.231 219.129 192.922 191.168 179.633 172.696 304.768 171.773 168.006 153.133 119.633 117.689 105.053 103.733 96.2844 99.9462 95.7089 95.631 165.397 89.8924 87.2173
threshold=159.00000000000003 565.00000000000011 1.5000000000000002 55.500000000000007 69.500000000000014 84.500000000000014 603.00000000000011 4.5000000000000009 99.500000000000014 60.500000000000007 23.239531500000002 99.500000000000014 61.000000000000007 4.5000000000000009 1.5000000000000002 1.5000000000000002 0.48912400000000006 0.62772450000000013 74.500000000000014 1.5000000000000002 43.500000000000007 3.5000000000000004 1.0000000180025095e-35 21.500000000000004 533.50000000000011 48.500000000000007 1.5000000000000002 1349.0000000000002 57.500000000000007 113.50000000000001
decision_type=2 2 2 2 2 2 2 2 2 2 2 2 2 2 2 2 2 2 2 2 2 2 2 2 2 2 2 2 2 2
left_child=12 3 6 7 9 -5 13 16 -6 10 14 18 -1 -3 -4 21 20 23 28 -7 -2 25 -19 -17 -25 -16 27 -14 -8 -9
right_child=1 2 4 5 8 19 11 29 -10 -11 -12 -13 26 -15 15 17 -18 22 -20 -21 -22 -23 -24 24 -26 -27 -28 -29 -30 -31
leaf_value=-0.5727742065886271 -0.52319485466551174 -0.5303260365618192 -0.54278907038874191 -0.57058409581993097 -0.41175018641536043 -0.54919914823784011 -0.49134468071753062 -0.5727742065886271 -0.53267303233393859 -0.56983639162491373 -0.42017832666538624 -0.53985041820218338 -0.52625359410471795 -0.56262451189978646 -0.4913166098674816 -0.47932129955325975 -0.5212458647647642 -0.51019848625734865 -0.45144967810954384 -0.47627296131375718 -0.48264918211769836 -0.41517636169785471 -0.46325419286783903 -0.53512052184244063 -0.46520927263241019 -0.3975114097807908 -0.56911974168735036 -0.55979686677601759 -0.54757163151920718 -0.425215773183929
leaf_weight=3035.809401512146 72.288158565759659 238.12569880485535 53.226372331380844 1137.8420090675354 217.01110482215881 23.7539182305336 97.654997169971466 118.62296202778816 29.325824975967407 38.123572468757629 32.844923973083496 72.288158565759659 137.83137738704681 311.73351949453354 41.935929715633392 442.2334406375885 295.60431575775146 493.99352172017097 65.543218821287155 68.475801318883896 251.02906179428101 48.680869460105896 39.883121967315674 52.053339332342148 23.167401731014252 10.703926116228102 574.63954040408134 703.37991204857826 28.885937601327896 3.2258407473564139
leaf_count=20704 493 1624 363 7760 1480 162 666 809 200 260 224 493 940 2126 286 3016 2016 3369 447 467 1712 332 272 355 158 73 3919 4797 197 22
internal_value=-0.545563 -0.521541 -0.500409 -0.546605 -0.48292 -0.564921 -0.533125 -0.51619 -0.426146 -0.493874 -0.491536 -0.50086 -0.568812 -0.548637 -0.493479 -0.491202 -0.505819 -0.495672 -0.486187 -0.495055 -0.491714 -0.444824 -0.506692 -0.484303 -0.513588 -0.472242 -0.560315 -0.554301 -0.50418 -0.568868
internal_weight=0 4308.26 2337.41 1970.84 1523.18 1230.07 814.232 740.77 246.337 1276.85 1238.72 264.372 4451.66 549.859 1205.88 1152.65 618.922 1051.33 192.084 92.2297 323.317 101.321 533.877 517.454 75.2207 52.6399 1415.85 841.211 126.541 121.849
internal_count=59742 29382 15941 13441 10388 8389 5553 5052 1680 8708 8448 1803 30360 3750 8224 7861 4221 7170 1310 629 2205 691 3641 3529 513 359 9656 5737 863 831
is_linear=0
shrinkage=0.28


Tree=1
num_leaves=31
num_cat=0
split_feature=39 9 8 6 7 9 7 0 23 6 8 29 25 0 5 6 7 26 16 0 25 7 2 28 25 10 34 2 25 4
split_gain=13894.3 6519.59 4900.63 2138.98 611.043 563.458 2357.57 529.951 405.899 274.248 270.941 270.445 173.252 152.486 149.431 139.502 120.877 182.706 107.748 92.8121 88.4341 88.2877 81.0293 80.4231 78.3744 78.1677 69.9992 78.3514 100.46 116.047
threshold=1.5000000000000002 31.500000000000004 159.00000000000003 827.00000000000011 1564.0000000000002 31.500000000000004 1564.0000000000002 1.1543385000000004 0.016448000000000001 521.00000000000011 159.00000000000003 1.5000000000000002 94.500000000000014 0.62168450000000008 12.500000000000002 783.00000000000011 547.00000000000011 99.500000000000014 6309.5809170000011 0.90945200000000015 56.500000000000007 6096.0000000000009 4.5000000000000009 28843.500000000004 81.500000000000014 360571424.00000006 2.5000000000000004 4.5000000000000009 87.500000000000014 45.000000000000007
decision_type=2 2 2 2 2 2 2 2 2 2 2 2 2 2 2 2 2 2 2 2 2 2 2 2 2 2 2 2 2 2
left_child=1 25 4 13 9 -2 8 12 20 -3 -8 15 24 -4 -14 -10 22 -18 -11 -17 -7 -19 -9 -6 -5 -1 27 -13 -29 -30
right_child=5 2 3 7 23 6 10 16 11 18 -12 26 14 -15 -16 19 17 21 -20 -21 -22 -23 -24 -25 -26 -27 -28 28 29 -31
leaf_value=-0.52992223783738768 -0.53085789605405931 -0.37032922046999311 -0.48561427321263811 -0.37705182707985296 -0.37462767716383116 -0.50892036928580731 -0.38260792309567182 -0.47487984934654115 -0.51595603845838089 -0.429984700310931 -0.47667038302449599 -0.52174044749889759 -0.40436606133943798 -0.52484160061872753 -0.46961289299050962 -0.41067684338514054 -0.50314093487702272 -0.39902220448370518 -0.47780412675653738 -0.48441130401628429 -0.42333837171883454 -0.50128164275558418 -0.41566856547534459 -0.4236981287070975 -0.45282558300251513 -0.49421065073458592 -0.5288020108140068 -0.51415621611190865 -0.4157614615645468 -0.52654013208320938
leaf_weight=648.03120863437653 4564.5739713609219 50.575618892908096 98.99555566906929 11.607519090175627 838.89198681712151 12.436627596616743 110.4372530579567 34.656735569238663 39.797208309173584 123.37134575843811 30.677014738321304 655.6590068936348 295.49427169561386 360.99384370446205 30.345371335744858 27.360580712556839 123.70298916101456 23.049216479063034 52.731301009654999 26.199828803539276 39.631386607885361 9.2860152721405012 37.973169595003128 27.028937309980392 137.13454696536064 51.902192503213882 1340.1709898114204 71.303331553936005 21.059356063604355 11.441697388887404
leaf_count=3908 27527 305 597 70 5059 75 666 209 240 744 185 3954 1782 2177 183 165 746 139 318 158 239 56 229 163 827 313 8082 430 127 69
internal_value=-0.50347 -0.452619 -0.429456 -0.469452 -0.386873 -0.525094 -0.514068 -0.438745 -0.521045 -0.427799 -0.403056 -0.52288 -0.421873 -0.516399 -0.410442 -0.476249 -0.473761 -0.48765 -0.444304 -0.446745 -0.44378 -0.428389 -0.443922 -0.376159 -0.446912 -0.527274 -0.524953 -0.518162 -0.495559 -0.45476
internal_weight=0 2955.77 2255.84 1163.24 1092.6 6950.75 2386.17 703.25 2245.06 226.678 141.114 2192.99 474.582 459.989 325.84 93.3576 228.668 156.038 176.103 53.5604 52.068 32.3352 72.6299 865.921 148.742 699.933 2099.63 759.463 103.804 32.5011
internal_count=59742 17825 13604 7015 6589 41917 14390 4241 13539 1367 851 13225 2862 2774 1965 563 1379 941 1062 323 314 195 438 5222 897 4221 12662 4580 626 196
is_linear=0
shrinkage=0.28


Tree=2
num_leaves=31
num_cat=0
split_feature=26 34 25 25 6 2 6 39 25 8 25 37 2 25 25 6 25 6 29 6 27 23 32 6 6 25 6 16 32 19
split_gain=3187.59 9290.51 7717.12 4974.7 4603.65 1311.11 1218.86 964.166 713.282 537.913 438.129 274.641 220.083 195.056 186.439 224.967 172.851 255.587 71.5703 74.0561 64.8079 58.078 42.0155 71.2063 1022.36 424.398 566.05 64.3647 36.0148 35.0413
threshold=45.500000000000007 1.5000000000000002 94.500000000000014 55.500000000000007 565.00000000000011 1.5000000000000002 147.00000000000003 1.5000000000000002 93.500000000000014 159.00000000000003 84.500000000000014 2.5000000000000004 9.5000000000000018 101.50000000000001 54.500000000000007 579.00000000000011 71.500000000000014 851.00000000000011 1.5000000000000002 587.00000000000011 1.0000000180025095e-35 0.037422500000000004 1.5000000000000002 565.00000000000011 559.00000000000011 83.500000000000014 169.00000000000003 5926.3756190000013 3.5000000000000004 3682657514.5000005
decision_type=2 2 2 2 2 2 2 2 2 2 2 2 2 2 2 2 2 2 2 2 2 2 2 2 2 2 2 2 2 2
left_child=1 2 3 -1 6 -6 12 8 14 -8 -11 -2 -5 29 -3 -16 -7 -18 19 -9 -17 -13 23 24 25 -20 -27 -26 -23 -4
right_child=11 7 13 4 5 16 9 18 -10 10 -12 21 -14 -15 15 20 17 -19 22 -21 -22 28 -24 -25 27 26 -28 -29 -30 -31
leaf_value=-0.81937202903793949 -0.82395451201287151 -0.79761987601637752 -0.7477709139476687 -0.81422548007523443 -0.80516334063392636 -0.80007970143514329 -0.82549789742905699 -0.54368746358349285 -0.80836580938029579 -0.40193310034403851 -0.81199448080729053 -0.81567723079504495 -0.45986692428583797 -0.82237619503132542 -0.42116702258301647 -0.79092915087733451 -0.53446738231188573 -0.64351636876295504 -0.82532022089456025 -0.81006542128989523 -0.586085970297195 -0.72673005013842118 -0.82448282310403798 -0.82362024969486014 -0.62606282116911915 -0.40573454644385454 -0.82080105686496441 -0.42856025533805692 -0.6024737261276214 -0.63344930547504297
leaf_weight=59.420146286487579 2177.0323389172554 2.0087508559227016 21.253880023956302 7.4518176913261396 38.555056750774384 3.3047191500663748 2.462339758872985 1.4903635382652276 14.709240138530729 137.63183283805847 2.0735492706298819 5.7022604942321804 1.6847587823867796 170.41983067989349 9.0717780590057355 1.6199603676795948 31.556827962398529 36.157515406608582 157.58974456787109 1.8143556118011472 4.795082688331604 20.411500632762912 717.18885397911072 223.68412756919861 1.6847587823867787 4.5358890295028669 5.9614541530609131 5.5726636648178101 2.0087508559226981 2.3327429294586173
leaf_count=917 33597 31 328 115 595 51 38 23 227 2124 32 88 26 2630 140 25 487 558 2432 28 74 315 11068 3452 26 70 92 86 31 36
internal_value=-0.800747 -0.771516 -0.672569 -0.588157 -0.535493 -0.67371 -0.435397 -0.8157 -0.664652 -0.41525 -0.408019 -0.822831 -0.748883 -0.811931 -0.543827 -0.510908 -0.602347 -0.592696 -0.820046 -0.689934 -0.637814 -0.73589 -0.820431 -0.813148 -0.799789 -0.813837 -0.641451 -0.474409 -0.715597 -0.736464
internal_weight=0 1666.03 514.305 320.299 260.878 109.574 151.304 1151.73 32.2048 142.168 139.705 2205.15 9.13658 194.006 17.4956 15.4868 71.0191 67.7143 1119.52 3.30472 6.41504 28.1225 1116.22 399.029 175.345 168.087 10.4973 7.25742 22.4203 23.5866
internal_count=59742 25711 7937 4943 4026 1691 2335 17774 497 2194 2156 34031 141 2994 270 239 1096 1045 17277 51 99 434 17226 6158 2706 2594 162 112 346 364
is_linear=0
shrinkage=0.28


Tree=3
num_leaves=31
num_cat=0
split_feature=39 10 6 6 8 25 13 25 25 6 2 7 25 25 2 10 28 5 29 8 25 11 0 25 29 20 23 24 25 6
split_gain=605.853 1979.86 1589.4 3162.48 513.756 1262.8 1054.24 351.367 310.694 296.739 1158.66 245.162 1340.77 631.726 452.928 209.766 189.011 174.919 123.987 303.044 312.186 348.2 140.212 633.95 115.196 104.285 122.04 135.579 93.6944 436.253
threshold=1.5000000000000002 20158954.000000004 169.00000000000003 815.00000000000011 159.00000000000003 47.500000000000007 1.5000000000000002 83.500000000000014 189.50000000000003 106.00000000000001 1.0000000180025095e-35 269.00000000000006 73.500000000000014 53.500000000000007 1.5000000000000002 6738.1918945000007 6145.5000000000009 8.5000000000000018 1.5000000000000002 159.00000000000003 55.500000000000007 3487.1768800000004 0.56543350000000014 75.500000000000014 1.5000000000000002 3019815080.5000005 0.05113800000000001 0.047531500000000004 100.50000000000001 823.00000000000011
decision_type=2 2 2 2 2 2 2 2 2 2 2 2 2 2 2 2 2 2 2 2 2 2 2 2 2 2 2 2 2 2
left_child=1 4 7 8 -1 6 -6 9 -4 -3 -11 12 13 -7 15 -15 -13 -8 19 -2 21 -21 23 -22 -10 26 27 -17 -25 -30
right_child=18 2 3 -5 5 11 17 -9 24 10 -12 16 -14 14 -16 25 -18 -19 -20 20 22 -23 -24 28 -26 -27 -28 -29 29 -31
leaf_value=-1.2694882315344564 -1.2699814433004604 -1.1946895502000054 0.31707169816068098 -1.1863027299705924 -1.1915361057937464 -1.0840540006526747 0.65564032935505301 -1.2735256603564868 -0.43499612505573104 0.26377848769489809 -1.2735256603564868 -1.2320276088332387 -1.2036248365066076 -0.73094772575011702 -1.2735256603564868 -0.32186118775324923 -0.52816607342248112 -0.16982011816575063 -1.2689473309987014 -1.0303363036025948 0.2171935135115266 -0.0677969167867742 -1.2377446826794802 -1.2461958088355733 0.076302372078874636 0.27762807461427919 -0.59027937233364991 0.48339336598794913 0.058804601288044114 -1.1689471468836037
leaf_weight=131.76702527329326 23.700579395517707 1.4206687361001953 1.7075345385819667 3.2101649325340986 0.68301381543278583 1.6255728807300354 0.46444939449429512 5.8329379837960005 0.90157823637127854 0.65569326281547524 0.92889878898859024 63.424662901088595 27.238590959459543 0.4644493944942959 0.36882746033370484 0.38248773664236047 0.30052607879042526 0.35516718402504921 538.1875660084188 0.80595630221068748 0.30052607879042481 0.46444939449429512 5.4777707997709513 2.0490414462983613 0.56007132865488529 0.50543022342026223 0.40980828925967216 0.28686580248177052 0.27320552617311467 1.3387070782482622
leaf_count=9646 1735 104 125 235 50 119 34 427 66 48 68 4643 1994 34 27 28 22 26 39398 59 22 34 401 150 41 37 30 21 20 98
internal_value=-1.24992 -1.21292 -0.903689 -0.566871 -1.23354 -1.18446 -0.379094 -1.1468 0.0605716 -0.900846 -0.6374 -1.19719 -1.133 -0.657219 -0.370251 -0.207661 -1.22871 0.297941 -1.26565 -1.21412 -1.09051 -0.67844 -1.14597 -1.01908 -0.239078 -0.0542844 -0.209737 0.0232479 -1.12056 -0.960854
internal_weight=0 243.494 15.2175 6.37935 228.277 96.5099 1.50263 8.8382 3.16918 3.00526 1.58459 95.0072 31.282 4.04344 2.41787 2.04904 63.7252 0.819617 572.598 34.4102 10.7097 1.27041 9.43925 3.96148 1.46165 1.58459 1.07916 0.669354 3.66095 1.61191
internal_count=59742 17825 1114 467 16711 7065 110 647 232 220 116 6955 2290 296 177 150 4665 60 41917 2519 784 93 691 290 107 116 79 49 268 118
is_linear=0
shrinkage=0.28


Tree=4
num_leaves=31
num_cat=0
split_feature=8 2 34 26 30 28 26 39 23 22 34 7 6 25 11 12 7 7 26 25 6 6 25 11 10 6 39 39 34 29
split_gain=23366.3 3550.25 3455.39 1130.2 863.604 601.203 1117.5 314.686 203.675 164.372 133.528 102.646 87.7225 85.9752 85.5523 72.5506 70.722 374.695 80.8797 66.0929 62.9811 60.7049 87.2359 72.5663 59.8603 53.7776 48.0832 47.1675 52.1472 45.6464
threshold=61.000000000000007 1.0000000180025095e-35 1.5000000000000002 68.500000000000014 2.5000000000000004 122.50000000000001 169.50000000000003 1.5000000000000002 0.053471500000000005 0.13960000000000003 2.5000000000000004 87.500000000000014 535.00000000000011 43.500000000000007 11086.836430000001 1.0000000180025095e-35 603.00000000000011 769.00000000000011 57.500000000000007 87.500000000000014 68033.000000000015 535.00000000000011 57.500000000000007 2725.5885010000006 2863.7969970000004 106.00000000000001 1.5000000000000002 1.5000000000000002 19.500000000000004 19.500000000000004
decision_type=2 2 2 2 2 2 2 2 2 2 2 2 2 2 2 2 2 2 2 2 2 2 2 2 2 2 2 2 2 2
left_child=-1 2 9 4 8 16 7 14 10 25 -4 -11 -10 -12 -7 -6 -3 18 -18 -9 24 -13 -23 -24 -14 -2 -26 -15 29 -29
right_child=1 5 3 -5 15 6 -8 19 12 11 13 21 20 27 -16 -17 17 -19 -20 -21 -22 22 23 -25 26 -27 -28 28 -30 -31
leaf_value=-0.13351175440641702 -0.19653436438239297 -0.22645771571881945 -0.19732430700645531 -0.21469479442688227 -0.21016087464746885 -0.1794122985222098 -0.22622771791385859 -0.15135189002829941 -0.15649270962288192 -0.13351175440641702 -0.15448199222310927 -0.18325775966191446 -0.19473393183092189 -0.22280265663167004 -0.22057335819807894 -0.13351175440641702 -0.18112925574708269 -0.22484980537828769 -0.22719401247881368 -0.22719401247881368 -0.19571373952331195 -0.22304572060844929 -0.19006956972337177 -0.21212476286761828 -0.20845756086433431 -0.22245865107515422 -0.16708804119492041 -0.18048836031618359 -0.16518107120762032 -0.22719401247881368
leaf_weight=6188.0660429000854 65.754179358482361 2433.8012841641903 309.34352561831474 452.5083070397377 9.8631269037723523 74.421775728464127 579.53342625498772 324.88542255759239 461.77366867661476 15.24301430583 122.84076234698296 77.11171942949295 68.145240426063538 19.128488540649414 84.583785265684128 525.73455223441124 216.3910266160965 1301.9327512979507 34.670385479927063 9.2653616368770582 73.824010461568832 242.99158099293709 208.91896077990532 265.70666113495827 22.416197508573532 1365.8936348557472 1267.5612484514713 826.70936411619186 190.08935487270355 16.737427473068237
leaf_count=20704 220 8143 1035 1514 33 249 1939 1087 1545 51 411 258 228 64 283 1759 724 4356 116 31 247 813 699 889 75 4570 4241 2766 636 56
internal_value=-0.177494 -0.200821 -0.187306 -0.172799 -0.167956 -0.218472 -0.199865 -0.168884 -0.173192 -0.215565 -0.180956 -0.205485 -0.167105 -0.176649 -0.201308 -0.134923 -0.223479 -0.21881 -0.187491 -0.153455 -0.170527 -0.206865 -0.209402 -0.202417 -0.169158 -0.221268 -0.167807 -0.179236 -0.178429 -0.181415
internal_weight=0 11667.8 6608.3 4366.68 3914.17 5059.49 1072.69 493.156 3378.57 2241.62 1484.85 809.972 1893.72 1175.51 159.006 535.598 3986.8 1552.99 251.061 334.151 1431.95 794.729 717.617 474.626 1358.12 1431.65 1289.98 1052.66 1033.54 843.447
internal_count=59742 39038 22110 14610 13096 16928 3589 1650 11304 7500 4968 2710 6336 3933 532 1792 13339 5196 840 1118 4791 2659 2401 1588 4544 4790 4316 3522 3458 2822
is_linear=0
shrinkage=0.28


Tree=5
num_leaves=31
num_cat=0
split_feature=33 6 2 6 25 28 25 12 2 25 34 10 6 25 25 26 12 7 25 6 28 6 25 6 6 25 29 6 11 26
split_gain=38099.4 3666.02 305.378 300.211 2665.98 61.5513 158.771 106.903 28.5777 21.5697 36.1635 49.1846 44.5844 125.404 24.1098 20.6335 196.791 55.4589 85.7183 50.3845 25.4188 17.6346 16.3754 33.4793 11.1212 110.625 10.3964 10.0196 9.58727 9.52378
threshold=2.5000000000000004 115.00000000000001 1.5000000000000002 115.00000000000001 56.500000000000007 4258.0000000000009 95.500000000000014 2.5000000000000004 11.500000000000002 99.500000000000014 1.5000000000000002 360571424.00000006 1091.0000000000002 728.50000000000011 599.50000000000011 88.500000000000014 2.5000000000000004 1211.0000000000002 189.50000000000003 1119.0000000000002 83.500000000000014 1387.0000000000002 144.50000000000003 2303.0000000000005 1289.0000000000002 64.500000000000014 2.5000000000000004 1387.0000000000002 34823.601565000012 1337.5000000000002
decision_type=2 2 2 2 2 2 2 2 2 2 2 2 2 2 2 2 2 2 2 2 2 2 2 2 2 2 2 2 2 2
left_child=3 2 -2 4 -1 8 24 27 9 29 11 15 -13 14 -14 -11 17 20 19 -19 -17 -16 -18 -24 -7 -26 -6 -8 -21 -5
right_child=1 -3 -4 5 26 6 7 -9 -10 10 -12 12 13 -15 21 16 22 18 -20 28 -22 -23 23 -25 25 -27 -28 -29 -30 -31
leaf_value=-0.69121223063415904 -0.69202063409236425 -0.69000312079213866 -0.41433484953878441 -0.69135423665116846 -0.46803327038452602 -0.68825716077261223 -0.42495877736378773 -0.6817338070183746 -0.60785568530517675 -0.6876808789205251 -0.69075322189094068 -0.68841356485862781 -0.62258455134293456 -0.68540767383051393 -0.49528506630231306 -0.58290678977183163 -0.69139367171990918 -0.63647176789282045 -0.68306113954405112 -0.50685774676055129 -0.68678017501693578 -0.58786650996821965 -0.59172407012096562 -0.6791744050669517 -0.68064543964877178 -0.48371238584407472 -0.41427630309464486 -0.50685774676055129 -0.44115478673958552 -0.65730259271764935
leaf_weight=242.45318979024887 3.1251762509345999 41.635412633419037 478.25277853012085 3319.3404270410538 3.1251762509345999 37.199678599834442 2.6211155652999869 2.7219277024269104 3.3268005251884452 477.44628143310547 1082.520728468895 15.52506911754608 2.8227398395538348 12.702329277992247 4.8389825820922852 2.8227398395538348 133.97933024168015 2.0162427425384504 3.1251762509345999 3.9316733479499817 5.3430432677268982 2.4194912910461426 3.629236936569213 63.209209978580475 29.537956178188328 2.4194912910461417 28.933083355426788 2.1170548796653748 3.1251762509346008 6.451976776123046
leaf_count=2405 31 413 4744 32926 31 369 26 27 33 4736 10738 154 28 126 48 28 1329 20 31 39 53 24 36 627 293 24 287 21 31 64
internal_value=-0.666307 -0.437939 -0.416138 -0.688024 -0.659483 -0.689524 -0.664612 -0.541889 -0.689894 -0.689947 -0.687496 -0.682712 -0.651821 -0.626886 -0.553148 -0.684406 -0.677336 -0.594398 -0.556592 -0.51303 -0.650873 -0.526146 -0.685746 -0.674426 -0.67785 -0.665736 -0.419517 -0.461552 -0.477761 -0.691288
internal_weight=0 523.013 481.378 5499.71 274.511 5225.19 76.6172 7.4601 5148.58 5145.25 1819.46 736.937 38.3086 22.7835 10.0812 698.628 221.182 20.3641 12.1983 9.07309 8.16578 7.25847 200.818 66.8384 69.1571 31.9574 32.0583 4.73817 7.05685 3325.79
internal_count=59742 5188 4775 54554 2723 51831 760 74 51071 51038 18048 7310 380 226 100 6930 2194 202 121 90 81 72 1992 663 686 317 318 47 70 32990
is_linear=0
shrinkage=0.28


Tree=6
num_leaves=31
num_cat=0
split_feature=8 6 25 39 25 26 3 7 26 26 8 2 26 15 29 34 15 34 13 34 7 19 13 32 34 6 6 6 27 16
split_gain=4976.28 1741.29 1098.63 961.297 590.366 430.518 365.175 339.291 206.952 188.45 182.636 157.255 106.929 100.746 99.1264 108.067 96.7603 107.989 89.6923 87.5581 134.029 78.4541 73.0255 68.667 83.8461 68.2364 65.8782 60.9071 60.6572 59.9535
threshold=159.00000000000003 565.00000000000011 55.500000000000007 1.5000000000000002 84.500000000000014 65.500000000000014 4.5000000000000009 603.00000000000011 60.500000000000007 99.500000000000014 61.000000000000007 4.5000000000000009 99.500000000000014 70.294929500000009 1.5000000000000002 1.5000000000000002 47.961424500000007 16.500000000000004 2.5000000000000004 1.5000000000000002 1415.0000000000002 32838817.500000004 1.5000000000000002 1.5000000000000002 3.5000000000000004 79.500000000000014 567.00000000000011 995.00000000000011 1.0000000180025095e-35 1714.0871905000001
decision_type=2 2 2 2 2 2 2 2 2 2 2 2 2 2 2 2 2 2 2 2 2 2 2 2 2 2 2 2 2 2
left_child=10 2 6 7 -4 8 13 11 14 -7 -1 21 18 25 -5 28 17 -17 29 20 -12 -3 -22 26 -25 -2 -18 -14 -16 -9
right_child=1 3 4 5 -6 9 -8 12 -10 -11 19 -13 27 -15 15 16 23 -19 -20 -21 22 -23 -24 24 -26 -27 -28 -29 -30 -31
leaf_value=-0.027723811883933139 0.019654505665295412 0.046711860737687905 -0.025277876873666744 0.004102406979733365 0.051887089921570866 0.084185899450341481 -0.023382142201633892 0.019288322719150517 -0.028134225498835125 0.0096790009506809941 0.014735679483653551 -0.017230940623020895 0.080946539177627452 0.022280379514156949 0.074728295229005245 0.064454916714825089 0.10072994452271529 0.027810496138040139 0.027554321910775989 -0.023828266914603463 0.13035674229876898 0.0058471591475504408 -0.015206937206496742 0.069537812990581857 0.036896043751684031 0.051193915528119832 0.029845183972537419 -0.0043482895982344004 0.0027042860792709585 0.074139777324129713
leaf_weight=2685.1000384092331 73.617144539952278 50.254417177289724 1022.6613944582641 53.672942101955414 91.925587747246027 315.48196737468243 109.98065909743309 20.860533997416496 35.652726277709007 31.788447126746178 166.43709089607 301.45904347300529 7.9772878885269156 330.52516039647162 126.49579073488712 259.12124148011208 11.365473315119742 92.954530537128448 120.56911693513393 531.57263484224677 2.9450105875730506 195.22048915177584 656.18223640322685 103.02007552981377 191.16447260975838 281.48992575891316 597.89783875644207 66.418193444609642 10.796186804771422 90.46559301763773
leaf_count=20704 475 330 7760 366 629 1487 831 118 253 200 1070 2126 51 2103 637 1448 61 578 698 3919 21 1294 4646 594 1109 1643 3594 442 61 494
internal_value=0 0.021057 -0.000225544 0.0362114 -0.0189137 0.0481351 0.025955 0.0106457 0.0412863 0.0773657 -0.0233162 -0.00311822 0.0352234 0.033869 0.0429973 0.0444962 0.0418096 0.0547801 0.0449844 -0.0145958 -0.00865112 0.0142131 -0.0145566 0.036755 0.0483268 0.0446555 0.0311675 0.00479771 0.0690646 0.0638616
internal_weight=0 4592.84 1910.2 2682.64 1114.59 1829.41 795.613 853.225 1482.14 347.27 4042.24 546.934 306.291 685.632 1446.49 1392.82 1255.52 352.076 231.895 1357.14 825.564 245.475 659.127 903.448 294.185 355.107 609.263 74.3955 137.292 111.326
internal_count=59742 29382 13441 15941 8389 10388 5052 5553 8701 1687 30360 3750 1803 4221 8448 8082 7384 2026 1310 9656 5737 1624 4667 5358 1703 2118 3655 493 698 612
is_linear=0
shrinkage=0.0291667


Tree=7
num_leaves=31
num_cat=0
split_feature=39 9 8 25 9 7 23 29 7 0 25 25 0 10 26 2 10 34 11 2 25 6 12 25 17 16 8 6 26 12
split_gain=10061 3615.34 1922.88 1274.76 526.276 1501.88 315.508 232.182 222.23 219.584 180.895 120.032 112.165 89.1976 84.8055 115.38 74.0886 66.753 66.1412 65.7303 69.4474 67.6386 64.8179 85.5725 60.5754 60.2929 50.019 46.3482 43.298 43.8436
threshold=1.5000000000000002 31.500000000000004 159.00000000000003 59.500000000000007 31.500000000000004 1564.0000000000002 0.016448000000000001 1.5000000000000002 1415.0000000000002 0.99000850000000007 89.500000000000014 49.500000000000007 10.676644000000001 7247.3337400000009 99.500000000000014 1.5000000000000002 360571424.00000006 2.5000000000000004 5349.4377440000007 4.5000000000000009 87.500000000000014 3614.5000000000005 6.5000000000000009 1194.5000000000002 119.52971100000001 4944.9521160000013 159.00000000000003 857.00000000000011 43.500000000000007 5.5000000000000009
decision_type=2 2 2 2 2 2 2 2 2 2 2 2 2 2 2 2 2 2 2 2 2 2 2 2 2 2 2 2 2 2
left_child=1 16 8 18 -2 6 24 13 11 10 -5 -3 26 -8 15 -11 -1 19 -4 -9 -21 -22 27 -24 -6 -13 -7 -17 -10 -30
right_child=4 2 3 9 5 12 7 17 28 14 -12 25 -14 -15 -16 22 -18 -19 -20 20 21 -23 23 -25 -26 -27 -28 -29 29 -31
leaf_value=-0.026537217313759749 -0.027762573830899542 0.086339479515454814 -0.024659694813052715 0.031554340681093973 0.06205325609572189 0.082057991582651271 -0.0034820588227546106 -0.018083368858379776 -0.017173457784606907 0.0021364124311761003 0.06573574415433274 0.052811668505788605 -0.0099403120149066139 0.051980545470793178 0.06251072495695166 0.014595356481324111 0.010252591533285976 -0.025585650797452321 0.023261239625213599 -0.010556311347249353 0.068759557188624545 -0.012455463503288732 -0.013466577274868431 0.083670943366906406 -0.015487300743997342 0.018261839264643386 0.037718805735101085 0.068156764025669586 0.076214005450536651 0.087324783929214222
leaf_weight=560.86977161094546 4094.9106524325907 65.420970365405083 303.46447238512337 186.82787272334099 49.565249461680651 146.85226704180241 49.054474748671055 620.16031585633755 3.7070341110229483 146.74237547814846 446.4489633589983 119.95505015552044 14.13601580262184 49.618986397981644 45.633773609995842 17.718195825815201 50.78226250782609 1230.7912609428167 26.653653064742684 69.6373131275177 23.57610647380352 13.847385704517363 30.699991941452026 10.3045018017292 10.362456068396567 66.949951931834221 25.385176658630371 61.268575072288513 521.14868329465389 718.89753563702106
leaf_count=3908 27527 279 2004 1038 253 640 305 3954 16 835 2096 576 74 258 220 100 313 8082 190 430 112 84 176 59 61 362 137 297 2270 3086
internal_value=0 0.0406989 0.0548616 0.0285546 -0.0214892 -0.0103347 -0.0173239 -0.0192461 0.0772946 0.0457807 0.0556516 0.0523373 0.0690409 0.0244079 0.0257688 0.0194829 -0.0234828 -0.0214461 -0.0207906 -0.01444 0.00666438 0.0387085 0.0406966 0.0109443 0.0486453 0.0404358 0.0755231 0.0561419 0.0823578 0.0826553
internal_weight=0 3383.49 2771.84 1275.76 6397.9 2302.99 2116.61 2056.69 1496.08 945.644 633.277 252.326 186.373 98.6735 312.367 266.734 611.652 1958.01 330.118 727.221 107.061 37.4235 119.991 41.0045 59.9277 186.905 172.237 78.9868 1243.75 1240.05
internal_count=59742 17825 13604 7015 41917 14390 13539 13225 6589 4821 3134 1217 851 563 1687 1467 4221 12662 2194 4580 626 196 632 235 314 938 777 397 5372 5356
is_linear=0
shrinkage=0.0291667


Tree=8
num_leaves=31
num_cat=0
split_feature=26 34 25 25 39 37 6 2 25 6 32 6 25 25 25 6 23 10 32 2 2 6 26 24 20 11 39 31 39 28
split_gain=2154.82 3713.48 1734.59 776.622 494.02 217.932 197.355 301.775 162.934 72.3748 46.7939 70.3912 475.826 83.6585 36.1949 34.959 31.1705 30.0692 23.8264 21.3701 22.8384 21.2536 18.9927 22.6757 24.4455 20.3039 17.6555 17.3864 19.5877 17.3466
threshold=45.500000000000007 1.5000000000000002 100.50000000000001 55.500000000000007 1.5000000000000002 2.5000000000000004 565.00000000000011 1.5000000000000002 101.50000000000001 115.00000000000001 1.5000000000000002 565.00000000000011 55.500000000000007 85.500000000000014 73.500000000000014 895.00000000000011 0.024024500000000004 10667.361815000002 4.5000000000000009 1.5000000000000002 9.5000000000000018 757.00000000000011 125.50000000000001 0.053743000000000006 1381234269.0000002 14558.095700000002 3.5000000000000004 1.5000000000000002 2.5000000000000004 122.50000000000001
decision_type=2 2 2 2 2 2 2 2 2 2 2 2 2 2 2 2 2 2 2 2 2 2 2 2 2 2 2 2 2 2
left_child=1 2 3 -1 8 29 9 17 -3 -5 11 12 -6 27 -9 -16 -7 -8 22 -11 -21 -19 -18 24 -24 -26 -25 28 -14 -2
right_child=5 4 -4 6 10 16 7 14 -10 19 -12 -13 13 -15 15 -17 18 21 -20 20 -22 -23 23 26 25 -27 -28 -29 -30 -31
leaf_value=-0.018953772236134321 -0.024964668413889116 0.096733557461043285 -0.021146014934487631 -0.02564421946099647 -0.025424089630601283 -0.025650419081126218 -0.017787063082519011 0.0060386936164821166 -0.025748324259908088 0.10667311373928054 -0.024471893905736015 -0.02339057715668166 0.10942933271471533 -0.020619297165502447 0.099800727666183739 0.070419851552558504 0.0027820078561053424 -0.025422375005951355 0.16874269177424706 0.0085653613988064363 0.10326667824795388 0.067721843903973067 0.03371250830551023 0.016277045442765443 0.19943556012858243 0.076652468087678671 0.076709508245261654 0.1180354927831582 0.051861791360818019 -0.017139315869773922
leaf_weight=56.14764922298491 1684.4622055389918 42.821361648850143 160.22771190479398 3.5933100525289765 138.71221933886409 4.0507495552301398 29.035640262067318 4.4913852363824835 11.781315140426157 440.45350059680641 652.45739026367664 206.76689607091248 9.6426533386111277 5.7507977336645117 103.55761235207319 51.625780194997787 5.0170142203569474 2.9387131258845312 1.636533074080943 3.9389891475439054 4.8138181865215302 7.1651589348912239 2.4345683492720154 8.2380844615399855 2.7136919572949409 1.9828724749386308 8.2121980451047403 19.518061473965645 10.506695147603748 281.20852536708117
leaf_count=917 28854 307 2679 65 2364 68 449 57 190 2220 11070 3478 61 94 764 534 61 82 14 40 26 104 31 103 33 24 100 116 94 4743
internal_value=0 0.0204263 0.0655108 0.0851287 -0.0152152 -0.0225736 0.0940972 0.0698732 0.0703063 0.104733 -0.0196909 -0.0117107 0.00140498 0.0833439 0.087664 0.0900264 0.0503279 -0.00270647 0.0605071 0.105776 0.0606486 0.0406308 0.0543134 0.0652768 0.108717 0.147597 0.0464457 0.098416 0.0794113 -0.0238452
internal_weight=0 1965.95 867.989 707.762 1097.96 1999.96 651.614 198.814 54.6027 452.8 1043.35 390.897 184.13 45.4182 159.675 155.183 34.2857 39.1395 30.235 449.206 8.75281 10.1039 28.5984 23.5814 7.13113 4.69656 16.4503 39.6674 20.1493 1965.67
internal_count=59742 25711 7937 5258 17774 34031 4341 1990 497 2351 17277 6207 2729 365 1355 1298 434 635 366 2286 66 186 352 291 88 57 203 271 155 33597
is_linear=0
shrinkage=0.0291667


Tree=9
num_leaves=31
num_cat=0
split_feature=8 34 12 23 6 26 6 20 17 20 14 24 22 25 19 24 2 27 6 6 6 6 29 22 16 39 6 25 25 2
split_gain=161.712 234.178 94.7353 57.2095 35.2472 109.616 196.298 111.75 70.5625 56.1904 46.5355 63.5031 65.7103 41.7521 39.1862 44.2081 33.8097 31.4086 131.882 177.696 58.7274 33.3731 50.5428 64.8462 30.8799 28.2136 26.972 85.0753 208.047 68.2009
threshold=159.00000000000003 1.5000000000000002 2.5000000000000004 0.037422500000000004 565.00000000000011 44.500000000000007 755.00000000000011 2935430961.5000005 199.87076550000003 2446072357.5000005 200.73169850000002 0.058948000000000007 0.16335200000000002 55.500000000000007 4029824077.0000005 0.068045500000000009 4.5000000000000009 1.0000000180025095e-35 1289.0000000000002 1449.0000000000002 1861.0000000000002 757.00000000000011 3.5000000000000004 0.14399450000000005 13319.814890000001 1.5000000000000002 1119.0000000000002 134.50000000000003 128.50000000000003 1.5000000000000002
decision_type=2 2 2 2 2 2 2 2 2 2 2 2 2 2 2 2 2 2 2 2 2 2 2 2 2 2 2 2 2 2
left_child=-1 2 3 26 13 6 7 9 -9 10 11 -6 -13 -5 -7 -16 -17 20 -19 -20 21 -8 24 -24 -23 -3 -2 28 29 -28
right_child=1 25 -4 4 5 14 17 8 -10 -11 -12 12 -14 -15 15 16 -18 18 19 -21 -22 22 23 -25 -26 -27 27 -29 -30 -31
leaf_value=-0.023257476680509991 0.014068670753858467 0.0214675494747231 -0.016872293803994208 0.054754699732881801 0.19334517737280391 0.029968549693925005 -0.024615584708322147 0.99377163203925034 0.41077639065213445 -0.059808395617547201 0.047842257690190834 0.91551460277245245 0.32561076393173816 -0.012851744272347049 0.035365824521895024 0.537095372474368 0.16207797953178396 -0.013691945746638873 0.94630641917569791 -0.024616609167538765 -0.024600540694603341 0.21926574450235842 0.16885731282787597 0.77966029128269454 -0.02460583159845129 -0.019945079888503359 0.40015300902840356 0.012105931481937287 0.79542500521916304 0.0077986044721958404
leaf_weight=378.16117379628122 113.76800040248781 14.854392373003064 43.499172588810325 18.089568690396845 0.60230810381472089 32.851061258465052 0.53436755947768544 0.3150396030396222 0.40193578321486712 0.41345277987420548 0.40252641402184952 0.31023638974875212 0.33312408439815044 13.623342086561026 0.96225176099687704 0.36285373661667109 0.46864057332277298 5.3417156273499131 0.30040099006146181 0.34396127052605152 1.5016139736399052 2.2723435489460835 0.30154346488416184 0.29012369271367788 0.54827450122684229 241.83457642234862 0.48058732599019882 7.1409175647422671 0.42679066769778717 1.7465521637350321
leaf_count=30360 2789 613 2603 467 24 1313 36 21 27 12 27 20 23 986 46 17 30 362 20 23 106 156 22 21 38 19009 28 433 26 84
internal_value=0 0.00197265 0.0222078 0.0305354 0.0496568 0.065199 0.133407 0.35329 0.666945 0.244211 0.320475 0.408574 0.61007 0.0257121 0.0372169 0.169965 0.325731 0.0799734 0.0338562 0.428027 0.130643 0.18971 0.223273 0.468364 0.171862 -0.0175486 0.0180671 0.0645091 0.20551 0.0924635
internal_weight=0 504.322 247.633 204.134 80.5707 48.8578 14.213 2.77862 0.716975 2.06165 1.64819 1.24567 0.64336 31.7129 34.6448 1.79375 0.831494 11.4343 5.98608 0.644362 5.44827 3.94665 3.41229 0.591667 2.82062 256.689 123.563 9.79485 2.65393 2.22714
internal_count=59742 29382 9760 7157 3797 2344 938 154 48 106 94 67 43 1453 1406 93 47 784 405 43 379 273 237 43 194 19622 3360 571 138 112
is_linear=0
shrinkage=0.0291667


Tree=10
num_leaves=31
num_cat=0
split_feature=8 2 34 30 26 28 28 34 23 22 34 7 11 6 12 25 25 6 6 34 11 7 26 6 29 6 6 25 25 34
split_gain=17368.9 2709.08 2353.64 839.772 634.302 426.771 819.351 238.82 157.518 109.967 101.673 79.428 77.1196 69.0039 66.6251 65.1206 64.9249 50.9654 54.3499 59.4093 46.6853 45.2792 283.529 108.687 39.288 46.3988 76.485 35.3472 34.0772 33.8228
threshold=61.000000000000007 1.0000000180025095e-35 1.5000000000000002 2.5000000000000004 68.500000000000014 122.50000000000001 268.50000000000006 1.5000000000000002 0.054054000000000005 0.14755200000000002 2.5000000000000004 87.500000000000014 10129.095215000003 535.00000000000011 1.0000000180025095e-35 88.500000000000014 43.500000000000007 68033.000000000015 2515.0000000000005 3.5000000000000004 4546.3234865000004 603.00000000000011 57.500000000000007 70180.500000000015 3.5000000000000004 543.00000000000011 569.00000000000011 168.50000000000003 54.500000000000007 19.500000000000004
decision_type=2 2 2 2 2 2 2 2 2 2 2 2 2 2 2 2 2 2 2 2 2 2 2 2 2 2 2 2 2 2
left_child=-1 2 9 4 8 21 7 12 10 -2 28 -11 -7 -10 -5 -9 -12 18 19 -15 24 -3 23 -23 25 -13 -27 -21 -4 -18
right_child=1 5 3 14 -6 6 -8 15 13 11 16 20 -14 17 -16 -17 29 -19 -20 27 -22 22 -24 -25 -26 26 -28 -29 -30 -31
leaf_value=0.041079893108082216 -0.037134520646395344 -0.043110769612614022 -0.0029741452889214962 -0.031353568791268389 -0.032576427698783751 0.0044057293597975673 -0.043631321317495912 0.024497691699033458 0.019842847590151383 0.043106534366739439 0.021330013790227947 0.0097093290216725345 -0.036855829036530174 -0.0028745783158427912 0.04092414736638704 -0.044034401877553447 -0.0036311920036808743 -0.016880486202154914 0.017638574256071425 0.013072296771481372 -0.03980890155954888 -0.0010966570859134801 -0.042672343802904536 -0.04473030909840385 -0.034343349582519979 -0.03980754513997109 -0.011385790715054255 -0.02710364488163379 -0.023914495170225491 0.0097960088075258189
leaf_weight=6000.1388740241528 1446.2306561879814 2411.0707770064473 94.994539827108383 11.08446681499481 449.54013331606984 62.226441025733948 569.93765011429787 318.20118963718414 454.10774213075638 15.044360280036924 121.7844605743885 50.475419998168945 101.20852932333946 477.87496669590473 511.43079262971878 12.249227494001387 865.35036657750607 73.442657232284546 367.15654158592224 479.85921269655228 138.48942021653056 224.6102220416069 1260.0704034566879 61.959386438131332 140.1583601385355 115.89282740652561 264.09759846329689 19.381719022989273 217.42521993070841 195.68097776174545
leaf_count=20704 5058 8143 317 37 1506 208 1920 1081 1532 51 412 171 339 1605 1763 41 2895 245 1232 1610 467 751 4237 208 471 397 885 65 732 659
internal_value=0 -0.0201077 -0.00769097 0.00471274 -3.49084e-05 -0.0362037 -0.0198034 0.00769376 0.00430975 -0.0324889 -0.00274862 -0.023211 -0.0211459 0.00994807 0.0393909 0.0219573 0.0011602 0.00677867 0.00807126 0.00447629 -0.0246179 -0.0406121 -0.036717 -0.0105307 -0.0209311 -0.0165641 -0.0200541 0.0115126 -0.0175474 -0.00115488
internal_weight=0 11531 6509.5 4339.11 3816.6 5021.53 1063.82 493.885 3367.06 2170.39 1495.24 724.158 163.435 1871.82 522.515 330.45 1182.82 1417.72 1344.27 977.116 709.114 3957.71 1546.64 286.57 570.624 430.466 379.99 499.241 312.42 1061.03
internal_count=59742 39038 22110 14610 12810 16928 3589 1669 11304 7500 5015 2442 547 6289 1800 1122 3966 4757 4512 3280 2391 13339 5196 959 1924 1453 1282 1675 1049 3554
is_linear=0
shrinkage=0.0291667


Tree=11
num_leaves=31
num_cat=0
split_feature=33 6 6 2 28 25 25 34 10 6 6 26 12 6 26 6 25 6 25 7 28 26 4 11 25 14 8 2 15 25
split_gain=15772.2 761.32 260.779 1076.95 57.0083 89.8541 23.2212 37.5484 40.7498 27.1817 70.2584 22.2858 132.532 25.0914 26.939 20.5938 19.6838 22.4953 17.6434 12.7708 12.459 11.5346 17.2453 10.4347 33.1436 11.7398 10.2809 57.8897 9.15362 10.6991
threshold=2.5000000000000004 115.00000000000001 115.00000000000001 1.5000000000000002 4258.0000000000009 95.500000000000014 99.500000000000014 1.5000000000000002 360571424.00000006 1091.0000000000002 1508.0000000000002 88.500000000000014 2.5000000000000004 1541.0000000000002 161.50000000000003 1151.0000000000002 144.50000000000003 3927.5000000000005 128.50000000000003 2763.0000000000005 83.500000000000014 1337.5000000000002 185.00000000000003 640302.00000000012 76.500000000000014 28.162352500000001 159.00000000000003 8.5000000000000018 11.229403000000003 50.500000000000007
decision_type=2 2 2 2 2 2 2 2 2 2 2 2 2 2 2 2 2 2 2 2 2 2 2 2 2 2 2 2 2 2
left_child=2 -2 3 -1 6 23 21 8 11 -10 -11 -8 13 14 20 -16 -14 19 -7 -18 -13 -4 -23 -6 25 -25 -19 -28 29 -27
right_child=1 -3 4 -5 5 18 7 -9 9 10 -12 12 16 -15 15 -17 17 26 -20 -21 -22 22 -24 24 -26 28 27 -29 -30 -31
leaf_value=-0.025987612680514555 0.10814193751282418 -0.024276211159079283 -0.025708571170627807 0.10858262509663352 -0.023837733629976484 0.1027333258050946 -0.021639721313180649 -0.025014226015090714 -0.022158006151756962 0.069911341723456727 -0.024349443121798972 0.076551821136743747 -0.025756585306602752 0.00062548737134579687 0.024448834750973626 0.11442267778947764 0.0098207837520348402 -0.025658406816419323 0.020042632068057575 0.072276438182625011 -0.0032669769519900879 0.079908475813321944 -0.020208877107793725 -0.026548551505608906 0.1126232348006825 -0.017802928895576931 -0.015946794583335703 0.13979700202264786 -0.015665475189721834 0.04589506369619039
leaf_weight=219.36289231106639 992.05602246522903 38.364000380039215 2986.0668287975714 65.755448028445244 31.110461480915546 7.7214188948273641 441.86769299954176 978.87637414969504 13.195749428123234 15.426762931048872 11.928023651242254 2.5140631645917955 120.59582087397575 6.2649138793349257 2.7986700609326354 9.5444316342473012 10.314695283770559 30.568806804716587 3.0668988302350044 3.8153789192438117 4.9176622107625008 2.1847320720553389 4.4342405125498772 15.309579245746134 2.0672915801405898 3.2639674991369265 18.901169143617157 2.2745932862162581 7.8834817036986342 7.1727383732795715
leaf_count=2398 4775 413 32936 325 326 47 4744 10739 154 108 118 19 1334 57 23 58 99 322 27 35 48 21 44 165 15 33 190 22 81 66
internal_value=0 0.103212 -0.0220441 0.00504766 -0.0236723 0.00112219 -0.0240846 -0.0213335 -0.0161488 0.0122236 0.028809 -0.017907 -0.0101455 0.0514918 0.0676069 0.094022 -0.0187529 -0.00593124 0.079226 0.026685 0.0237348 -0.0256233 0.012837 -0.0114903 -0.000729345 -0.00769736 -0.0148379 0.000782416 0.00805596 0.0259742
internal_weight=0 1030.42 5029.2 285.118 4744.09 77.5958 4666.49 1673.8 694.928 40.5505 27.3548 654.378 212.51 26.0397 19.7748 12.3431 186.47 65.8746 10.7883 14.1301 7.43173 2992.69 6.61897 66.8075 35.6971 33.6298 51.7446 21.1758 18.3202 10.4367
internal_count=59742 5188 54554 2723 51831 760 51071 18070 7331 380 226 6951 2207 205 148 81 2002 668 74 134 67 33001 65 686 360 345 534 212 180 99
is_linear=0
shrinkage=0.0291667


Tree=12
num_leaves=31
num_cat=0
split_feature=8 33 39 7 4 3 6 8 29 18 26 33 6 25 25 0 26 34 7 26 26 25 6 11 6 6 2 2 23 6
split_gain=3942.43 1238.2 715.317 430.36 339.481 227.859 199.283 178.385 134.291 117.176 114.919 113.647 160.102 91.6736 109.302 91.4072 83.044 81.347 108.437 72.5878 69.5023 66.4301 61.7956 49.9521 48.0559 255.407 141.643 122.855 88.0558 85.8571
threshold=159.00000000000003 3.5000000000000004 1.5000000000000002 679.00000000000011 10.500000000000002 4.5000000000000009 181.00000000000003 61.000000000000007 1.5000000000000002 1.0000000180025095e-35 62.500000000000007 2.5000000000000004 147.00000000000003 55.500000000000007 151.50000000000003 0.75463100000000016 99.500000000000014 1.5000000000000002 1349.0000000000002 55.500000000000007 134.50000000000003 253.50000000000003 2515.0000000000005 3436.9945070000003 755.00000000000011 757.00000000000011 3.5000000000000004 1.5000000000000002 0.073900500000000022 1013.0000000000001
decision_type=2 2 2 2 2 2 2 2 2 2 2 2 2 2 2 2 2 2 2 2 2 2 2 2 2 2 2 2 2 2
left_child=7 2 4 5 13 8 -3 -1 -4 -7 11 21 -13 -2 20 -6 19 18 -9 23 -15 22 24 -5 26 -26 27 28 -10 -27
right_child=1 6 3 16 15 9 -8 17 10 -11 -12 12 -14 14 -16 -17 -18 -19 -20 -21 -22 -23 -24 -25 25 29 -28 -29 -30 -31
leaf_value=-0.024479079710599053 0.01873846723969607 -0.024558162277602238 -0.0064181932511083858 0.055852729481259342 0.0010368812877045571 0.071446905714601411 0.066940190402044825 0.012502351900266459 0.029290554578729561 -0.024565715406080792 -0.022226611682684822 -0.022292775131644335 0.051970352772828757 -0.015523775683991693 0.01278909643447787 0.030069954031794882 0.0069597399446262274 -0.020790553300779457 -0.011928110529411427 0.054459353923970458 0.053996754150192068 0.035501410706402968 0.0063150114132700932 0.018527315611109381 0.083099575040045129 0.01290324802048679 0.073388363583159213 -0.024785789191659181 0.013371350400399096 0.038645317797970175
leaf_weight=2361.4136091172695 88.552410637028515 519.06077367067337 94.781345620751381 36.853774875402451 98.675286024808884 9.6612545996904355 16.937438189983368 155.17579827085137 634.44605435431004 93.758510150015354 34.29291470348835 70.914443582296371 27.863295137882233 575.80647593177855 124.12917901203036 307.83013943210244 33.068760320544243 488.68370779976249 647.88904163986444 450.74319039285183 10.08254639059305 532.06568276882172 115.54783886671066 74.953255191445351 61.720357790589333 185.74167264997959 37.619810827076435 38.004071332514286 384.54869792610407 171.90829183161259
leaf_count=20704 509 4207 685 183 622 44 79 940 3501 804 249 565 152 4518 802 1639 196 3919 4797 1868 59 2710 634 399 323 987 170 307 2281 889
internal_value=0 0.0159513 0.0206475 0.0273402 0.00349465 0.0225505 -0.0216668 -0.0201889 0.0242016 -0.0155964 0.0254663 0.0261899 -0.00134458 -0.0064458 -0.00958675 0.0230225 0.0473867 -0.0123461 -0.00720743 0.0497631 -0.0143274 0.0274481 0.0248186 0.0308305 0.0262308 0.0337865 0.0233361 0.0215547 0.023283 0.0252764
internal_weight=0 4829.57 4293.57 3088.49 1205.08 2492.87 535.998 3653.16 2389.45 103.42 2294.67 2260.38 98.7777 798.571 710.018 406.505 595.619 1291.75 803.065 562.55 585.889 2161.6 1629.54 111.807 1513.99 419.37 1094.62 1057 1018.99 357.65
internal_count=59742 29382 25096 16947 8149 14301 4286 30360 13453 848 12768 12519 717 5888 5379 2261 2646 9656 5737 2450 4577 11802 9092 582 8458 2199 6259 6089 5782 1876
is_linear=0
shrinkage=0.02625


Tree=13
num_leaves=31
num_cat=0
split_feature=39 9 8 25 9 7 23 29 0 7 6 0 2 26 25 10 12 6 34 6 11 2 25 4 7 13 25 5 15 6
split_gain=7580.63 2357.35 1090.15 887.631 486.384 1082.36 243.182 184.717 139.29 122.296 101.662 86.7722 74.0367 86.6637 70.4502 65.8288 61.4257 63.9186 60.7768 59.5935 56.133 51.3825 48.3923 53.4427 47.9141 54.3699 42.4778 39.4188 38.9157 38.8632
threshold=1.5000000000000002 31.500000000000004 159.00000000000003 59.500000000000007 31.500000000000004 1415.0000000000002 0.016448000000000001 1.5000000000000002 0.80581000000000003 1415.0000000000002 865.00000000000011 23.239531500000002 1.0000000180025095e-35 99.500000000000014 49.500000000000007 360571424.00000006 6.5000000000000009 70180.500000000015 2.5000000000000004 607.00000000000011 5349.4377440000007 4.5000000000000009 87.500000000000014 45.000000000000007 709.00000000000011 1.5000000000000002 46.500000000000007 99.000000000000014 68.933281500000021 887.00000000000011
decision_type=2 2 2 2 2 2 2 2 2 2 2 2 2 2 2 2 2 2 2 2 2 2 2 2 2 2 2 2 2 2
left_child=1 15 9 20 -2 6 28 19 10 14 -5 -7 13 24 -3 -1 29 -18 21 -8 -4 26 -23 -24 25 -10 -9 -15 -6 -14
right_child=4 2 3 8 5 11 7 18 12 -11 -12 -13 16 27 -16 -17 17 -19 -20 -21 -22 22 23 -25 -26 -27 -28 -29 -30 -31
leaf_value=-0.023181448172792298 -0.024396181179779482 0.058089720622670857 -0.021577014076746132 0.019695723336908 0.042770351606815131 0.04961271635583981 -0.0159310598279029 0.073006173332669816 0.0034384697327777048 0.055399170165816698 0.045734296083487974 -0.019100424968650043 0.017272269478777559 0.054271997796229453 0.028616051348875775 0.0076779134405208001 -0.0094300628675564966 0.054720675406274642 -0.022402656394264805 0.029405757925833172 0.016957186948324186 -0.009576149082766253 0.044405010366824489 -0.025609327653960172 -0.015036878449544835 0.045918847667582779 -0.016122946566057207 -0.028404123785826938 -0.01706665026291794 0.049022748403398347
leaf_weight=501.52429991215467 3663.5639435835183 76.503042250871658 282.06081996392459 130.40540046617389 56.56079988181591 213.22614192962646 27.107853725552559 3.7080137580633155 93.682438760995865 1453.222983956337 497.44057556986809 13.463266626000403 34.964624777436256 36.387041971087456 207.32087463140488 52.630849771201611 38.41134886443615 14.836186543107031 1126.4951355159283 75.959036745131016 28.698980730958283 65.635326772928238 30.208781585097313 9.9987857043743116 65.574151948094368 26.67110875248909 581.68837720155716 4.4609361886978141 8.6323865354061109 110.566207498312
leaf_count=3908 27527 279 2004 692 253 845 188 23 488 5372 2041 77 180 148 938 313 212 70 8058 368 190 416 126 67 377 137 3915 21 54 455
internal_value=0 0.0296179 0.0385289 0.0209666 -0.018527 -0.00880936 -0.0150121 -0.0167043 0.0324675 0.052321 0.040326 0.0455318 0.0208732 0.0106223 0.0365605 -0.0202506 0.0325679 0.00844405 -0.0186427 0.0174816 -0.0180183 -0.0125152 0.00431607 0.0269939 0.00301623 0.0128524 -0.0155584 0.0452431 0.0348472 0.0413945
internal_weight=0 3655.36 3101.21 1364.16 5876.25 2212.68 1985.99 1920.8 1053.4 1737.05 627.846 226.689 425.554 226.776 283.824 554.155 198.778 53.2475 1817.73 103.067 310.76 691.239 105.843 40.2076 185.928 120.354 585.396 40.848 65.1932 145.531
internal_count=59742 17825 13604 7015 41917 14390 13468 13161 4821 6589 2733 922 2088 1171 1217 4221 917 282 12605 556 2194 4547 609 193 1002 625 3938 169 307 635
is_linear=0
shrinkage=0.02625


Tree=14
num_leaves=31
num_cat=0
split_feature=26 34 25 25 39 37 6 2 25 32 6 25 25 2 2 6 25 25 28 7 6 6 16 15 19 16 25 0 15 19
split_gain=1725.36 2458.69 1023.74 432.618 370.086 181.362 113.261 159.277 93.4429 44.9706 64.2406 336.256 47.1286 35.5955 24.1033 23.3573 20.1081 18.5465 18.2265 58.6868 17.69 16.0453 15.5198 14.1958 16.422 12.9795 71.4934 11.0322 27.5263 20.1601
threshold=45.500000000000007 1.5000000000000002 101.50000000000001 55.500000000000007 1.5000000000000002 2.5000000000000004 565.00000000000011 1.5000000000000002 101.50000000000001 1.5000000000000002 565.00000000000011 55.500000000000007 85.500000000000014 1.5000000000000002 9.5000000000000018 757.00000000000011 102.50000000000001 71.500000000000014 122.50000000000001 1329.0000000000002 861.00000000000011 871.00000000000011 3579.6877985000006 67.03400000000002 3365891976.5000005 5325.4729055000007 83.500000000000014 0.64525500000000002 89.061544000000012 3698082069.0000005
decision_type=2 2 2 2 2 2 2 2 2 2 2 2 2 2 2 2 2 2 2 2 2 2 2 2 2 2 2 2 2 2
left_child=1 2 3 -1 8 18 13 15 -3 10 11 -6 25 -5 -15 -8 -7 -9 -2 23 -19 22 -17 -20 -25 26 -13 -26 -29 -30
right_child=5 4 -4 6 9 16 7 17 -10 -11 -12 12 -14 14 -16 21 -18 20 19 -21 -22 -23 -24 24 27 -27 -28 28 29 -31
leaf_value=-0.01675685526126643 -0.022263235694400467 0.061573107544684397 -0.019647568803939738 0.067585595575910554 -0.022732097273648152 0.042382423777078758 -0.021842473025269808 -0.0028384126502902199 -0.023055061690577687 -0.0218059169175998 -0.020775708668610584 -0.024032001703697445 -0.018220897104294902 -0.0071702352713213747 0.062870410514492422 0.080912357819547587 -0.0174601087650504 0.062935202635756277 -0.010669756082024447 -0.021550594503671746 0.047443434251167441 -0.0020026210110856806 0.0065337691717674397 0.0080228980471121793 -0.022991162536276907 0.076883480880784172 0.076301345147057914 0.15701377093011082 0.098367789914486317 -0.0021404037494585377
leaf_weight=53.894233942963183 1505.9855436943471 53.996476264670491 147.10461287386715 549.87959154322743 124.87168178707361 35.066457901149988 21.035679215565324 3.8197139576077452 10.786204556003211 594.20862500742078 190.5200566444546 6.6298764944076565 5.4381566457450381 7.4452424310147745 6.2090732455253601 4.2670158892869976 4.3489360958337775 106.45448438823223 19.1180031709373 201.28500075638294 97.135475687682629 10.997877452522514 3.5341344214975834 32.165205135941505 1.2738340497016887 24.300985410809517 18.686805427074432 1.6041321158409116 2.162897851318121 3.7756653465330601
leaf_count=917 28854 307 2630 2232 2364 365 391 51 190 11070 3478 75 94 96 26 51 69 563 336 3666 775 149 56 582 23 118 78 29 39 68
internal_value=0 0.0153093 0.0443692 0.0552602 -0.0132521 -0.0199107 0.0600474 0.0452353 0.0474827 -0.0173308 -0.0101527 0.00109578 0.0551396 0.066546 0.0246796 -0.0028405 0.0357796 0.0544687 -0.0211527 -0.014754 0.0555439 0.0184223 0.0472168 0.00800895 0.0167226 0.06318 0.0500263 0.0484615 0.0605286 0.0344659
internal_weight=0 2041.22 1011.78 864.673 1029.44 1806.79 810.778 247.244 64.7827 964.656 370.448 179.928 55.0558 563.534 13.6543 39.8347 39.4154 207.41 1767.37 261.385 203.59 18.799 7.80115 60.0997 40.9817 49.6177 25.3167 8.81653 7.5427 5.93856
internal_count=59742 25711 7937 5307 17774 34031 4390 2036 497 17277 6207 2729 365 2354 122 647 434 1389 33597 4743 1338 256 107 1077 741 271 153 159 136 107
is_linear=0
shrinkage=0.02625


Tree=15
num_leaves=31
num_cat=0
split_feature=8 34 12 2 6 25 6 25 25 23 5 22 5 6 16 6 39 24 22 22 17 10 16 11 14 24 6 25 25 25
split_gain=131.219 158.709 58.193 31.4108 80.7479 58.1639 50.8006 68.8821 115.042 84.9208 44.589 40.8747 60.8698 37.9313 26.9325 26.3845 25.2171 23.9186 33.4283 22.6799 41.8895 23.7798 27.6864 22.6009 21.4687 22.498 16.3847 38.3745 41.5037 15.2233
threshold=159.00000000000003 1.5000000000000002 2.5000000000000004 1.0000000180025095e-35 1273.0000000000002 131.50000000000003 617.00000000000011 114.50000000000001 78.500000000000014 0.072871000000000005 6.5000000000000009 0.051653500000000012 6.5000000000000009 857.00000000000011 5199.9454410000008 559.00000000000011 1.5000000000000002 0.047531500000000004 0.095572500000000019 0.18996200000000005 197.50053900000003 2999.1435545000004 9674.1353930000023 119916.23050000002 99.66647900000001 0.046243000000000006 2051.0000000000005 721.50000000000011 767.50000000000011 71.500000000000014
decision_type=2 2 2 2 2 2 2 2 2 2 2 2 2 2 2 2 2 2 2 2 2 2 2 2 2 2 2 2 2 2
left_child=-1 2 3 6 -5 10 15 8 14 11 -6 -10 13 -13 -8 19 29 -15 -19 21 -21 22 -2 -4 -16 -26 27 -9 -29 -3
right_child=1 16 23 4 5 -7 7 26 9 -11 -12 12 -14 17 24 -17 -18 18 -20 20 -22 -23 -24 -25 25 -27 -28 28 -30 -31
leaf_value=-0.020737222989725509 0.21721590719281242 0.061024566803522001 -0.01778041623648266 -0.018717822173719458 0.17665157666831049 -0.011689723952304061 0.022128928619642916 0.01818498719460097 0.052151334096469208 0.068006663588902644 0.054078472541621139 0.55033957768391861 0.1229254174451619 0.41323516427158524 0.24339729151012005 -0.0018291221349031393 -0.017592377410860009 0.096960476789856906 0.37787732176626015 0.24286130404611589 0.035570149891213432 0.017664343677381726 0.04216100826221876 0.10954133708671548 0.32871955508091821 0.058035921203570116 -0.022478224609333249 0.39979955563225544 0.068673891269699222 0.0016359958110193002
leaf_weight=337.02294900920242 0.87465960346162264 4.0177274011075488 40.75573808606714 39.120253358967602 2.9778806753456575 6.0409951703622928 14.978950061835354 21.628532054834075 0.70447363890707304 4.0010058861225843 6.5280297761783004 0.50402767024934325 1.2642634622752669 0.72275515738874663 0.58421598561108012 43.317364286631346 224.04730673506856 0.65808569081127621 0.52454739529639482 0.90280560310929958 2.6245979955419898 75.06908287294209 2.1598892975598574 0.98387044947594304 0.22405900340527285 3.7996569210663438 5.9796474957838646 0.3731940435245622 0.86630827840417624 11.450172691605983
leaf_count=30360 31 147 2570 2034 38 219 154 491 36 107 41 24 48 28 15 1804 19009 23 26 32 88 1351 54 33 8 92 346 20 47 466
internal_value=0 0.000308976 0.0137958 0.0188405 0.00139407 0.0520011 0.0240877 0.044668 0.0740239 0.155424 0.0924765 0.235311 0.270434 0.347834 0.0392014 0.0147299 -0.0153544 0.294266 0.221559 0.023517 0.0886244 0.0205765 0.0926177 -0.0147792 0.0946988 0.0731088 0.0162092 0.0263254 0.16837 0.0170619
internal_weight=0 517.684 278.169 236.429 54.6672 15.5469 181.762 56.8137 27.966 8.37916 9.50591 4.37815 3.67368 2.40942 19.5869 124.948 239.515 1.90539 1.18263 81.631 3.5274 78.1036 3.03455 41.7396 4.60793 4.02372 28.8477 22.868 1.2395 15.4679
internal_count=59742 29382 9760 7157 2332 298 4825 1465 561 292 79 185 149 101 269 3360 19622 77 49 1556 120 1436 85 2603 115 100 904 558 67 613
is_linear=0
shrinkage=0.02625


Tree=16
num_leaves=31
num_cat=0
split_feature=8 2 34 30 26 28 28 39 23 22 34 11 7 0 12 25 25 26 7 26 6 25 29 25 25 25 39 6 1 11
split_gain=13516.1 2148.24 1828.21 659.973 477.506 334.651 636.204 185.748 122.592 97.3388 88.5938 68.2506 66.3893 59.4525 56.7834 47.7277 47.1955 44.0238 40.578 232.054 84.7132 39.2487 33.2367 34.8444 69.829 31.424 30.5215 29.697 33.5059 29.5421
threshold=61.000000000000007 1.0000000180025095e-35 1.5000000000000002 2.5000000000000004 68.500000000000014 122.50000000000001 272.50000000000006 1.5000000000000002 0.057930500000000003 0.13960000000000003 2.5000000000000004 11086.836430000001 87.500000000000014 1.4391295000000002 1.0000000180025095e-35 43.500000000000007 89.500000000000014 84.500000000000014 603.00000000000011 57.500000000000007 70180.500000000015 53.500000000000007 3.5000000000000004 55.500000000000007 57.500000000000007 55.500000000000007 1.5000000000000002 106.00000000000001 113.50000000000001 2402.4202880000007
decision_type=2 2 2 2 2 2 2 2 2 2 2 2 2 2 2 2 2 2 2 2 2 2 2 2 2 2 2 2 2 2
left_child=-1 2 9 4 8 18 7 11 10 27 25 -7 -11 21 -5 -12 -9 22 -3 20 -20 -10 23 -14 -25 -4 -17 28 -2 -26
right_child=1 5 3 14 -6 6 -8 16 13 12 15 -13 17 -15 -16 26 -18 -19 19 -21 -22 -23 -24 24 29 -27 -28 -29 -30 -31
leaf_value=0.033848120531086164 0.043054152948902247 -0.034847407778727087 -0.002280348681412925 -0.026457791233157411 -0.025509461658701025 0.0030418660031920628 -0.035336286016070688 0.019393246287267976 0.017065890146452448 0.036649542685434543 0.017219775890303424 -0.031268967338142675 0.0034231746675198165 -0.0052150909365034801 0.033772863629466979 -0.033440512666932917 -0.035759805499159435 -0.032875597470281091 -0.00056173685283807183 -0.034303433947309343 -0.035775405445602711 0.0076082605634787293 -0.027192796274480416 -0.032675903238796503 0.0009926925435008861 -0.019414882020068702 0.00039567414760670403 -0.031178561059635328 -0.019336027598811114 -0.016349112224254753
leaf_weight=5676.3496542721987 6.5916791856288901 2305.7246957719326 110.36766901612282 11.030891835689543 438.8961382471025 69.080010503530502 543.1157009601593 312.48602303862572 409.01226696372032 14.704967230558394 120.41920799016953 94.731502622365952 73.283747021108866 197.28352743387222 485.07827100157738 18.677426047623158 11.069775819778441 141.67829228192568 224.54799565672874 1211.2849589586258 59.561155080795288 1159.4959077164531 155.87063856422901 123.51289112865925 118.21449476480484 222.30683305859566 1114.7738299965858 1252.0820107460022 59.200259268283844 158.36605209857225
leaf_count=20704 22 8143 369 37 1506 231 1907 1088 1396 51 414 325 254 663 1763 67 38 490 751 4237 208 3908 536 445 395 753 3734 4570 198 539
internal_value=0 -0.0158574 -0.0058714 0.00396284 0.000237234 -0.0290662 -0.0157979 0.00597545 0.00360805 -0.0259154 -0.00168772 -0.0167999 -0.0186019 0.00836625 0.0324336 0.00150741 0.0175063 -0.0196558 -0.0326632 -0.0292954 -0.00794399 0.0100745 -0.0166793 -0.0132174 -0.0162654 -0.0137304 -0.000161891 -0.0302753 -0.0130852 -0.00893698
internal_weight=0 11222.4 6390.85 4287.34 3791.23 4831.6 1030.48 487.367 3352.34 2103.51 1586.54 163.812 785.631 1765.79 496.109 1253.87 323.556 770.926 3801.12 1495.39 284.109 1568.51 629.248 473.377 400.093 332.675 1133.45 1317.87 65.7919 276.581
internal_count=59742 39038 22110 14610 12810 16928 3589 1682 11304 7500 5337 556 2710 5967 1800 4215 1126 2659 13339 5196 959 5304 2169 1633 1379 1122 3801 4790 220 934
is_linear=0
shrinkage=0.02625


Tree=17
num_leaves=31
num_cat=0
split_feature=33 6 6 2 28 25 25 34 6 25 7 12 8 2 25 4 25 26 6 26 4 7 15 10 5 7 12 6 25 26
split_gain=10443.6 398.128 230.52 704.063 54.209 63.9902 24.2143 37.0722 34.3587 92.9514 68.953 67.5066 15.6759 55.9755 20.6319 63.1485 17.7554 17.3948 11.1191 10.934 11.7869 10.7864 12.4395 21.4825 10.7014 25.5894 10.5253 10.5087 43.0225 9.21294
threshold=2.5000000000000004 115.00000000000001 115.00000000000001 1.5000000000000002 4258.0000000000009 95.500000000000014 99.500000000000014 1.5000000000000002 1541.0000000000002 562.50000000000011 1211.0000000000002 2.5000000000000004 159.00000000000003 7.5000000000000009 268.50000000000006 25.000000000000004 599.50000000000011 54.500000000000007 1541.0000000000002 1337.5000000000002 185.00000000000003 603.00000000000011 113.91442950000003 46788.232425000009 16.500000000000004 2977.0000000000005 2.5000000000000004 1289.0000000000002 64.500000000000014 339.50000000000006
decision_type=2 2 2 2 2 2 2 2 2 2 2 2 2 2 2 2 2 2 2 2 2 2 2 2 2 2 2 2 2 2
left_child=2 -2 3 -1 6 27 19 8 9 10 -8 29 24 17 -15 -16 -17 -14 -7 -4 -21 22 23 -19 25 -10 -26 -6 -29 -12
right_child=1 -3 4 -5 5 18 7 -9 12 -11 11 -13 13 14 15 16 -18 21 -20 20 -22 -23 -24 -25 26 -27 -28 28 -30 -31
leaf_value=-0.023128674949054656 0.067899174065858436 -0.021491558269034643 -0.022841838036299675 0.067972886406143102 -0.01990696417996338 0.074827108528981182 -0.01799417035315487 -0.022141541647087894 -0.020888043415403061 0.052736543627170326 0.07689963326123625 -0.021415667604610493 -0.02147257533089128 -0.0033617384921740359 0.16361479287554662 -0.024346995164243664 0.056272560360897124 0.1239869736082902 0.024905328589334867 0.053266857859102769 -0.017498890235771843 -0.0080796754342016067 -0.023865057906761026 0.00061481714975399342 0.1187853713648501 0.066481704294222538 -0.023137491274288803 -0.011691588168566856 0.07549975083420124 0.033095462349065401
leaf_weight=198.9203762114048 1244.0470404848456 35.30608456581831 2695.3079748745076 82.780368939042091 33.313710980117321 7.6107631176710111 135.10002547688782 882.22367264889181 8.5468371510505659 17.847618952393532 10.788218654692171 11.034735031425953 132.65531477332115 6.3260770663619068 2.7865991368889791 3.637656569480896 3.9010930508375168 1.7763164862990373 5.1577634587883949 2.6859048232436171 4.0939651802182198 52.632481828331947 2.0095748975872993 2.1492964699864388 0.36058144271373649 3.1654193401336661 254.49812255054712 25.947679981589321 4.589164972305297 4.771867699921132
leaf_count=2398 4775 413 32936 325 369 37 1597 10739 92 106 57 125 1461 64 24 35 37 20 37 21 44 547 22 24 2 28 3062 293 24 28
internal_value=0 0.0654323 -0.0193644 0.00364236 -0.0208664 0.0010165 -0.021262 -0.0186306 -0.0138944 -0.00411362 -0.0103887 0.0282469 -0.0175957 -0.0121924 0.0339683 0.0568395 0.0173714 -0.016212 0.0546615 -0.0227581 0.0105356 -0.00429675 0.0292498 0.05644 -0.0218092 0.00272499 -0.0229367 -0.00971117 0.00141178 0.0634661
internal_weight=0 1279.35 4596.62 281.701 4314.92 76.6191 4238.3 1536.21 653.988 179.542 161.695 26.5948 474.445 207.874 16.6514 10.3253 7.53875 191.223 12.7685 2702.09 6.77987 58.5677 5.93519 3.92561 266.571 11.7123 254.859 63.8506 30.5368 15.5601
internal_count=59742 5188 54554 2723 51831 760 51071 18070 7331 1913 1807 210 5418 2234 160 96 72 2074 74 33001 65 613 66 44 3184 120 3064 686 317 85
is_linear=0
shrinkage=0.02625


Tree=18
num_leaves=31
num_cat=0
split_feature=8 33 39 7 4 8 3 6 29 26 18 34 13 33 6 25 25 10 0 2 13 25 0 0 39 34 2 29 25 6
split_gain=3151.81 956.531 511.46 269.675 253.454 177.042 161.906 155.805 97.602 90.6606 87.1395 76.5726 89.0377 76.4227 124.044 69.5849 86.4009 61.6275 60.6471 55.848 55.6532 49.6302 48.6836 59.0544 46.5789 112.631 79.277 60.6856 56.0526 52.1513
threshold=159.00000000000003 3.5000000000000004 1.5000000000000002 679.00000000000011 10.500000000000002 61.000000000000007 4.5000000000000009 181.00000000000003 1.5000000000000002 62.500000000000007 1.0000000180025095e-35 1.5000000000000002 2.5000000000000004 2.5000000000000004 529.00000000000011 293.50000000000006 55.500000000000007 22398.118165000004 0.75463100000000016 4.5000000000000009 2.5000000000000004 1006.5000000000001 0.62772450000000013 14.353705000000003 2.5000000000000004 2.5000000000000004 1.5000000000000002 3.5000000000000004 73.500000000000014 827.00000000000011
decision_type=2 2 2 2 2 2 2 2 2 2 2 2 2 2 2 2 2 2 2 2 2 2 2 2 2 2 2 2 2 2
left_child=5 2 4 6 15 -1 8 -3 -4 13 -8 12 17 21 -15 16 -2 -7 -6 20 -5 22 24 -24 -10 26 27 -26 -27 -30
right_child=1 7 3 19 18 11 10 -9 9 -11 -12 -13 -14 14 -16 -17 -18 -19 -20 -21 -22 -23 23 -25 25 28 -28 -29 29 -31
leaf_value=-0.03502428574326405 0.021843785887906253 -0.035182752014031163 -0.0087604580500394401 0.064768418718816861 0.0013564612590050327 0.00015291421978080969 0.077812538825419303 0.075045937955941472 0.01868451523466904 -0.031884883145344489 -0.035150275911671698 -0.029276946611105328 -0.018780088312905389 -0.028803890492964813 0.067277991385569197 0.030022687480890708 -0.017297147642974905 0.049102348027749397 0.035370462124036786 -0.001005248617985214 0.039876225313734831 0.058800973637408493 0.022662860681929915 0.075072278947057508 0.042148590691188842 0.02536113276369319 -0.012370230238475321 0.09126751893358262 0.061895836515377334 0.03524574548074251
leaf_weight=2065.7496456131339 94.734650004189461 469.34211154282093 92.994769692420959 443.5864092707634 98.952430985867977 220.73452889174223 11.32494120299816 19.469665080308914 185.98840986192226 32.876793764531612 82.320737354457378 447.55848338827491 510.43120683729649 68.711322799324989 27.400204345583916 62.044540397822857 622.30705175921321 45.169739328324795 335.6056561768055 24.790795996785164 185.78208948671818 106.43370276689529 789.45864211767912 32.639294937252998 54.961872048676014 511.74600818753242 16.702349312603474 110.17548318952322 153.02949231863022 356.27041211724281
leaf_count=20704 509 4207 685 1639 622 1441 44 79 913 249 804 3919 4005 585 132 342 5037 291 1639 129 878 482 4269 137 266 2685 130 487 726 1707
internal_value=0 0.0199356 0.0254449 0.0332657 0.00426214 -0.0282063 0.0278146 -0.0307923 0.0296328 0.0310923 -0.0214892 -0.0166987 -0.00944727 0.0319502 -0.00141214 -0.00876929 -0.0121259 0.00846806 0.0276252 0.0552064 0.0574205 0.0333338 0.0321079 0.0247436 0.0364669 0.0392163 0.0669018 0.0749195 0.0342858 0.0432533
internal_weight=0 4989.65 4500.84 3287.19 1213.64 3289.64 2633.03 488.812 2539.39 2446.39 93.6457 1223.89 776.335 2413.52 96.1115 779.086 717.042 265.904 434.558 654.159 629.368 2317.41 2210.97 822.098 1388.87 1202.89 181.84 165.137 1021.05 509.3
internal_count=59742 29382 25096 16947 8149 30360 14301 4286 13453 12768 848 9656 5737 12519 717 5888 5546 1732 2261 2646 2517 11802 11320 4406 6914 6001 883 753 5118 2433
is_linear=0
shrinkage=0.0381818


Tree=19
num_leaves=31
num_cat=0
split_feature=39 9 8 25 9 7 23 29 22 7 2 8 26 25 10 25 6 10 2 25 11 5 5 6 4 25 25 26 27 25
split_gain=5874.06 1644.15 718.655 647.546 447.664 815.923 197.514 162.766 98.8821 85.7951 84.4855 66.8409 60.4359 305.169 58.9761 51.7554 51.5869 47.6244 46.4127 45.4882 40.6754 39.1253 33.3692 50.9973 33.1613 31.7336 40.9051 31.1142 27.1508 32.3261
threshold=1.5000000000000002 31.500000000000004 159.00000000000003 59.500000000000007 31.500000000000004 1511.0000000000002 0.016448000000000001 1.5000000000000002 0.13960000000000003 1415.0000000000002 4.5000000000000009 159.00000000000003 58.500000000000007 73.500000000000014 181666664.00000003 52.500000000000007 521.00000000000011 6157.798828500001 4.5000000000000009 94.500000000000014 22831.862305000006 12.500000000000002 12.500000000000002 921.00000000000011 60.500000000000007 78.500000000000014 126.50000000000001 161.50000000000003 1.0000000180025095e-35 134.50000000000003
decision_type=2 2 2 2 2 2 2 2 2 2 2 2 2 2 2 2 2 2 2 2 2 2 2 2 2 2 2 2 2 2
left_child=1 14 9 15 -2 6 -6 17 19 16 -10 -7 18 -14 -1 -4 -3 -8 -9 -5 -15 -21 23 -12 -24 -20 -27 -18 -11 -30
right_child=4 2 3 8 5 11 7 12 10 28 22 -13 13 20 -16 -17 27 -19 25 21 -22 -23 24 -25 -26 26 -28 -29 29 -31
leaf_value=-0.03368573725007256 -0.034721415928335463 0.06826024472238193 0.016237274069993334 0.033834096227255028 0.042034306760691545 0.064424559744353599 -0.0085995521052269919 -0.031846997915319926 0.0061039625245841635 0.068605341248884288 0.019310349852125375 0.011996871117852234 0.084625148691939864 -0.025935290409149457 0.0032095668650236114 -0.03144142614102359 0.026511550618519356 0.042910670463846799 -0.033754617112769267 0.059163712834088986 0.075087584919452541 0.030164522494526901 -0.028033411966153984 0.061241960650992064 0.069453205498759635 0.060417043932542491 -0.0095493465297370045 0.063747357935497892 0.05949029058394649 0.0018207166142261604
leaf_weight=426.79755449295044 3261.041271686554 85.314601361751556 38.197601407766342 244.21823820844293 70.701873019337654 192.44356071949005 43.717354759573936 1210.2841559126973 201.88843838497996 1070.5742053091526 65.617699563503265 43.457025706768036 41.816817998886108 357.50192982703447 74.131237681955099 253.2280181273818 179.93071754276752 65.18185605853796 29.980165414512157 390.58739943802357 5.9063955768942824 82.079903811216354 18.052393555641178 118.90988150238991 7.0827252864837638 18.92435759305954 34.190774470567703 39.985460758209229 479.78328701853752 14.601352274417875
leaf_count=3730 27527 291 260 1117 310 673 274 9257 1021 3655 302 203 269 2596 491 1934 769 288 194 1441 32 365 108 437 30 85 209 157 1664 53
internal_value=0 0.0362157 0.0460273 0.0255471 -0.0258494 -0.0121641 -0.0205706 -0.0230194 0.0386508 0.0615761 0.0237335 0.0547665 -0.0259205 -0.0130536 -0.0282257 -0.0251921 0.0430586 0.022232 -0.0299518 0.0472145 -0.0242934 0.0541279 0.0407093 0.0463311 -0.000563045 -0.00234808 0.0153789 0.0332818 0.0651877 0.0577871
internal_weight=0 3790.98 3290.05 1419.86 5375.15 2114.11 1878.21 1807.5 1128.44 1870.19 411.551 235.901 1698.6 405.225 500.929 291.426 305.231 108.899 1293.38 716.886 363.408 472.667 209.663 184.528 25.1351 83.0953 53.1151 219.916 1564.96 494.385
internal_count=59742 17825 13604 7015 41917 14390 13514 13204 4821 6589 1898 876 12642 2897 4221 2194 1217 562 9745 2923 2628 1806 877 739 138 488 294 926 5372 1717
is_linear=0
shrinkage=0.0381818


Tree=20
num_leaves=31
num_cat=0
split_feature=26 34 25 39 25 37 6 2 25 32 6 25 25 2 6 28 26 2 23 23 6 25 6 6 2 25 6 24 29 19
split_gain=1408.69 1768.83 704.515 290.645 285.357 158.149 90.9072 98.9698 61.939 43.1244 59.1324 263.256 32.7534 24.0452 20.2792 19.2103 54.6915 16.2516 15.0026 13.2978 15.6921 11.9378 11.7507 11.0603 10.8521 17.6023 70.2655 10.8135 11.1228 10.4511
threshold=45.500000000000007 1.5000000000000002 103.50000000000001 1.5000000000000002 55.500000000000007 2.5000000000000004 565.00000000000011 1.5000000000000002 101.50000000000001 1.5000000000000002 565.00000000000011 55.500000000000007 85.500000000000014 1.5000000000000002 757.00000000000011 122.50000000000001 166.50000000000003 9.5000000000000018 0.024024500000000004 0.077245000000000022 807.00000000000011 71.500000000000014 953.00000000000011 887.00000000000011 4.5000000000000009 96.500000000000014 793.00000000000011 0.07484250000000002 1.5000000000000002 1045200546.5000001
decision_type=2 2 2 2 2 2 2 2 2 2 2 2 2 2 2 2 2 2 2 2 2 2 2 2 2 2 2 2 2 2
left_child=1 2 4 8 -1 15 13 14 -3 10 11 -5 -13 -6 -8 -2 19 -15 -7 -17 -21 -9 -23 27 -12 26 -26 28 -16 -22
right_child=5 3 -4 9 6 18 7 21 -10 -11 24 12 -14 17 23 16 -18 -19 -20 20 29 22 -24 -25 25 -27 -28 -29 -30 -31
leaf_value=-0.023833379484583604 -0.032087723113372851 0.069204955521878886 -0.029956621931057609 -0.032865255502154016 0.078028443616498647 -0.033318861197056321 -0.031590441061052119 -0.0054978686678036504 -0.033392253295726676 -0.031390773071756521 -0.032562252907601626 0.074594788461978923 -0.026026069136444424 -0.010839491230496233 0.025387488223697498 -0.0068878421896979222 -0.032139109039934596 0.069858759662146608 0.050184161312839821 -0.019356193800745835 -0.0013016766564360269 0.064525461323749478 0.040240197372030967 -0.0052417301218211382 -0.033480760078089179 -0.033388247682295771 0.26099582413455857 -0.018756400781541997 0.11642136061744239 0.057412053499727042
leaf_weight=51.321160289924592 1340.3063237015158 62.207247901707888 133.09246024303138 112.27870396152139 609.99769575707614 3.4040523469448081 19.985343212727457 3.984475150704383 9.9505897490307671 539.11382347717881 161.19725768268108 55.221625410020351 5.1566112749278536 7.4847760144621116 3.7924696058034915 40.178438898175955 170.78236857429147 7.0790973305702209 39.939710780978203 8.1201491504907626 5.9473974406719234 208.00798378139734 33.760786473751068 10.590820305049418 3.9486469216644755 8.044416066259144 1.6855279915034769 2.5065741054713726 4.0422243475914001 17.206815287470818
leaf_count=917 28854 307 2541 2364 2233 68 391 51 190 11070 3227 271 94 96 40 717 3469 26 366 147 110 1080 329 149 70 151 30 37 47 300
internal_value=0 0.0192395 0.0523818 -0.0186329 0.0637667 -0.0283286 0.0687004 0.0508997 0.0550568 -0.0246299 -0.0141421 0.00170842 0.0660013 0.0768708 -0.00408119 -0.0302993 -0.020404 0.0283857 0.0436262 0.00764447 0.0263143 0.0600539 0.0611342 0.0221838 -0.0297916 0.00286017 0.0546153 0.0502712 0.0723554 0.0423308
internal_weight=0 2054.45 1095.65 958.804 962.553 1625.89 911.232 286.671 72.1578 886.647 347.533 172.657 60.3782 624.562 40.9174 1582.54 242.235 14.5639 43.3438 71.4528 31.2744 245.753 241.769 20.9321 174.876 13.6786 5.63417 10.3413 7.83469 23.1542
internal_count=59742 25711 7937 17774 5396 34031 4479 2124 497 17277 6207 2729 365 2355 664 33597 4743 122 434 1274 557 1460 1409 273 3478 251 100 124 87 410
is_linear=0
shrinkage=0.0381818


Tree=21
num_leaves=31
num_cat=0
split_feature=8 34 12 39 2 6 25 15 22 19 6 6 6 6 6 7 5 26 0 39 29 10 6 31 25 6 24 6 20 6
split_gain=112.68 123.045 43.258 22.1353 20.2923 62.0537 35.5406 27.6717 22.3737 27.173 18.9527 25.5755 20.3935 17.0283 20.0111 16.8174 20.9841 15.7516 15.5527 12.8069 19.6914 118.681 13.2934 12.8686 12.0594 27.6954 20.2868 15.2761 17.5693 12.1622
threshold=159.00000000000003 1.5000000000000002 2.5000000000000004 1.5000000000000002 1.0000000180025095e-35 1273.0000000000002 131.50000000000003 66.426468500000013 0.29389400000000004 2641505821.5000005 617.00000000000011 2051.0000000000005 103.00000000000001 559.00000000000011 181.00000000000003 6687.0000000000009 65.000000000000014 661.50000000000011 8.5000000000000016e-06 2.5000000000000004 1.5000000000000002 11291.85547 547.00000000000011 1.5000000000000002 114.50000000000001 1077.0000000000002 0.049094500000000006 1803.0000000000002 2683373118.5000005 953.00000000000011
decision_type=2 2 2 2 2 2 2 2 2 2 2 2 2 2 2 2 2 2 2 2 2 2 2 2 2 2 2 2 2 2
left_child=-1 2 4 -3 8 -6 7 -7 10 -10 12 24 18 14 -14 -4 -17 -5 -2 22 -21 23 -16 -22 25 -12 -27 29 -29 -26
right_child=1 3 15 17 5 6 -8 -9 9 -11 11 -13 13 -15 19 16 -18 -19 -20 20 21 -23 -24 -25 27 26 -28 28 -30 -31
leaf_value=-0.029840036887166559 0.048212068134779587 0.021510326609349005 -0.027066859064280545 -0.025376718376792583 -0.026858224907242129 0.055338249480178875 -0.016242029908078621 0.17838660151988317 0.00502825015083246 0.31270165077445999 0.053802343992820842 -0.032807140259394636 -0.003081029940954781 -0.0036618703152925909 0.027304443790855046 0.19392563962168582 -0.033068814323003251 0.28231597171901895 0.28317913373813985 0.04678947715896252 -0.0040049749122042979 0.81383232606094924 0.13028855974168047 0.23714520628070562 0.048141217992212618 0.07961837317124007 0.27511442473172432 0.071787639535589906 0.37428419211929675 -0.0065035044997499968
leaf_weight=299.11855968181044 0.94670062325894722 16.065214928239584 37.528983103111386 206.64946475345641 36.72372233401984 7.4682792546227592 5.8395125307142726 4.1421402618288994 0.79717779252678045 0.88090386614203453 34.020669188350439 5.9710614029318085 23.988761276006699 42.544263149611652 47.281711648218334 1.1593006057664745 1.2169318273663519 0.2428370201960196 0.72533193230628967 5.6664208136498919 1.340216185897589 0.36101507581770409 1.9007584257051338 0.42487530596554268 12.500990863889461 1.620299901813268 1.4812850523740051 1.0991744818165887 0.37555338256061066 11.309924460947512
leaf_count=30360 44 613 2515 18989 2034 44 219 35 29 24 497 346 787 1786 538 27 61 20 29 27 61 22 18 20 68 15 27 53 19 415
internal_value=0 -0.000346759 0.0160804 -0.0216631 0.021986 0.00131068 0.0605927 0.0992371 0.0277229 0.16654 0.0265194 0.042685 0.017689 0.0158959 0.026173 -0.0208298 0.0776757 -0.0250156 0.150141 0.0384901 0.0839682 0.183055 0.0312845 0.0540423 0.0499079 0.0637601 0.172985 0.0295713 0.148821 0.0221856
internal_weight=0 512.273 289.316 222.958 249.411 54.1737 17.4499 11.6104 195.237 1.67808 193.559 68.379 125.18 123.508 80.9638 39.9052 2.37623 206.892 1.67203 56.975 7.79253 2.12611 49.1825 1.76509 62.4079 37.1223 3.10158 25.2856 1.47473 23.8109
internal_count=59742 29382 9760 19622 7157 2332 298 79 4825 53 4772 1440 3332 3259 1473 2603 88 19009 73 686 130 103 556 81 1094 539 42 555 72 483
is_linear=0
shrinkage=0.0381818


Tree=22
num_leaves=31
num_cat=0
split_feature=8 2 34 30 26 28 28 39 22 22 34 11 7 6 6 12 8 7 26 6 0 25 39 29 6 25 6 6 34 25
split_gain=10697.8 1756.72 1461.65 526.961 365.817 276.017 510.667 140.069 98.2736 85.4916 72.9028 59.7904 56.7044 50.3977 48.5653 45.3192 40.0652 38.9303 204.838 70.1805 38.3562 38.1812 35.3429 32.9371 32.3687 30.4255 32.4631 42.2998 50.6979 30.1681
threshold=61.000000000000007 1.0000000180025095e-35 1.5000000000000002 2.5000000000000004 68.500000000000014 122.50000000000001 272.50000000000006 1.5000000000000002 0.098634500000000014 0.13778850000000001 4.5000000000000009 11086.836430000001 87.500000000000014 535.00000000000011 106.00000000000001 1.0000000180025095e-35 159.00000000000003 603.00000000000011 57.500000000000007 70180.500000000015 2.4643240000000004 89.500000000000014 1.5000000000000002 3.5000000000000004 169.00000000000003 51.500000000000007 1053.0000000000002 1067.0000000000002 12.500000000000002 55.500000000000007
decision_type=2 2 2 2 2 2 2 2 2 2 2 2 2 2 2 2 2 2 2 2 2 2 2 2 2 2 2 2 2 2
left_child=-1 2 9 4 8 17 7 11 10 -2 14 -7 -11 -10 -4 -5 -14 -3 19 -19 22 -9 -15 29 -16 -12 -27 28 -28 -18
right_child=1 5 3 15 -6 6 -8 21 13 12 25 -13 16 20 24 -17 23 18 -20 -21 -22 -23 -24 -25 -26 26 27 -29 -30 -31
leaf_value=0.045817973196873314 -0.040372730245902023 -0.046685629939483352 0.0044124146655011307 -0.033469354364305579 -0.032779801507620297 0.0056223479761905483 -0.047181275390113318 0.025171236286909905 0.021397588322162431 0.051041120220479477 0.023231893183418686 -0.041462997031737975 -0.049949448460936886 -0.030245963111092927 -0.049604486140728675 0.045719211425172483 0.0047972723333957936 0.00021395059076497987 -0.045733903991474138 -0.047594379861230988 -0.022628954226317624 -0.048370490116951326 0.0092101093002385608 -0.036930727064184266 -0.015692083385592491 -0.0064203971189982362 -0.023926491421746604 -0.00061359301168792098 0.039901304291798771 -0.021470205882032342
leaf_weight=5267.2811762392521 1235.4766364432871 2161.369126200676 178.34253251552582 10.787603765726088 422.96939158439636 69.079954028129578 509.30901339650154 303.67983931303024 465.53032770752907 14.325089275836943 114.86053094267845 91.25135064125061 87.480854406952858 33.904415041208267 45.647373095154762 451.48915347456932 74.812300529330969 224.56817239522934 1141.6250504255295 55.907429426908493 61.079121917486191 10.652933686971663 1389.7365918159485 171.89073026552796 405.80291079729795 330.91832152754068 22.175972372293472 187.10405111312866 99.730228185653687 430.75267239660025
leaf_count=20704 4731 8143 599 37 1506 231 1907 1088 1608 51 397 325 319 116 161 1763 261 751 4237 208 205 38 4698 610 1370 1112 74 626 338 1528
internal_value=0 -0.0205493 -0.00737054 0.0054031 0.000670832 -0.0385391 -0.0206269 0.00786566 0.0049135 -0.0341263 -0.0028655 -0.0211759 -0.0242229 0.0104362 -0.0124569 0.0438713 -0.0256324 -0.0434575 -0.0385513 -0.00931572 0.0069993 0.0226789 0.00827045 -0.0224923 -0.0191211 0.00513755 0.0018898 0.0107892 0.0282904 -0.0175832
internal_weight=0 10802.3 6234.82 4220.08 3757.8 4567.44 983.973 474.664 3334.83 2014.74 1384.58 160.331 779.262 1950.25 629.793 462.277 764.937 3583.47 1422.1 280.476 1484.72 314.333 1423.64 677.456 451.45 754.789 639.929 309.01 121.906 505.565
internal_count=59742 39038 22110 14610 12810 16928 3589 1682 11304 7500 4677 556 2769 6627 2130 1800 2718 13339 5196 959 5019 1126 4814 2399 1531 2547 2150 1038 412 1789
is_linear=0
shrinkage=0.0381818


Tree=23
num_leaves=31
num_cat=0
split_feature=33 6 6 2 28 25 25 34 6 25 7 12 2 7 8 13 4 6 7 26 20 26 5 7 6 25 7 26 10 26
split_gain=7656.35 254.291 202.057 513.44 52.5129 49.2849 25.0644 36.6075 31.4388 68.2762 59.5162 40.9285 16.274 13.1247 12.754 40.3157 44.0358 26.4271 12.4664 12.1509 10.7738 10.5078 10.2706 19.1305 10.0414 31.1427 9.67747 11.4003 9.25117 61.2839
threshold=2.5000000000000004 115.00000000000001 115.00000000000001 1.5000000000000002 4258.0000000000009 95.500000000000014 99.500000000000014 1.5000000000000002 1541.0000000000002 576.50000000000011 889.00000000000011 2.5000000000000004 11.500000000000002 1211.0000000000002 159.00000000000003 7.5000000000000009 25.000000000000004 5487.0000000000009 1975.0000000000002 54.500000000000007 1801614657.0000002 1337.5000000000002 16.500000000000004 2977.0000000000005 1289.0000000000002 64.500000000000014 603.00000000000011 58.500000000000007 6608.1772465000004 92.500000000000014
decision_type=2 2 2 2 2 2 2 2 2 2 2 2 2 2 2 2 2 2 2 2 2 2 2 2 2 2 2 2 2 2
left_child=2 -2 3 -1 6 24 21 8 9 10 -8 13 14 20 22 19 17 -17 -18 -16 -12 -4 23 -10 -6 -26 27 -21 29 -9
right_child=1 -3 4 -5 5 -7 7 28 12 -11 11 -13 -14 -15 15 16 18 -19 -20 26 -22 -23 -24 -25 25 -27 -28 -29 -30 -31
leaf_value=-0.033276219428777093 0.07784771499569143 -0.030693855184373602 -0.032810399470110961 0.077625614341417973 -0.02821492486285734 0.066429590932199786 -0.026562891323868545 -0.034100483068846457 -0.029813885804993681 0.062193149496967352 -0.03541517020606591 -0.030828829629855413 0.091214302748685111 0.075429018300467943 -0.030550129951620236 0.037935650730106345 0.046346371989461316 0.1859226688884637 -0.028104333603968436 0.079776588941558452 0.06866072831868815 0.014609434855656654 -0.032927102012302506 0.074736389780685447 -0.015466171303488884 0.086525778383883409 -0.014810731036323636 -0.021904072191628696 -0.032489881163719973 0.11960990949122316
leaf_weight=179.37115752510726 1378.1356755793095 32.202020548284054 2422.2871928606182 92.111836954951286 30.737095512449741 14.068291649222372 121.00024975836277 24.718868881464008 7.9483954906463605 19.28503730148077 3.3513204455375698 10.864516280591486 1.7581376135349263 17.517691500484943 125.80210068821907 3.6575310602784183 4.6777759939432135 3.3894765824079514 10.963589407503603 3.6538973525166503 2.5559723526239395 6.83166230469942 227.16545181721449 3.7576854079961777 24.131104432046417 5.3282357454299918 43.690173350274563 2.8702422529459 765.45432835444808 4.4643475562334052
leaf_count=2398 4775 413 32936 325 369 74 1539 333 92 99 33 134 11 85 1475 37 46 21 112 37 23 65 3064 28 293 24 466 29 10350 56
internal_value=0 0.0753694 -0.0275014 0.00435182 -0.0297119 0.00208874 -0.0303273 -0.0262751 -0.0192721 -0.00556501 -0.0139797 0.0304236 -0.0247187 0.0588325 -0.0251845 -0.0180374 0.0298657 0.109115 -0.00583878 -0.0242121 0.00961648 -0.032677 -0.0311299 0.00374705 -0.0129481 0.00298085 -0.00833344 0.035043 -0.0316855 -0.0105864
internal_weight=0 1410.34 4183.41 271.483 3911.93 74.2647 3837.67 1408.55 613.909 174.575 155.29 34.2895 439.334 23.425 437.576 198.705 22.6884 7.04701 15.6414 176.016 5.90729 2429.12 238.872 11.7061 60.1964 29.4593 50.2143 6.52414 794.638 29.1832
internal_count=59742 5188 54554 2723 51831 760 51071 18070 7331 1913 1814 275 5418 141 5407 2223 216 58 158 2007 56 33001 3184 120 686 317 532 66 10739 389
is_linear=0
shrinkage=0.0381818


Tree=24
num_leaves=31
num_cat=0
split_feature=8 2 4 7 39 3 6 6 8 13 32 34 39 6 25 10 34 7 11 26 18 25 16 29 34 25 6 26 7 6
split_gain=3335.08 1057.82 586.276 469.012 375.737 209.115 171.237 376.838 169.951 166.362 106.271 106.949 102.135 99.8305 117.833 91.2667 73.4665 98.9196 60.6433 58.0374 56.8445 51.6931 50.785 49.9038 112.951 87.3589 115.295 48.4388 48.2877 59.2679
threshold=159.00000000000003 1.0000000180025095e-35 10.500000000000002 684.00000000000011 1.5000000000000002 4.5000000000000009 115.00000000000001 699.00000000000011 61.000000000000007 2.5000000000000004 1.5000000000000002 2.5000000000000004 3.5000000000000004 569.00000000000011 55.500000000000007 360571424.00000006 1.5000000000000002 1415.0000000000002 304.75410450000004 60.500000000000007 1.0000000180025095e-35 57.500000000000007 18222.913615000005 1.5000000000000002 1.5000000000000002 55.500000000000007 565.00000000000011 99.500000000000014 1239.0000000000002 995.00000000000011
decision_type=2 2 2 2 2 2 2 2 2 2 2 2 2 2 2 2 2 2 2 2 2 2 2 2 2 2 2 2 2 2
left_child=8 3 6 4 13 10 -3 -8 -1 27 15 12 -12 14 -2 19 17 -10 -4 23 -7 -11 -23 -6 25 -25 -27 -5 -9 -30
right_child=1 2 18 9 5 20 7 28 16 21 11 -13 -14 -15 -16 -17 -18 -19 -20 -21 -22 22 -24 24 -26 26 -28 -29 29 -31
leaf_value=-0.020472717501144121 0.012778529488511676 -0.020758006714953609 0.056464227216980641 0.042291777029333177 -0.0051442597754494434 0.038315101153044012 0.044860499635278932 -0.013355568645481994 0.0085927167470136023 0.038826805291720556 0.0255478990689267 0.022670091597249743 0.066302485090208738 0.0080219547894180235 -0.01861089854356129 0.033611793847917473 -0.017227286065013975 -0.010236187608442717 0.018989044454763411 -0.017936006324045572 -0.020495356751548122 0.0030500823332640674 0.046251659923363768 0.056466620960770673 0.012535055015510659 -0.011259957086877118 0.035730032405016293 0.0049370579611622174 0.073700790306137146 -0.018711993810821996
leaf_weight=2097.3210501112044 80.984864650294185 595.39757414162159 23.139095515012741 508.74030844867229 60.299393128603697 9.0636723190546018 70.380031481385231 334.1216854006052 178.35215946659446 35.541935957968235 63.987314373254776 825.96454870700836 58.370305508375168 291.79620144329965 222.38259691558778 128.20697974413633 457.538484826684 619.94049342721701 291.11161896586418 27.894180983304977 81.697721339762211 109.57882250845432 15.406457394361494 51.35857780277729 917.12205539643764 36.669237494468689 88.42102025449276 17.836187893524766 7.1502050906419736 6.6480748951435089
leaf_count=20704 457 5065 93 1992 465 34 344 2345 1070 167 332 4230 273 1789 2012 592 3919 4667 1494 221 800 575 65 236 5006 237 371 106 39 42
internal_value=0 0.0121759 -0.00484004 0.0183985 0.0145304 0.0185367 -0.0130826 -0.0021576 -0.0165913 0.0349734 0.0198694 0.0255499 0.0449897 -0.00128216 -0.0102314 0.0157571 -0.0101092 -0.00602949 0.0217484 0.0138201 -0.0146224 0.0151176 0.00837538 0.0145878 0.0156758 0.0320004 0.0219553 0.0410265 -0.0116688 0.0291759
internal_weight=0 4959.27 1327.95 3631.32 2944.22 2349.06 1013.7 418.3 3353.15 687.104 2258.29 948.322 122.358 595.164 303.367 1309.97 1255.83 798.293 314.251 1181.76 90.7614 160.527 124.985 1153.87 1093.57 176.449 125.09 526.576 347.92 13.7983
internal_count=59742 29382 9422 19960 17055 12797 7835 2770 30360 2905 11963 4835 605 4258 2469 7128 9656 5737 1587 6536 834 807 640 6315 5850 844 608 2098 2426 81
is_linear=0
shrinkage=0.0222801


Tree=25
num_leaves=31
num_cat=0
split_feature=39 9 8 25 9 7 23 29 0 7 6 34 0 25 10 10 11 2 26 2 25 6 16 17 26 13 12 6 4 8
split_gain=6403.06 1834.52 875.46 716.792 463.204 907.535 212.179 170.131 109.31 102.522 89.9391 63.0626 62.6621 59.7568 58.9663 53.5089 52.8843 52.4034 52.3095 58.5835 45.6965 40.8843 38.9016 38.8612 31.817 31.0797 29.6434 53.0117 28.7574 28.4259
threshold=1.5000000000000002 31.500000000000004 159.00000000000003 59.500000000000007 31.500000000000004 1564.0000000000002 0.016448000000000001 1.5000000000000002 1.1278555000000001 1415.0000000000002 857.00000000000011 2.5000000000000004 10.676644000000001 49.500000000000007 360571424.00000006 7247.3337400000009 5349.4377440000007 4.5000000000000009 108.50000000000001 1.5000000000000002 87.500000000000014 3614.5000000000005 4944.9521160000013 119.52971100000001 43.500000000000007 1.5000000000000002 5.5000000000000009 999.00000000000011 10.500000000000002 159.00000000000003
decision_type=2 2 2 2 2 2 2 2 2 2 2 2 2 2 2 2 2 2 2 2 2 2 2 2 2 2 2 2 2 2
left_child=1 14 9 16 -2 6 23 15 10 13 -5 17 29 -3 -1 -8 -4 -9 19 -10 -19 -22 -15 -6 -11 -21 27 -26 -29 -7
right_child=4 2 3 8 5 12 7 11 18 24 -12 -13 -14 22 -16 -17 -18 20 -20 25 21 -23 -24 -25 26 -27 -28 28 -30 -31
leaf_value=-0.019221336985097336 -0.020346917139831149 0.043540487871491569 -0.018022918999135492 0.012547036813179096 0.032911115233476972 0.041706947408541348 -0.0033644038125529531 -0.012573311101154849 -0.0013243632701216248 -0.018612306809279503 0.031683153102072086 -0.018590227329551123 -0.0091498989117334631 0.02793149116793029 0.0053284470636240323 0.02802568413029256 0.01354003462235292 -0.0070964900384158378 0.034425092697014756 0.026909249413673487 0.038124345773765118 -0.00928778407030895 0.0082013769674281461 -0.012911402572105903 0.041471920791750903 0.00035517790830820684 0.044181833883754719 -0.0031680724852033923 0.029580649160673007 0.01843841590579768
leaf_weight=455.92492084205151 3334.7736552134156 80.197538837790489 270.1066457699053 149.48160874843597 59.715699143707752 180.14405271410942 50.008328385651112 561.01236178725958 138.29944437742233 4.3779353499412528 661.23704768717289 1058.4305818602443 14.758395209908484 142.30109532177448 54.357500236481428 58.48238629847765 29.200263390317559 65.762140095233917 45.399352565407753 86.207946747541428 27.950249969959259 13.336246699094771 76.154915854334831 10.857902154326437 486.94960050284863 29.322216987609863 883.54939952492714 14.735774159431456 137.61540105938911 30.470388188958168
leaf_count=3908 27527 279 2004 759 253 640 305 3954 748 16 2595 8082 74 576 313 258 190 430 188 374 112 84 362 61 1716 157 3086 57 497 137
internal_value=0 0.0226555 0.0288483 0.0156557 -0.0151621 -0.00704823 -0.0120486 -0.0135066 0.023907 0.0390306 0.0281548 -0.0152073 0.0352307 0.0270919 -0.0166062 0.0135566 -0.0149436 -0.00984752 0.0123983 0.00845862 0.00443761 0.0228094 0.0210535 0.0258612 0.0413652 0.0201697 0.0415377 0.0378833 0.0264131 0.0383406
internal_weight=0 3745.42 3235.14 1409.25 5465.7 2130.93 1905.56 1834.98 1109.95 1825.88 810.719 1726.49 225.373 298.654 510.282 108.491 299.307 668.061 299.229 253.83 107.049 41.2865 218.456 70.5736 1527.23 115.53 1522.85 639.301 152.351 210.614
internal_count=59742 17825 13604 7015 41917 14390 13539 13225 4821 6589 3354 12662 851 1217 4221 563 2194 4580 1467 1279 626 196 938 314 5372 531 5356 2270 554 777
is_linear=0
shrinkage=0.0222801


Tree=26
num_leaves=31
num_cat=0
split_feature=26 34 25 25 39 37 6 2 25 32 6 25 25 6 10 32 25 28 26 25 6 25 26 24 20 24 6 39 28 23
split_gain=1563.71 2073.8 852.661 348.756 325.405 171.172 97.2646 132.102 74.554 46.4205 64.7833 301.876 40.3262 30.7867 23.2778 19.4642 19.0342 18.5954 48.3097 17.8268 15.744 15.2747 13.2527 14.6113 21.5498 21.8996 12.4301 11.9347 11.8861 14.383
threshold=45.500000000000007 1.5000000000000002 100.50000000000001 55.500000000000007 1.5000000000000002 2.5000000000000004 565.00000000000011 1.5000000000000002 101.50000000000001 1.5000000000000002 565.00000000000011 55.500000000000007 85.500000000000014 131.00000000000003 10667.361815000002 4.5000000000000009 86.500000000000014 122.50000000000001 166.50000000000003 73.500000000000014 895.00000000000011 116.50000000000001 125.50000000000001 0.051313000000000004 1381234269.0000002 0.04184750000000001 757.00000000000011 3.5000000000000004 188.50000000000003 0.071102500000000013
decision_type=2 2 2 2 2 2 2 2 2 2 2 2 2 2 2 2 2 2 2 2 2 2 2 2 2 2 2 2 2 2
left_child=1 2 3 -1 8 17 13 14 -3 10 11 -6 -13 -5 -8 16 22 -2 -19 -9 -21 -4 -7 24 -24 -26 -16 28 29 -25
right_child=5 4 21 6 9 15 7 19 -10 -11 -12 12 -14 -15 26 -17 -18 18 -20 20 -22 -23 23 27 25 -27 -28 -29 -30 -31
leaf_value=-0.013937617937059258 -0.018751080444697848 0.045704448930726269 -0.00046024682463339118 0.0027371691456599626 -0.019189423952340915 -0.0006157851135155407 -0.013517309434687442 0.0004562486429734512 -0.019512427062165192 -0.018379817261694572 -0.017435734194259398 0.049648339156477705 -0.015264050376708771 0.051235705883436247 -0.019350514368089811 0.094074340414697658 -0.015524785378343203 0.0024522783627902943 -0.018752413610671519 0.046333314223809985 0.033462219803103668 -0.019130994480291732 0.007495864520642246 -0.0031182551511799244 0.050280924450201561 0.1419505993401983 0.036041641255929527 0.043241901337241886 -0.015797013339401547 0.072762286318691416
leaf_weight=51.569051454775035 1364.7792794427369 58.294332136400044 26.60755050368607 6.5700195748358956 113.53347100690007 5.5802314504981032 28.635648564435542 5.2142673134803763 10.227996250614522 556.41400748491287 177.17544899880886 51.684113822877407 5.2316891066730014 587.89068835787475 2.5814328743144861 2.1195203289389601 5.0686297416687003 77.605570573359728 170.52921244502068 145.11323596537113 69.89974419772625 119.17386866360903 2.3941022157669094 2.5762953199446219 3.1499002315104008 2.1952302530407906 9.1004609800875169 10.824461191892622 4.7859718725085258 2.390663705766201
leaf_count=917 28854 307 445 100 2364 54 449 57 190 11070 3478 271 94 2251 82 16 79 1274 3469 764 534 2234 25 27 33 22 104 106 48 24
internal_value=0 0.012613 0.0342888 0.0423309 -0.0108412 -0.0165871 0.0457247 0.0343738 0.0359698 -0.0143893 -0.00800188 0.00180424 0.0436816 0.0506997 -0.00270437 0.0283215 0.0247449 -0.017731 -0.0121205 0.0411618 0.042149 -0.0157233 0.0307665 0.0369508 0.0630476 0.0879294 0.0238012 0.0271357 0.00926004 0.0334041
internal_weight=0 2024.92 1052.36 906.575 972.561 1654 855.005 260.545 68.5223 904.039 347.625 170.449 56.9158 594.461 40.3175 41.085 38.9655 1612.91 248.135 220.227 215.013 145.781 33.8969 28.3166 7.73923 5.34513 11.6819 20.5774 9.75293 4.96696
internal_count=59742 25711 7937 5258 17774 34031 4341 1990 497 17277 6207 2729 365 2351 635 434 418 33597 4743 1355 1298 2679 339 285 80 55 186 205 99 51
is_linear=0
shrinkage=0.0222801


Tree=27
num_leaves=31
num_cat=0
split_feature=8 34 12 22 6 39 19 6 26 25 29 19 16 6 6 22 2 17 16 27 26 14 23 24 22 16 20 20 6 2
split_gain=127.919 163.247 61.9364 45.7726 24.3474 21.9711 21.592 21.6582 33.9081 78.2352 37.4826 34.6814 25.7005 16.7783 44.0131 32.4046 16.731 16.4265 16.1136 18.9815 26.0933 20.9874 27.4598 16.9682 15.578 22.4832 21.0207 20.6118 15.5039 15.4171
threshold=159.00000000000003 1.5000000000000002 2.5000000000000004 0.1386725 617.00000000000011 1.5000000000000002 2027528717.5000002 565.00000000000011 44.500000000000007 73.500000000000014 1.5000000000000002 4029824077.0000005 3966.2077555000005 1077.0000000000002 1363.0000000000002 0.18857450000000001 1.5000000000000002 135.29771900000003 4278.5190315000009 1.0000000180025095e-35 44.500000000000007 120.99747850000001 0.060028000000000005 0.045758000000000007 0.15122000000000002 3735.6288225000003 2967463160.5000005 1801614657.0000002 1273.0000000000002 4.5000000000000009
decision_type=2 2 2 2 2 2 2 2 2 2 2 2 2 2 2 2 2 2 2 2 2 2 2 2 2 2 2 2 2 2
left_child=-1 2 3 4 16 -3 24 -8 9 10 -9 -10 -13 29 15 -15 17 -2 -6 20 21 22 -20 -23 25 -5 27 -27 -21 -11
right_child=1 5 -4 6 18 -7 7 8 11 13 -12 12 -14 14 -16 -17 -18 -19 19 28 -22 23 -24 -25 -26 26 -28 -29 -30 -31
leaf_value=-0.017443175403659007 0.011294520494423551 0.012197361282691322 -0.012340546960695309 -0.0020982624302903936 0.018758053515442304 -0.014711829095928986 0.0247462846555054 0.1429741036138106 0.028033641778648706 0.089233875470253021 0.39894610993800672 0.26736495671597083 0.067226156352371252 0.36177739692934568 0.022581101343148766 0.090185283074892195 -0.042904658798548136 -0.01212059288257086 0.32138365532629004 -0.01878699355825858 0.02313535437562269 0.14667731264480516 0.09802996344708749 -0.01898942334319495 0.01074299996292642 0.067795946582913061 0.0014359525531938496 0.21086186019270839 0.12229519755634796 -0.018775838167475016
leaf_weight=304.96669440064579 78.877552086487412 16.212563603185117 40.441042461432517 1.953874379396441 62.794244044460356 212.24775201454759 10.476818393915893 0.5505201462656284 9.6428740601986629 1.2352477125823498 0.58651626110076904 0.54357945267110952 0.76920905895531178 0.46817199327051628 1.0759082548320291 0.40822961926460266 3.4706296334043136 18.328425200656056 0.52361785620450907 2.1094576241448526 1.9358854908496139 0.67090697865933158 0.57143276371061802 0.565660385414958 17.762478552758694 1.0630756886675961 0.82434822991490353 0.94361099321395148 0.47344126738607872 1.398968699388206
leaf_count=30360 1310 613 2603 54 2095 19009 459 28 353 51 30 23 30 24 73 20 151 1099 23 155 49 20 29 24 811 46 33 32 29 106
internal_value=0 0.00094412 0.0130014 0.0176593 0.0121696 -0.0128022 0.0364708 0.0498517 0.0656213 0.109572 0.275012 0.0426601 0.150097 0.0685583 0.118058 0.235269 0.00516333 0.00687954 0.0222978 0.0547445 0.0835975 0.133798 0.20483 0.070894 0.0203549 0.0560361 0.0961583 0.13507 0.00707315 0.0318725
internal_weight=0 488.926 260.466 220.025 170.321 228.46 49.7034 27.156 16.6792 5.72356 1.13704 10.9557 1.31279 4.58653 1.95231 0.876402 100.677 97.206 69.6446 6.8504 4.2675 2.33162 1.09505 1.23657 22.5474 4.78491 2.83103 2.00669 2.5829 2.63422
internal_count=59742 29382 9760 7157 4984 19622 2173 1197 738 332 58 406 53 274 117 44 2560 2409 2424 329 145 96 52 44 976 165 111 78 184 157
is_linear=0
shrinkage=0.0222801


Tree=28
num_leaves=31
num_cat=0
split_feature=8 2 34 30 26 28 28 34 23 22 34 11 7 6 25 25 31 34 39 12 7 26 6 29 6 25 11 6 6 34
split_gain=11429.8 1844.91 1565.65 559.475 403.995 296.965 545.662 151.391 110.678 82.7331 73.2951 61.4587 57.536 51.0512 45.881 45.8608 45.3363 54.7075 46.91 43.6491 41.0934 211.755 75.0291 32.7576 33.9761 54.3644 34.5 31.5624 42.2012 28.7498
