tree
version=v3
num_class=1
num_tree_per_iteration=1
label_index=0
max_feature_idx=40
objective=binary sigmoid:1
feature_names=feature1 feature2 feature3 feature4 feature5 feature6 feature7 feature8 feature9 feature10 feature11 feature12 feature13 feature14 feature15 feature16 feature17 feature18 feature19 feature20 feature21 feature22 feature23 feature24 feature25 feature26 feature27 feature28 feature29 feature30 feature31 feature32 feature33 feature34 feature35 feature36 feature37 feature38 feature39 feature40 feature41
feature_infos=[0:59.999935000000001] [0:131] [0:12] [0:6] [1:10646] [0:10872] [24:14355774] [0:14590859] [0:255] [0:254] [0:5468000256] [0:22422730] [0:5319] [0:5436] [0:60009.991999999998] [0:53390.32] [0:1375285.8940000001] [0:287289.70079999999] [0:255] [0:4294817672] [0:4294690912] [0:255] [0:3.6243889999999999] [0:2.8646240000000001] [0:1.7506299999999999] [24:1504] [0:1461] [0:5] [0:5242880] [1:63] [0:6] [1:59] [1:59] [1:46] [1:63] [0:4] [0:4] [0:30] [1:60] [1:62] [0:1]
tree_sizes=3350 3388 3404 3400 3406 3402 3412 3399 3408 3404 3430 3422 3394 3409 3408 3419 3421 3422 3435 3407 3427 3429 3440 3425 3411 3426 3433 3444 3434 3431 3437 3435 3409 3433 3442 3442 3440 3448 3419 3432 3452 3441 3435 3439 3421 3441 3420 3427 3446 3435 3414 3427 3412 3404 3417 3402 3427 3427 3423 3429 3455 3430 3414 3437 3403 3391 3411 3426 3378 3370 3401 3413 3429 3408 3418 3426 3394 3379 3426 3401 3398 3416 3372 3411 3412 3386 3423 3376 3409 3382 3407 3413 3381 3409 3414 3412 3403 3383 3414 3427

Tree=0
num_leaves=31
num_cat=0
split_feature=8 23 34 25 39 25 29 5 34 3 12 26 14 7 0 7 6 39 0 1 6 14 28 27 34 34 6 0 27 23
split_gain=32776.8 3574.94 3032.78 2269.96 1137.93 905.817 858.312 495.12 440.822 321.567 304.747 465.782 188.826 170.258 168.47 157.236 156.237 350.866 126.772 114.442 106.118 99.4754 87.0073 148.67 79.9707 79.8194 65.9766 60.6372 68.2743 59.4083
threshold=61.000000000000007 0.041120500000000011 1.5000000000000002 52.500000000000007 1.5000000000000002 479.50000000000006 2.5000000000000004 4.5000000000000009 2.5000000000000004 4.5000000000000009 2.5000000000000004 57.500000000000007 1.0000000180025095e-35 1495.0000000000002 7.5000000000000002e-06 1495.0000000000002 201.00000000000003 2.5000000000000004 1.1255750000000002 117.50000000000001 1069.0000000000002 166.26443350000002 123.50000000000001 1.0000000180025095e-35 2.5000000000000004 12.500000000000002 80.000000000000014 1.4452750000000003 1.0000000180025095e-35 0.074881500000000017
decision_type=2 2 2 2 2 2 2 2 2 2 2 2 2 2 2 2 2 2 2 2 2 2 2 2 2 2 2 2 2 2
left_child=12 3 15 6 -4 16 19 -6 20 26 13 27 14 22 -1 18 -5 -18 -3 -2 -7 24 23 29 -19 -10 -8 28 -12 -9
right_child=1 2 4 5 7 8 9 10 25 -11 11 -13 -14 -15 -16 -17 17 21 -20 -21 -22 -23 -24 -25 -26 -27 -28 -29 -30 -31
leaf_value=0.29024575276016196 0.71413861076452856 0.68178142664350094 0.7048852790643223 0.72238658581731918 0.29212815781827628 0.51568882007515426 0.407011908940768 0.47677146492276307 0.53045242952714278 0.29867990529327154 0.42432715200446813 0.65570065012280043 0.29024575276016196 0.7105886298148143 0.71810534949861515 0.72045125325830883 0.71049502451078073 0.68963665540038477 0.60777893774089031 0.53077528796365747 0.69697554776434223 0.6935952810244852 0.37485250301368267 0.64967856763029119 0.5108791964254068 0.40950231272932025 0.51746558911740947 0.53970353109863489 0.59563235906317147 0.42272668918454781
leaf_weight=17.32289046049118 154.52018290758133 569.80761021375656 212.95606672763824 5293.4133809804916 159.37059223651886 39.034246504306793 76.220718026161194 337.21893429756165 103.24442714452744 142.27867364883423 231.20284467935562 207.41274178028107 3312.5985997915268 23.790102899074554 19.632609188556671 509.52395141124725 881.61963850259781 29.79537159204483 389.88052129745483 43.653683960437775 186.8562451004982 54.047418236732483 171.38112962245941 36.724527776241302 156.36795789003372 115.71690827608109 186.16332948207855 83.380846083164215 25.868849754333496 512.52658575773239
leaf_count=75 669 2467 922 22918 690 169 330 1460 447 616 1001 898 14342 103 85 2206 3817 129 1688 189 809 234 742 159 677 501 806 361 112 2219
internal_value=0.566445 0.650289 0.566445 0.689285 0.486366 0.705634 0.503239 0.460352 0.567641 0.419736 0.476805 0.537569 0.292754 0.446028 0.517546 0.675554 0.715202 0.681303 0.651717 0.673747 0.665649 0.574163 0.440078 0.452688 0.539489 0.466533 0.48538 0.465601 0.441565 0.444174
internal_weight=0 10934 3471.05 7462.93 2001.83 6860.1 602.837 1788.88 444.852 404.663 1629.51 547.865 3349.55 1081.64 36.9555 1469.21 6415.24 1121.83 959.688 198.174 225.89 240.211 1057.85 886.47 186.163 218.961 262.384 340.453 257.072 849.746
internal_count=61841 47339 15028 32311 8667 29701 2610 7745 1926 1752 7055 2372 14502 4683 160 6361 27775 4857 4155 858 978 1040 4580 3838 806 948 1136 1474 1113 3679
is_linear=0
shrinkage=1


Tree=1
num_leaves=31
num_cat=0
split_feature=8 22 34 25 39 25 29 4 34 26 3 7 6 34 14 7 14 1 0 7 1 6 34 28 27 37 6 6 33 6
split_gain=25496.5 3104.43 2507.91 1945.36 920.309 806.241 688.683 375.914 359.781 337.609 234.501 225.447 149.984 309.733 145.405 141.64 133.096 132.69 113.441 106.028 100.962 91.0599 61.3869 60.3773 114.238 59.0612 57.2257 64.2575 56.3992 50.178
threshold=61.000000000000007 0.090075500000000017 1.5000000000000002 52.500000000000007 1.5000000000000002 479.50000000000006 2.5000000000000004 10.500000000000002 2.5000000000000004 57.500000000000007 4.5000000000000009 87.500000000000014 201.00000000000003 2.5000000000000004 166.26443350000002 1559.0000000000002 1.0000000180025095e-35 70.500000000000014 1.1255750000000002 1495.0000000000002 117.50000000000001 1093.0000000000002 15.500000000000002 123.50000000000001 1.0000000180025095e-35 14.000000000000002 565.00000000000011 559.00000000000011 13.500000000000002 80.000000000000014
decision_type=2 2 2 2 2 2 2 2 2 2 2 2 2 2 2 2 2 2 2 2 2 2 2 2 2 2 2 2 2 2
left_child=16 3 15 6 -4 12 20 11 21 -9 29 -6 -5 -14 28 18 17 -1 -3 23 -2 -7 -10 24 -13 -25 27 -20 -15 -8
right_child=1 2 4 5 7 8 10 9 22 -11 -12 19 13 14 -16 -17 -18 -19 26 -21 -22 -23 -24 25 -26 -27 -28 -29 -30 -31
leaf_value=-0.23453338120610581 0.14036610877784536 0.10831955477872056 0.13013235551377464 0.14770645371931573 -0.2339236203261936 -0.043233876509145654 -0.13782363393113342 -0.088756973963387997 -0.037262553219728919 0.070377239441210576 -0.22618774953957327 -0.1096566182914936 0.13611610874505636 -0.023338344474507257 0.12983556308996608 0.14597394553421325 -0.23367560060306369 0.14377534350577509 -0.024381349515713056 0.13252538247695941 -0.031780624702442438 0.12295959025425839 -0.14170240281954641 -0.17777919231138195 0.074854722682431055 0.16873907346703876 0.015074970272038399 0.15294056603374973 -0.26667561013245505 -0.043301181263543514
leaf_weight=18.336134135723114 150.09934870898724 547.92603082954884 202.09626063704491 5042.5374573171139 166.03939917683601 40.448781162500381 79.175455570220947 342.82535728812218 116.26541496813297 218.15239554643631 150.86082924902439 859.26720467209816 851.75987143814564 173.52190399169922 73.388969033956528 476.17301823198795 3511.0346737205982 18.754267737269402 28.523948311805725 17.90791417658329 44.072394624352455 178.27334478497505 109.07811680436134 165.02071897685528 34.919200003147125 5.06980937719345 288.59691295027733 72.073742166161537 10.077989801764486 193.22057229280472
leaf_count=75 680 2458 913 22918 679 173 330 1450 497 966 617 3612 3848 742 330 2162 14342 85 125 81 189 803 455 685 155 21 1265 316 43 826
internal_value=0 0.077876 -0.000524836 0.1151 -0.0722595 0.13099 -0.0546356 -0.0948676 0.00086177 -0.026873 -0.126169 -0.125426 0.140384 0.107084 0.0108613 0.101563 -0.231685 -0.0432466 0.0789965 -0.108779 0.101293 0.0922251 -0.0878169 -0.112839 -0.102451 -0.167451 0.0377141 0.102662 -0.0366954 -0.0707754
internal_weight=0 10637.4 3424.59 7212.78 2011.3 6595.35 617.429 1809.2 444.066 560.978 423.257 1248.22 6151.29 1108.75 256.989 1413.29 3548.13 37.0904 937.121 1082.18 194.172 218.722 225.344 1064.28 894.186 170.091 389.195 100.598 183.6 272.396
internal_count=61841 47339 14888 32451 8562 29809 2642 7649 1928 2416 1773 5233 27881 4963 1115 6326 14502 160 4164 4554 869 976 952 4473 3767 706 1706 441 785 1156
is_linear=0
shrinkage=0.1


Tree=2
num_leaves=31
num_cat=0
split_feature=8 22 34 25 39 25 29 39 4 26 30 7 7 34 23 7 14 1 34 0 1 7 10 7 2 28 34 32 34 6
split_gain=20532.7 2703.23 2070.51 1687.72 748.588 727.608 555.868 489.597 292.02 273.224 183.989 177.751 131.361 122.026 115.125 101.882 100.283 107.495 97.2545 92.3346 88.7032 84.9707 64.5033 48.0136 81.4884 55.8929 46.5949 68.0932 45.3137 43.7108
threshold=61.000000000000007 0.090075500000000017 1.5000000000000002 52.500000000000007 1.5000000000000002 160.50000000000003 2.5000000000000004 2.5000000000000004 10.500000000000002 65.500000000000014 5.0000000000000009 87.500000000000014 1559.0000000000002 12.500000000000002 0.024796500000000003 87.500000000000014 1.0000000180025095e-35 70.500000000000014 1.5000000000000002 1.1255750000000002 117.50000000000001 1495.0000000000002 114476188.00000001 1079.0000000000002 2.5000000000000004 122.50000000000001 3.5000000000000004 1.5000000000000002 5.5000000000000009 535.00000000000011
decision_type=2 2 2 2 2 2 2 2 2 2 2 2 2 2 2 2 2 2 2 2 2 2 2 2 2 2 2 2 2 2
left_child=16 3 12 6 -4 14 20 22 11 26 28 -6 15 -9 -5 -3 17 -1 -16 -17 -2 23 -7 24 29 -26 27 -10 -8 -13
right_child=1 2 4 5 8 7 10 13 9 -11 -12 21 -14 -15 18 19 -18 -19 -20 -21 -22 -23 -24 -25 25 -27 -28 -29 -30 -31
leaf_value=-0.20644083412983513 0.13348112690576025 -0.29731312550469252 0.12315776934733649 0.1396159988459017 -0.20589184586425105 0.13739161040000933 -0.031591105582743223 -0.0052599578107452834 -0.079719923266177758 0.068056823161892752 -0.19966498699787438 -0.13082812187101786 0.1392048567902788 -0.12627652600653577 0.12832722392192625 0.10339239687592977 -0.20582007624643125 0.13691359734846772 0.0034804384859127126 0.038650897997846857 -0.028361715186235342 0.12557160875817289 0.049097148942467972 -0.1486985702293134 0.093742880974347076 -0.11910767161601742 -0.12414669310480611 0.049585038096844503 -0.11496603196077854 -0.082587934385295186
leaf_weight=18.721588030457497 142.45206092298031 7.3610826730728141 192.6760182082653 5310.8656791448593 169.53956362605095 249.80502988398075 172.90210463106632 191.85974232852459 172.97827798128128 204.82825914025307 152.79917013645172 276.52699714899063 450.70550784468651 147.2875060737133 134.21171361207962 525.01116092503071 3582.6330474317074 17.775208353996277 116.60695885121822 379.54885061085224 44.426628470420837 17.053905218839645 123.71726785600185 167.08629202842712 38.582295939326286 18.136054396629333 131.39758631587029 53.267525106668472 104.63594889640808 585.61603024601936
leaf_count=75 680 33 913 25477 679 1181 726 830 720 929 612 1138 2162 603 637 2447 14342 85 512 1684 189 81 569 679 172 74 544 223 435 2410
internal_value=0 0.0728143 -0.000290288 0.108778 -0.0643531 0.124299 -0.0490035 0.029168 -0.0840417 -0.0240388 -0.111541 -0.110563 0.0950399 -0.057816 0.136489 0.0732119 -0.20414 -0.0392153 0.0702853 0.0762272 0.0950063 -0.0959107 0.108147 -0.0993889 -0.0904224 0.0256826 -0.0767835 -0.0492762 -0.0630247 -0.0980607
internal_weight=0 10281.9 3390.32 6891.57 2027.69 6274.35 617.216 712.67 1835.01 562.472 430.337 1272.54 1362.63 339.147 5561.68 911.921 3619.13 36.4968 250.819 904.56 186.879 1103 373.522 1085.95 918.861 56.7184 357.643 226.246 277.538 862.143
internal_count=61841 47339 14888 32451 8562 29809 2642 3183 7649 2416 1773 5233 6326 1433 26626 4164 14502 160 1149 4131 869 4554 1750 4473 3794 246 1487 943 1161 3548
is_linear=0
shrinkage=0.1


Tree=3
num_leaves=31
num_cat=0
split_feature=8 23 34 25 25 39 29 39 5 7 3 12 26 7 22 34 0 34 14 0 1 6 6 0 31 34 0 34 2 26
split_gain=16907.7 2375.53 1712.24 1482.44 667.443 617.979 448.45 412.259 234.392 163.176 150.785 127.744 218.455 126.581 99.548 91.6176 88.2852 86.6288 78.789 89.5607 77.3582 60.485 61.6217 59.7712 48.0526 76.2135 53.7103 43.5744 43.4947 78.649
threshold=61.000000000000007 0.041120500000000011 1.5000000000000002 52.500000000000007 160.50000000000003 1.5000000000000002 2.5000000000000004 2.5000000000000004 4.5000000000000009 1495.0000000000002 4.5000000000000009 2.5000000000000004 57.500000000000007 1495.0000000000002 0.06977700000000002 12.500000000000002 1.0139670000000003 1.5000000000000002 1.0000000180025095e-35 7.5000000000000002e-06 117.50000000000001 565.00000000000011 559.00000000000011 1.1500000000000002e-05 1.5000000000000002 2.5000000000000004 0.58006250000000004 2.5000000000000004 4.5000000000000009 114.50000000000001
decision_type=2 2 2 2 2 2 2 2 2 2 2 2 2 2 2 2 2 2 2 2 2 2 2 2 2 2 2 2 2 2
left_child=18 3 13 6 14 -4 20 23 -7 11 -8 24 -13 16 -5 27 -3 -16 19 -1 -2 22 -18 -6 -10 26 -26 -9 -23 -30
right_child=1 2 5 4 7 8 10 15 9 -11 -12 12 -14 -15 17 -17 21 -19 -20 -21 -22 28 -24 -25 25 -27 -28 -29 29 -31
leaf_value=-0.18713496081563444 0.12677087919964916 0.098296189388616284 0.11744946339578553 0.13393641567054368 0.040191890480524572 -0.18554146353873807 -0.056480875509412609 0.088372704536710311 -0.10752862226120322 0.11947382430587453 -0.18027057511843972 -0.072124853782787102 0.065688890500519959 0.13348977033213572 0.11763469291040191 -0.11114433450015609 -0.02280158753588931 -0.013643792097697425 -0.18613538817214995 0.13143908988391703 -0.025344383851728932 -0.011745826895467278 0.14294724791881647 0.1290011119128342 0.11135167508224519 -0.084028301779156725 -0.04053333161637044 -0.030538078677208116 0.12899121623987933 -0.066961462541521508
leaf_weight=18.626005813479424 132.38354186713696 453.56704211235046 185.02370639145374 5015.1376921087503 109.24359400570393 171.54201745986938 274.49341604113579 38.725449323654175 570.98348216712475 47.691680997610092 153.38146789371967 354.65253660082817 170.23018696904182 433.24792718887329 121.19357423484325 148.47741091251373 30.820848137140274 85.889506712555885 3565.6065762341022 16.769862428307533 44.727228328585625 221.05743104219437 82.391355201601982 247.42652328312397 35.259419322013855 448.47327573597431 68.541615575551987 150.90027251839638 66.676834210753441 29.56516332924366
leaf_count=75 669 2204 922 25553 511 690 1136 176 2326 226 616 1457 792 2206 606 599 137 380 14342 85 189 991 388 1234 146 1827 281 642 301 134
internal_value=0 0.0684106 0.000233712 0.103636 0.11888 -0.0568749 -0.0454639 0.026801 -0.0741473 -0.0628793 -0.100856 -0.0681559 -0.027429 0.089209 0.131131 -0.0523164 0.067509 0.0631858 -0.184662 -0.0362009 0.088356 0.035073 0.0978238 0.1018 -0.0871871 -0.0661564 0.0110594 -0.00625407 0.0126836 0.0687953
internal_weight=0 9891.7 3369.72 6521.98 5916.99 2052.4 604.986 694.773 1867.37 1695.83 427.875 1648.14 524.883 1317.33 5222.22 338.103 884.079 207.083 3601 35.3959 177.111 430.512 113.212 356.67 1123.26 552.274 103.801 189.626 317.299 96.242
internal_count=61841 47339 15028 32311 29701 8667 2610 3162 7745 7055 1752 6829 2249 6361 26539 1417 4155 986 14502 160 858 1951 525 1745 4580 2254 427 818 1426 435
is_linear=0
shrinkage=0.1


Tree=4
num_leaves=31
num_cat=0
split_feature=8 23 34 25 25 39 34 39 5 7 7 1 18 12 26 0 34 22 14 1 1 6 6 39 7 2 27 0 11 25
split_gain=14140.7 2093.78 1492.56 1323.02 620.515 534.805 360.008 335.55 201.886 134.443 118.461 116.442 109.67 100.13 186.948 86.3706 74.5152 63.7608 63.7321 75.4334 56.9133 51.9398 56.8654 49.3556 49.3148 94.418 43.381 48.0706 41.5158 41.373
threshold=61.000000000000007 0.037700000000000004 1.5000000000000002 52.500000000000007 160.50000000000003 1.5000000000000002 2.5000000000000004 2.5000000000000004 4.5000000000000009 1495.0000000000002 1559.0000000000002 117.50000000000001 83.000000000000014 2.5000000000000004 57.500000000000007 1.0139670000000003 12.500000000000002 0.06977700000000002 1.0000000180025095e-35 70.500000000000014 117.50000000000001 565.00000000000011 559.00000000000011 1.5000000000000002 1067.0000000000002 3.5000000000000004 1.0000000180025095e-35 2.4344850000000005 4294.3371580000012 533.50000000000011
decision_type=2 2 2 2 2 2 2 2 2 2 2 2 2 2 2 2 2 2 2 2 2 2 2 2 2 2 2 2 2 2
left_child=18 3 10 6 17 -4 11 20 -7 13 15 -2 -8 24 26 -3 -9 -5 19 -1 -6 22 -17 -19 25 28 27 -15 -10 -18
right_child=1 2 5 4 7 8 12 16 9 -11 -12 -13 -14 14 -16 21 29 23 -20 -21 -22 -23 -24 -25 -26 -27 -28 -29 -30 -31
leaf_value=-0.17237094457737143 0.12154953777239508 0.094710439732732229 0.11290477903227625 0.12930197341261615 0.12684736832598839 -0.17089949927000628 -0.05742820986447833 -0.0041084799584546272 -0.086432312080057763 0.11022107278995784 0.12926857182069332 -0.023677497036929607 -0.16853174997672232 -0.089233164847615176 0.061715109794310954 -0.022469425634952085 -0.12870571895476435 0.11155364527245724 -0.17150625166535052 0.12649159650025874 0.040319569424875877 0.011998338088138116 0.13695885245898748 -0.0053534163299391469 -0.12395441422282194 0.06919397944789106 0.04316359582491288 0.034758908675562465 -0.033844092603888383 -0.0050249309261953604
leaf_weight=18.221783235669136 124.03846555948257 462.415776014328 181.95246025919914 4690.187561199069 209.90007708966732 168.92710690200329 210.59525394439697 182.41930717229843 724.68015332520008 47.120526313781738 417.51107290387154 99.494205877184868 153.67711156606674 298.89438363909721 168.98013816773891 31.248511895537376 113.9643524736166 86.496417880058289 3486.5333957374096 15.741066023707388 119.17478050291538 319.20837213099003 78.76570101082325 61.99535858631134 191.64617057144642 47.411654606461525 33.465211018919945 34.920424774289131 189.34180879592896 35.462788641452789
leaf_count=75 653 2351 957 25517 1112 694 866 788 2918 234 2269 414 632 1212 806 138 457 454 14342 85 573 1443 394 281 772 209 139 145 769 142
internal_value=0 0.0645069 0.00160357 0.099604 0.114845 -0.0508952 -0.0429948 0.0239587 -0.0665371 -0.0563845 0.0853089 0.0569091 -0.1043 -0.0610316 -0.0253317 0.0647248 -0.0469962 0.127259 -0.170178 -0.0338544 0.0955112 0.0324202 0.0916747 0.0627449 -0.0776344 -0.0684013 -0.0653807 -0.0762623 -0.0755385 -0.0993532
internal_weight=0 9483.9 3396.49 6087.41 5499.6 2087.34 587.805 660.921 1905.39 1736.46 1309.15 223.533 364.272 1689.34 536.26 891.638 331.846 4838.68 3520.5 33.9628 329.075 429.223 110.014 148.492 1153.08 961.434 367.28 333.815 914.022 149.427
internal_count=61841 47339 15450 31889 29324 8855 2565 3072 7898 7204 6595 1067 1498 6970 2302 4326 1387 26252 14502 160 1685 1975 532 735 4668 3896 1496 1357 3687 599
is_linear=0
shrinkage=0.1


Tree=5
num_leaves=31
num_cat=0
split_feature=8 22 34 25 25 29 29 6 5 3 7 7 12 26 0 33 1 14 0 7 2 6 34 0 34 25 28 6 32 28
split_gain=11962.8 1854.23 1309.6 1193.91 579.459 462.776 280.149 211.356 181.843 144.042 123.578 115.07 84.9009 165.791 79.6306 70.596 58.3907 52.6479 64.6389 50.0165 52.505 45.2382 116.051 78.8271 42.2227 41.873 48.5312 47.2444 41.8154 40.7427
threshold=61.000000000000007 0.076074500000000017 1.5000000000000002 52.500000000000007 341.50000000000006 1.5000000000000002 1.5000000000000002 2303.0000000000005 4.5000000000000009 4.5000000000000009 1495.0000000000002 1495.0000000000002 2.5000000000000004 57.500000000000007 1.0782795000000003 34.000000000000007 117.50000000000001 1.0000000180025095e-35 7.5000000000000002e-06 1079.0000000000002 3.5000000000000004 201.00000000000003 2.5000000000000004 1.0220345000000004 1.5000000000000002 55.500000000000007 122.50000000000001 529.00000000000011 1.5000000000000002 122.50000000000001
decision_type=2 2 2 2 2 2 2 2 2 2 2 2 2 2 2 2 2 2 2 2 2 2 2 2 2 2 2 2 2 2
left_child=17 3 11 6 15 -4 -2 24 -7 16 12 14 19 28 25 21 -8 18 -1 20 -10 -5 -23 -24 -6 27 -27 -3 -14 -22
right_child=1 2 5 4 7 8 9 -9 10 -11 -12 -13 13 -15 -16 -17 -18 -19 -20 -21 29 22 23 -25 -26 26 -28 -29 -30 -31
leaf_value=-0.16145602381489937 0.10966360398626654 0.12374551862969795 0.11377696735096354 0.12690259183632302 0.038730431370623354 -0.15971841247683061 0.084706621473777222 0.11354995707618887 -0.066805506156455613 -0.15572530608589133 0.10366363571463511 0.12462196545849787 -0.079486561074747997 0.06036410270668302 0.02737934928082383 -0.18144419541600315 -0.051069797351770488 -0.16023650824501434 0.1225161512316594 -0.11730732651472492 0.084807680328924953 0.1210442690978276 -0.02902081687772419 0.12105465296222169 -0.056022675253106606 0.10651324250929523 -0.01357298874564466 -0.080584110551597865 -0.0052464047506443207 -0.089497425138719222
leaf_weight=17.58071893453598 101.74274407327175 18.443197891116142 167.27802740037441 3916.5197879970074 57.076880156993866 165.80794429779053 35.587566912174225 125.38663364946842 932.00011144578457 146.23779609799385 50.698290720582008 418.64586734771729 273.53623974323273 168.43723078072071 392.81370535492897 7.6430968642234793 287.97430767118931 3364.7016960382462 14.733103066682814 186.77957530319691 41.628075435757637 542.4929812848568 101.23538373410702 53.492354556918144 267.12382294237614 417.89259894192219 36.601474612951279 29.281758457422256 104.98736906051636 19.782851994037628
leaf_count=75 560 97 916 22917 274 705 172 677 3755 619 267 2431 1111 823 1822 31 1176 14342 85 758 195 3080 454 295 1117 2226 194 154 433 80
internal_value=0 0.0610049 0.00295816 0.0962352 0.111678 -0.0458251 -0.0407804 0.00329918 -0.059561 -0.0733615 -0.05022 0.0813474 -0.0547371 -0.0221692 0.061106 0.122222 -0.0361362 -0.159017 -0.0319823 -0.0698307 -0.0609042 0.122725 0.0992558 0.0228632 -0.039341 0.0874856 0.0968424 -0.0016214 -0.0588953 0.0286572
internal_weight=0 9067.13 3424.61 5642.51 5070.97 2110.94 571.542 449.587 1943.66 469.8 1777.85 1313.68 1727.15 546.961 895.033 4621.38 323.562 3397.02 32.3138 1180.19 993.411 4613.74 697.221 154.728 324.201 502.219 454.494 47.725 378.524 61.4109
internal_count=61841 47339 15967 31372 28845 9043 2527 2068 8127 1967 7422 6924 7155 2367 4493 26777 1348 14502 160 4788 4030 26746 3829 749 1391 2671 2420 251 1544 275
is_linear=0
shrinkage=0.1


Tree=6
num_leaves=31
num_cat=0
split_feature=8 23 34 25 25 7 34 39 7 7 29 1 18 7 25 7 12 26 22 34 6 10 14 1 2 25 11 33 28 27
split_gain=10208.8 1648.97 1050.16 1032.64 537.658 378.009 251.629 244.124 156.053 109.639 98.7054 90.437 88.8859 79.7264 71.9091 74.4462 62.5145 124.114 59.5007 55.7171 54.4282 51.6249 44.1979 55.5577 42.0461 82.8312 85.3176 39.237 42.0336 63.397
threshold=61.000000000000007 0.037700000000000004 1.5000000000000002 52.500000000000007 160.50000000000003 1495.0000000000002 2.5000000000000004 2.5000000000000004 180.00000000000003 1559.0000000000002 1.5000000000000002 117.50000000000001 83.000000000000014 87.500000000000014 55.500000000000007 610.00000000000011 2.5000000000000004 57.500000000000007 0.06977700000000002 15.500000000000002 529.00000000000011 114476188.00000001 1.0000000180025095e-35 70.500000000000014 1.5000000000000002 56.500000000000007 2541.4887695000002 2.5000000000000004 123.50000000000001 1.0000000180025095e-35
decision_type=2 2 2 2 2 2 2 2 2 2 2 2 2 2 2 2 2 2 2 2 2 2 2 2 2 2 2 2 2 2
left_child=22 3 9 6 18 8 11 21 -4 13 -10 -2 -8 -3 20 24 27 -18 -5 -9 -15 -6 23 -1 25 -16 -27 28 29 -12
right_child=1 2 5 4 7 -7 12 19 10 -11 16 -13 -14 14 15 -17 17 -19 -20 -21 -22 -23 -24 -25 -26 26 -28 -29 -30 -31
leaf_value=-0.15241106699093401 0.11302513957714003 -0.26393713549634862 -0.14958745668437964 0.12171060228988054 0.11867172011326005 0.11738936893448729 -0.046262347116920802 -0.0048036159664479536 0.08151006578754097 0.12163715733566119 -0.063332848091621249 -0.018160206227186733 -0.14810926814539266 0.096759898482173229 0.12987361956470311 0.026266020569337092 -0.052967367277045346 0.052117728475193303 0.055186637936803985 -0.08831640168899417 -0.068714503578561209 0.033187353928173187 -0.15131802236010572 0.11869963550168175 0.13150880239506527 -0.049639147351394269 0.092784806462460123 0.028209871331111566 -0.11246372412668093 0.07186662854116177
leaf_weight=16.802909433841709 110.40788319706917 7.7254183888435355 155.79014436900616 4068.6098199635744 184.94507296383381 138.55575551092625 212.77912056446075 197.73547673225403 59.441005870699883 362.40961082279682 908.97868081927299 100.28027667105198 143.47039285302162 27.753695666790009 130.46354527771473 258.0414651632309 372.65046492218971 160.92901508510113 139.04647533595562 134.04405705630779 70.043541461229324 114.31019474565983 3214.3883239030838 13.739436849951742 177.50013515353203 81.654631808400154 86.740197136998177 45.665649771690369 167.96117779612541 36.059042751789093
leaf_count=75 653 33 693 25517 1116 803 866 848 338 2269 3656 414 632 142 720 1265 1512 809 735 539 331 569 14342 85 962 389 484 184 685 175
internal_value=0 0.0578041 0.00149359 0.0916424 0.106603 -0.0420929 -0.0360449 0.020527 -0.0536774 0.0756655 -0.0451474 0.0505855 -0.0872786 0.0558297 0.0587982 0.0695251 -0.0495964 -0.0212734 0.119512 -0.0385441 -0.0217548 0.0860182 -0.15018 -0.0304523 0.0929584 0.0700622 0.0237234 -0.0626394 -0.0663669 -0.0581742
internal_weight=0 8653.99 3248.36 5405.63 4838.69 2046.03 566.938 631.035 1907.48 1202.33 1751.69 210.688 356.25 839.923 832.197 734.4 1692.24 533.579 4207.66 331.78 97.7972 299.255 3244.93 30.5423 476.359 298.858 168.395 1158.66 1113 945.038
internal_count=61841 47339 15450 31889 29324 8855 2565 3072 8052 6595 7359 1067 1498 4326 4293 3820 7021 2321 26252 1387 473 1685 14502 160 2555 1593 873 4700 4516 3831
is_linear=0
shrinkage=0.1


Tree=7
num_leaves=31
num_cat=0
split_feature=8 6 39 25 34 1 30 12 23 7 7 6 34 31 29 1 5 7 14 0 2 28 6 6 11 6 33 31 25 25
split_gain=8771.22 1490.58 1442.87 1168.51 452.815 126.795 138.301 112.26 112.159 127.769 106.431 78.929 64.7266 135.359 62.3157 51.9743 45.6707 45.54 37.5709 48.4158 34.7461 62.2817 38.7407 62.0454 42.7533 34.5167 33.3535 43.7084 34.6749 55.8375
threshold=61.000000000000007 201.00000000000003 1.5000000000000002 54.500000000000007 1.5000000000000002 111.50000000000001 2.5000000000000004 1.0000000180025095e-35 0.073406500000000013 1445.0000000000002 1495.0000000000002 2303.0000000000005 2.5000000000000004 1.5000000000000002 3.5000000000000004 117.50000000000001 9.0000000000000018 87.500000000000014 1.0000000180025095e-35 7.5000000000000002e-06 1.5000000000000002 122.50000000000001 535.00000000000011 565.00000000000011 2501.2858885000001 529.00000000000011 2.5000000000000004 13.500000000000002 75.500000000000014 76.500000000000014
decision_type=2 2 2 2 2 2 2 2 2 2 2 2 2 2 2 2 2 2 2 2 2 2 2 2 2 2 2 2 2 2
left_child=18 3 8 7 -4 -6 10 15 -3 16 12 -8 13 -7 -15 -2 17 -10 19 -1 22 -22 25 -24 -25 -19 28 -28 -14 -30
right_child=1 2 4 -5 5 6 11 -9 9 -11 -12 -13 26 14 -16 -17 -18 20 -20 -21 21 -23 23 24 -26 -27 27 -29 29 -31
leaf_value=-0.14558466017323196 0.11657764868917926 0.10485346844703036 0.089749923814991472 0.12062107856665072 0.11977859030695309 -0.049514384346670826 -0.14377603810007358 -0.14866087975195388 -0.22856877797156208 0.11797998196980636 0.096867167240764593 0.13626893711897509 -0.076982484739774037 0.0075277506949912205 0.12048298560090652 -0.037817245539816233 -0.032488369197336629 0.094189126266731718 -0.14411165078240804 0.11568252530359641 0.12186955964557529 -0.095141418537220579 0.12479763781531782 -0.077294081596724296 0.08176043212581538 -0.17442517394905754 0.041124133063899691 -0.17288827444548949 0.080960055975845879 -0.050397803928591611
leaf_weight=15.91990275681019 23.472718983888626 1157.4681601375341 283.55301746726036 3370.5629781186581 46.497908711433411 411.46524284780025 181.6948813945055 98.130851566791534 6.1046400368213645 189.56579273939133 55.513281717896461 10.654398068785666 573.82002639770508 132.44488231837749 77.373784855008125 306.56785847246647 123.32880626618862 6.6088821887969997 3046.2453491687775 12.792049154639242 92.587898507714272 15.428854763507841 49.898611083626747 46.75154909491539 26.46683169901371 17.32255882024765 65.321364641189575 11.175739005208014 33.662320554256439 836.68834576010704
leaf_count=75 141 7211 1574 22912 293 1767 848 456 25 1262 325 57 2329 593 340 1247 583 34 14342 85 528 79 290 219 150 80 281 46 139 3530
internal_value=0 0.054841 0.0155748 0.100853 -0.0298514 -0.0437714 -0.0469535 -0.054757 0.0869298 0.0507907 -0.0398362 -0.128264 -0.0433792 -0.016183 0.0491817 -0.0268366 0.017665 0.0413483 -0.143039 -0.0291822 0.0478084 0.0908722 0.0161752 0.038805 -0.0197994 -0.100245 -0.0544905 0.00985829 -0.057899 -0.0453173
internal_weight=0 8250.13 4451.4 3798.73 2719.87 2436.31 2389.81 428.171 1731.53 574.064 2197.46 192.349 2141.95 621.284 209.819 330.041 384.499 261.17 3074.96 28.712 255.065 108.017 147.048 123.117 73.2184 23.9314 1520.67 76.4971 1444.17 870.351
internal_count=61841 47339 22583 24756 12122 10548 10255 1844 10461 3250 9350 905 9025 2700 933 1388 1988 1405 14502 160 1380 607 773 659 369 114 6325 327 5998 3669
is_linear=0
shrinkage=0.1


Tree=8
num_leaves=31
num_cat=0
split_feature=8 6 39 25 34 4 30 26 7 22 12 12 1 26 1 2 28 6 6 34 32 7 6 6 10 26 14 25 34 32
split_gain=7575.92 1354.46 1234.53 1050.4 377.287 111.695 120.219 113.969 107.439 138.134 100.614 87.9904 53.0178 47.9848 43.8767 43.732 86.9442 47.9948 62.4113 41.5932 42.4254 39.6464 41.0097 38.4871 37.6437 34.093 32.2624 42.1303 31.0849 51.2861
threshold=61.000000000000007 201.00000000000003 1.5000000000000002 54.500000000000007 1.5000000000000002 10.500000000000002 2.5000000000000004 65.500000000000014 1495.0000000000002 0.12733700000000003 1.0000000180025095e-35 1.5000000000000002 111.50000000000001 188.50000000000003 117.50000000000001 3.5000000000000004 122.50000000000001 565.00000000000011 535.00000000000011 3.5000000000000004 1.5000000000000002 1089.0000000000002 535.00000000000011 529.00000000000011 9731.946777500003 65.500000000000014 1.0000000180025095e-35 59.500000000000007 2.5000000000000004 1.5000000000000002
decision_type=2 2 2 2 2 2 2 2 2 2 2 2 2 2 2 2 2 2 2 2 2 2 2 2 2 2 2 2 2 2
left_child=26 3 8 10 -4 6 12 11 9 -3 14 -7 -6 21 -2 17 -17 18 23 20 -13 22 -14 -11 -9 -19 27 -1 29 -24
right_child=1 2 4 -5 5 7 -8 24 -10 15 -12 19 13 -15 -16 16 -18 25 -20 -21 -22 -23 28 -25 -26 -27 -28 -29 -30 -31
leaf_value=-0.1395459875000794 0.11216083278876872 0.09574167834645031 0.084792230748144584 0.11803907833576782 0.1087722501106233 0.12632275791281061 -0.13353091791881133 0.016064072024994568 0.11778137860854039 0.10575667097036626 -0.14209984215914342 -0.043122565849132849 -0.071119417816660577 0.1105730211495676 -0.033927256055288034 0.10210311312037988 -0.066557189193191327 -0.048412184182752192 0.12037594365579869 -0.083727696071858274 0.051626133400840934 -0.094688953657646235 -0.026871424537258895 -0.13008603822717477 0.10067327558143771 0.054270837678617512 -0.13819147769371032 0.11257540846425801 -0.042566940882463898 0.08009702324271642
leaf_weight=14.995484262704849 22.032197877764702 601.76094615459442 270.7924846559763 3113.0783958882093 22.280356585979462 32.198163270950317 167.27013944089413 111.53847934305668 574.5628757327795 10.236688092350962 92.676175877451897 190.07838369905949 376.51508204638958 19.191058874130249 307.49267274141312 132.23249398171902 39.752804636955261 160.46737857162952 59.262159094214439 168.21523034572601 62.8960961997509 166.09475582838058 192.00329086184502 21.352622807025909 99.487274721264839 40.494343623518944 2868.2280042171478 11.877762645483017 753.17022967338562 58.471378713846207
leaf_count=75 141 3918 1574 22912 154 205 830 574 4060 56 456 772 1567 122 1247 790 196 783 370 692 269 700 813 95 519 193 14342 85 3068 263
internal_value=0 0.0520386 0.0145441 0.0979652 -0.0271464 -0.0396751 -0.0528954 -0.00475461 0.0829265 0.0641324 -0.0500484 -0.0330104 -0.0444003 -0.0465804 -0.0241597 0.0231205 0.0631189 -0.000453222 0.0598632 -0.0451907 -0.0195656 -0.0485308 -0.042976 -0.0536599 0.0559528 -0.0277213 -0.13717 -0.0281103 -0.032418 -0.00190047
internal_weight=0 7865.6 4330.32 3535.28 2690.2 2419.41 1755 664.414 1640.12 1065.56 422.201 453.388 1587.73 1565.45 329.525 463.798 171.985 291.813 90.8515 421.19 252.974 1546.25 1380.16 31.5893 211.026 200.962 2895.1 26.8732 1003.64 250.475
internal_count=61841 47339 22583 24756 12122 10548 7517 3031 10461 6401 1844 1938 6687 6533 1388 2483 986 1497 521 1733 1041 6411 5711 151 1093 976 14502 160 4144 1076
is_linear=0
shrinkage=0.1


Tree=9
num_leaves=31
num_cat=0
split_feature=8 6 39 25 34 7 22 3 12 1 7 7 25 8 26 2 5 2 28 34 39 1 25 6 25 32 37 2 6 10
split_gain=6574.11 1231.4 1057.7 948.223 315.145 105.027 125.194 98.4931 90.8017 80.6615 74.5005 60.6393 52.4295 77.9036 109.171 84.5438 40.1933 42.9311 57.4042 37.8513 61.9763 37.3761 35.3155 34.6587 35.456 33.7757 32.1752 31.5653 30.6591 28.5342
threshold=61.000000000000007 201.00000000000003 1.5000000000000002 54.500000000000007 1.5000000000000002 1495.0000000000002 0.12660750000000001 2.5000000000000004 1.0000000180025095e-35 111.50000000000001 1495.0000000000002 425.00000000000006 53.500000000000007 158.00000000000003 71.500000000000014 1.0000000180025095e-35 9.0000000000000018 1.5000000000000002 122.50000000000001 2.5000000000000004 4.5000000000000009 111.50000000000001 150.50000000000003 535.00000000000011 56.500000000000007 2.5000000000000004 14.000000000000002 3.5000000000000004 2640.5000000000005 6077.1582030000018
decision_type=2 2 2 2 2 2 2 2 2 2 2 2 2 2 2 2 2 2 2 2 2 2 2 2 2 2 2 2 2 2
left_child=-1 3 5 8 -4 6 -3 11 21 -9 12 -6 25 26 15 19 17 22 -19 20 -15 -2 23 -8 -25 27 -14 -11 -24 -26
right_child=1 2 4 -5 7 -7 16 9 -10 10 -12 -13 13 14 -16 -17 -18 18 -20 -21 -22 -23 28 24 29 -27 -28 -29 -30 -31
leaf_value=-0.13228179516851865 0.11395476123297427 0.092039170854178759 0.080106062845174714 0.11577202448146458 -0.13505703824604612 0.1152394187621805 -0.05802590043413719 0.1130994294126863 -0.13663061372380667 -0.087058151797179753 0.088406218863194483 0.12650875304490888 -0.091770650358534323 -0.023841833981137088 0.056054662743554688 0.058087513063693752 -0.021102198251796132 0.11597949217578055 -0.063113175649869943 -0.046992810914326597 0.10950621982121689 -0.030140787205991615 -0.12756012841539574 0.1172710924325175 -0.06705699690960483 0.0034039623012015923 0.13736901647789354 0.12879571371097329 0.047867050684763532 0.083194727712146144
leaf_weight=2711.3117965459824 19.111720576882362 562.65848323702812 258.61424413323402 2869.146998539567 130.91896761953831 530.76309223473072 30.647803395986557 38.17164334654808 87.03766493499279 315.57184809446335 49.011182770133018 9.5068461000919324 211.84465017914772 289.9365296214819 163.1996503919363 100.41327080130577 148.55110992491245 107.68920266628265 21.464618474245071 979.10618497431278 39.616338104009628 309.68260261416435 28.891758069396019 56.268050000071526 27.469651743769646 53.449813053011894 6.3105767369270316 6.9233288168907157 15.205644175410269 23.411575421690941
leaf_count=14502 134 3891 1574 22912 689 4060 145 278 456 1316 316 55 907 1220 848 469 705 700 106 3995 177 1254 135 378 126 221 26 31 80 135
internal_value=0 0.0494418 0.0136079 0.0953183 -0.0247646 0.079149 0.0604106 -0.0360934 -0.0458075 -0.0310301 -0.0335135 -0.117349 -0.0362718 -0.0291432 -0.0213732 -0.0303409 0.0216898 0.0421265 0.0862153 -0.037126 -0.00781175 -0.021765 0.0108214 0.0357478 0.0625697 -0.0702216 -0.0851423 -0.0824242 -0.0670694 0.00207714
internal_weight=0 7490.6 4205.62 3284.98 2652.6 1553.02 1022.26 2393.98 415.832 2253.56 2215.38 140.426 2166.37 1790.43 1572.27 1409.07 459.599 311.048 129.154 1308.66 329.553 328.794 181.894 137.797 107.149 375.945 218.155 322.495 44.0974 50.8812
internal_count=61841 47339 22583 24756 12122 10461 6401 10548 1844 9804 9526 744 9210 7642 6709 5861 2510 1805 806 5392 1397 1388 999 784 639 1568 933 1347 215 261
is_linear=0
shrinkage=0.1


Tree=10
num_leaves=31
num_cat=0
split_feature=8 33 34 1 1 29 30 22 30 7 7 28 26 2 12 11 5 10 25 14 0 23 26 34 29 39 25 7 7 15
split_gain=5720.66 1126.23 752.128 478.043 491.088 304.466 182.76 100.507 85.0594 69.8487 64.885 49.9018 94.5888 107.456 46.9621 38.6616 37.8105 37.1113 33.9079 33.075 37.5008 30.3879 30.3496 30.2468 44.9593 32.5155 28.215 27.7337 45.0755 38.5091
threshold=61.000000000000007 2.5000000000000004 1.5000000000000002 111.50000000000001 118.50000000000001 1.5000000000000002 2.5000000000000004 0.15920550000000003 1.5000000000000002 1495.0000000000002 1559.0000000000002 123.50000000000001 68.500000000000014 1.0000000180025095e-35 1.0000000180025095e-35 811.33898950000014 10.500000000000002 9731.946777500003 1211.5000000000002 1.0000000180025095e-35 7.5000000000000002e-06 0.073406500000000013 43.500000000000007 4.5000000000000009 8.5000000000000018 4.5000000000000009 56.500000000000007 1495.0000000000002 610.00000000000011 63.962029000000008
decision_type=2 2 2 2 2 2 2 2 2 2 2 2 2 2 2 2 2 2 2 2 2 2 2 2 2 2 2 2 2 2
left_child=19 2 7 -4 5 -5 9 27 22 11 15 12 13 18 -8 -9 -15 -14 21 20 -1 23 -3 24 -7 -26 -10 28 -2 -30
right_child=1 8 3 4 -6 6 14 10 26 -11 -12 -13 17 16 -16 -17 -18 -19 -20 -21 -22 -23 -24 -25 25 -27 -28 -29 29 -31
leaf_value=-0.13087722234380536 0.090754055457664559 -0.15145670961746543 0.11585851348833109 0.099217176983783406 0.11532027942340901 -0.023829384819716207 0.13475944768320966 -0.11325870945840871 -0.054823877442484271 0.088186336988062053 0.10744981286578432 -0.084163177411379783 -0.0028134808405457954 0.092375632218672954 -0.12911905547917857 0.023588251133244354 -0.008414795556321103 0.087873471291248922 0.087344985514784382 -0.12914079352065416 0.11355784312619149 -0.058460857742647566 0.031321040600007885 -0.048476651738050006 -0.0079570311654858401 0.16638601433591954 0.11530328432161858 0.11465503821730581 0.098179684448347446 -0.0045396105729907238
leaf_weight=13.114399433135988 799.17099968343973 10.611437641084192 296.50047771632671 173.50306298583746 256.7824729308486 543.47655376791954 6.9482997879385939 22.010155290365219 9.7979533076286298 49.56684697419405 96.844536364078522 168.75456383824348 92.134476892650127 83.258083961904049 229.75657717883587 332.78327852487564 67.310303673148155 88.440939448773861 20.516494944691658 2506.0183066725731 12.037459075450895 693.59056122601032 63.137460738420486 564.95719825476408 20.604125678539276 22.248898379504681 1926.7437238097191 331.38477096706629 56.975155383348465 101.54447781294584
leaf_count=75 5803 49 2517 1300 2229 2347 40 103 41 344 826 736 469 546 1289 1793 277 481 89 14342 85 2827 274 2365 86 102 16686 2747 410 563
internal_value=0 0.0470043 0.0220972 -0.00541728 -0.0170851 -0.0291199 -0.0375176 0.075497 0.110428 -0.0292981 0.0349015 -0.03176 -0.027734 -0.0339447 -0.121373 0.0150987 0.0473181 0.0416025 -0.040504 -0.127996 -0.0138927 -0.0419258 0.00502187 -0.0319642 -0.0160537 0.0825603 0.114443 0.0897199 0.0810918 0.0323798
internal_weight=0 7129.35 5119.06 3378.35 3081.85 2825.07 2651.56 1740.71 2010.29 2414.86 451.638 2365.29 2196.54 2015.96 236.705 354.793 150.568 180.575 1865.39 2531.17 25.1519 1844.88 73.7489 1151.29 586.33 42.853 1936.54 1289.08 957.691 158.52
internal_count=61841 47339 30289 18044 15527 13298 11998 12245 17050 10669 2722 10325 9589 8639 1329 1896 823 950 7816 14502 160 7727 323 4900 2535 188 16727 9523 6776 973
is_linear=0
shrinkage=0.1


Tree=11
num_leaves=31
num_cat=0
split_feature=8 33 34 1 1 29 30 22 30 7 7 31 34 29 12 7 26 26 27 14 0 7 7 25 15 25 6 25 38 25
split_gain=4996.57 1035.74 646.848 420.452 427.488 258.428 167.222 93.7076 82.2224 59.6231 58.6886 43.1145 101.677 55.5597 40.9406 34.5183 30.3563 42.8782 30.0879 29.0485 32.9768 28.8945 41.7423 41.2996 34.1488 32.3901 39.9032 26.8828 26.1874 25.847
threshold=61.000000000000007 2.5000000000000004 1.5000000000000002 111.50000000000001 118.50000000000001 1.5000000000000002 2.5000000000000004 0.15920550000000003 1.5000000000000002 1559.0000000000002 1495.0000000000002 1.5000000000000002 2.5000000000000004 4.5000000000000009 1.0000000180025095e-35 87.500000000000014 121.50000000000001 71.500000000000014 1.0000000180025095e-35 1.0000000180025095e-35 7.5000000000000002e-06 1495.0000000000002 610.00000000000011 55.500000000000007 63.962029000000008 251.50000000000003 2543.0000000000005 55.500000000000007 13.500000000000002 56.500000000000007
decision_type=2 2 2 2 2 2 2 2 2 2 2 2 2 2 2 2 2 2 2 2 2 2 2 2 2 2 2 2 2 2
left_child=19 2 7 -4 5 -5 10 21 28 15 11 16 13 27 -8 -9 17 18 -7 20 -1 22 23 -2 -24 -25 -27 -13 -3 -10
right_child=1 8 3 4 -6 6 14 9 29 -11 -12 12 -14 -15 -16 -17 -18 -19 -20 -21 -22 -23 24 25 -26 26 -28 -29 -30 -31
leaf_value=-0.12725082409379904 0.029811619332933359 0.029417197015881122 0.11407565357355931 0.09578200020283599 0.11365160783305235 -0.049318271924735577 0.1240343251234175 -0.19135646678178761 -0.049492606873422502 0.1051652595797205 0.084305572803133999 -0.051685053980777378 -0.029962244579082788 0.1187653600008374 -0.12516715381065543 0.018509008717342026 -0.09915787187883969 0.019400258804566015 0.040674116778221636 -0.12561039087893461 0.11065916546934712 0.112718286005907 0.094697036954062522 0.10740126797376 -0.0040760944483938435 -0.0067461440556302685 0.10660133424808482 0.036825369506061634 -0.13931039790693495 0.11361180136440625
leaf_weight=12.186984956264498 108.62594763189554 62.333106890320778 272.26202762126923 162.33441217988729 235.58228471875191 869.71876460313797 6.8019803315401068 8.0201566815376264 9.7694939672946912 89.434986636042595 46.808394812047482 47.6104456782341 997.74812926352024 68.449483081698418 214.11521930992603 343.79818465560675 88.779073849320412 114.74806377291679 38.809620544314384 2327.9565095305443 11.162610337138174 304.73684243112803 53.352095790207386 521.02042419463396 101.76995299011469 61.408859603106976 62.842557117342949 122.88224785029888 10.791015654802321 1768.0109293311834
leaf_count=75 633 272 2517 1300 2229 3647 40 33 41 826 344 195 4327 367 1289 1863 396 608 185 14342 85 2747 410 4314 563 372 484 600 51 16686
internal_value=0 0.0446363 0.0207382 -0.00493548 -0.0156847 -0.0266496 -0.0342456 0.0717231 0.108441 0.0322584 -0.0265685 -0.0287781 -0.0159304 0.0426625 -0.117494 0.0137249 -0.0430657 -0.0381992 -0.0454741 -0.124497 -0.0135145 0.0860702 0.0771368 0.0868571 0.0298956 0.0964602 0.0505815 0.0121086 0.00451786 0.112715
internal_weight=0 6792.56 4941.66 3286.65 3014.39 2778.81 2616.47 1655.01 1850.9 441.253 2395.55 2348.75 1236.69 238.942 220.917 351.818 1112.06 1023.28 908.528 2351.31 23.3496 1213.76 909.02 753.898 155.122 645.272 124.251 170.493 73.1241 1777.78
internal_count=61841 47339 30289 18044 15527 13298 11998 12245 17050 2722 10669 10325 5489 1162 1329 1896 4836 4440 3832 14502 160 9523 6776 5803 973 5170 856 795 323 16727
is_linear=0
shrinkage=0.1


Tree=12
num_leaves=31
num_cat=0
split_feature=8 33 34 1 1 29 30 15 30 7 22 28 26 2 12 10 5 7 7 25 25 25 6 6 7 25 15 14 1 6
split_gain=4374.87 953.934 557.597 370.506 372.866 219.379 153.442 88.8981 79.5914 49.5688 40.1712 37.72 71.7085 82.5723 35.8512 32.4253 30.981 29.9911 43.886 35.2824 36.7111 41.3747 35.5894 35.3378 29.002 28.915 28.6549 25.629 29.343 24.4571
threshold=61.000000000000007 2.5000000000000004 1.5000000000000002 111.50000000000001 118.50000000000001 1.5000000000000002 2.5000000000000004 129.809516 1.5000000000000002 1559.0000000000002 0.37284950000000006 122.50000000000001 68.500000000000014 1.0000000180025095e-35 1.0000000180025095e-35 9731.946777500003 10.500000000000002 1559.0000000000002 553.00000000000011 53.500000000000007 251.50000000000003 252.50000000000003 1069.0000000000002 1033.0000000000002 1495.0000000000002 52.500000000000007 62.708928000000007 1.0000000180025095e-35 70.500000000000014 565.00000000000011
decision_type=2 2 2 2 2 2 2 2 2 2 2 2 2 2 2 2 2 2 2 2 2 2 2 2 2 2 2 2 2 2
left_child=27 2 7 -4 5 -5 9 10 -3 11 17 12 13 -7 -8 -14 -15 18 19 25 -21 -22 23 -23 29 -2 -20 28 -1 -9
right_child=1 8 3 4 -6 6 14 24 -10 -11 -12 -13 15 16 -16 -17 -18 -19 26 20 21 22 -24 -25 -26 -27 -28 -29 -30 -31
leaf_value=-0.12469633647994478 0.051934306650870544 0.0040629461844836129 0.11250130410815572 0.092462228869223284 0.11218499717384454 -0.03353784641204987 0.1143153365782464 0.059575325562912701 0.11118490427560011 0.083296366992366144 -0.13236139062527899 -0.07205456525972051 -0.0025200804265248615 0.087318026250505193 -0.12171632349777668 0.08376230714321499 -0.0051941525438219324 0.10927454844481255 0.092472659769372412 0.1076066155805908 -0.28565057770664254 0.071047905308722722 0.088972951714604565 -0.14407926988418054 0.10776481379641314 -0.10382172319735639 0.0074999523946274946 -0.12258730893464001 0.10848378713088146 -0.00053019370558213339
leaf_weight=11.284700468182566 80.540942281484604 72.443229004740715 249.62331165373325 151.89060100913048 215.80720592290163 1854.5698187947273 6.6503268629312506 93.972846463322639 1629.6655218079686 42.260458506643772 8.7179813683032972 165.13969913125038 90.501243010163307 78.488798372447491 198.94796065986156 83.964357107877731 67.184546247124672 319.6594977080822 55.46127600222826 460.08306719362736 3.65890298038721 15.234103426337242 85.524513624608517 15.30887271463871 38.631045810878277 13.988976232707499 139.52728719264269 2155.6741382777691 10.342780679464338 242.12632433325052
leaf_count=75 480 323 2517 1300 2229 7819 40 628 16727 330 44 750 466 546 1289 481 277 3152 453 4141 24 100 657 78 383 76 784 14342 85 1245
internal_value=0 0.0423435 0.0194411 -0.00448834 -0.0143697 -0.0243388 -0.0311947 0.0682154 0.106626 -0.0240408 0.0815152 -0.0259794 -0.0224806 -0.0278435 -0.114082 0.0390047 0.0446514 0.0830834 0.0734526 0.0855346 0.0947705 0.0454441 0.0558815 -0.036779 0.0257069 0.0288848 0.031669 -0.121501 -0.013184 0.0162752
internal_weight=0 6479.57 4777.46 3205.03 2955.41 2739.6 2587.71 1572.44 1702.11 2382.11 1197.71 2339.85 2174.71 2000.24 205.598 174.466 145.673 1188.99 869.328 674.339 579.809 119.726 116.067 30.543 374.73 94.5299 194.989 2177.3 21.6275 336.099
internal_count=61841 47339 30289 18044 15527 13298 11998 12245 17050 10669 9989 10339 9589 8642 1329 947 823 9945 6793 5556 5000 859 835 178 2256 556 1237 14502 160 1873
is_linear=0
shrinkage=0.1


Tree=13
num_leaves=31
num_cat=0
split_feature=8 33 34 1 1 7 30 22 30 7 39 31 34 29 1 10 5 25 6 11 6 2 28 2 25 26 8 26 14 0
split_gain=3839.34 876.643 480.561 327.164 326.09 190.977 144.31 83.5507 77.7116 72.2608 47.4889 38.7396 82.501 45.6768 31.5464 28.5026 28.3366 28.1094 41.7748 34.8698 29.0589 28.1766 27.4074 51.3785 26.9296 25.4815 25.1472 39.7002 22.701 25.9332
threshold=61.000000000000007 2.5000000000000004 1.5000000000000002 111.50000000000001 118.50000000000001 1495.0000000000002 2.5000000000000004 0.12733700000000003 1.5000000000000002 1559.0000000000002 1.5000000000000002 1.5000000000000002 2.5000000000000004 3.5000000000000004 117.50000000000001 400363632.00000006 9.0000000000000018 55.500000000000007 565.00000000000011 1208.6329345000001 501.00000000000006 1.5000000000000002 122.50000000000001 4.5000000000000009 56.500000000000007 65.500000000000014 158.00000000000003 73.500000000000014 1.0000000180025095e-35 7.5000000000000002e-06
decision_type=2 2 2 2 2 2 2 2 2 2 2 2 2 2 2 2 2 2 2 2 2 2 2 2 2 2 2 2 2 2
left_child=28 2 7 -4 5 6 10 15 -3 17 16 26 13 -13 -8 -2 -5 20 -19 21 -9 -20 23 25 -10 -21 -12 -28 29 -1
right_child=1 8 3 4 -6 -7 14 9 24 -11 11 12 -14 -15 -16 -17 -18 18 19 22 -22 -23 -24 -25 -26 -27 27 -29 -30 -31
leaf_value=-0.12201176639035911 0.090271823098882528 0.0036574346949818197 0.11110512461272487 0.086083270732292327 0.11089190496418702 0.099459877353148332 -0.11947808288308584 0.12736869864216391 -0.055495826238268479 0.10372368483216377 -0.086123692038784311 0.0073656797643906176 -0.024267225421184868 0.098657992897501434 0.10655292382033935 0.019182752091365957 -0.080970243484204507 0.11336465340594509 -0.12714778334928092 -0.0096894467137757234 -0.061032010594271081 0.060409745594819597 -0.046712840219729164 0.10210496375769347 0.11081428366484142 0.06823740684254602 -0.039426244316180185 0.028027951419982516 -0.11998138034310024 0.10597262922852567
leaf_weight=10.42442597448826 796.90419982373714 72.428506776690483 228.56126751750708 60.659095287322998 197.4305983632803 123.05720548331738 183.81128289550543 9.3886167109012586 9.8006004989147169 130.73670842498541 97.284974530339241 145.13089521974325 991.23590601235628 88.059980772435665 6.3893071040511122 60.695590987801552 12.195415526628492 52.818310536444187 27.129598587751389 150.90542693436146 63.95472127199173 11.365251466631888 42.324674092233181 90.699566073715687 1483.4273547232151 58.123464956879616 894.20260167866945 96.686071090400219 1990.707358032465 9.5696272850036603
leaf_count=75 7445 323 2517 511 2229 1132 1286 59 41 1428 452 681 4325 468 38 406 88 429 119 819 305 65 205 664 16686 301 3779 538 14342 85
internal_value=0 0.0401482 0.018232 -0.00407742 -0.0131675 -0.0222434 -0.028058 0.0648595 0.104816 0.0374394 -0.0213742 -0.0238785 -0.0116771 0.0418404 -0.111885 0.0852406 0.0581195 0.0203374 0.0300268 0.0184599 -0.036915 -0.0717731 0.0286148 0.0392518 0.109723 0.0119792 -0.0376077 -0.0328444 -0.118917 -0.012893
internal_weight=0 6185.41 4619.75 3124.7 2896.14 2698.71 2575.66 1495.05 1565.66 637.446 2385.45 2312.6 1224.43 233.191 190.201 857.6 72.8545 506.71 433.366 380.548 73.3433 38.4949 342.053 299.728 1493.23 209.029 1088.17 990.889 2010.7 19.9941
internal_count=61841 47339 30289 18044 15527 13298 12166 12245 17050 4394 10842 10243 5474 1149 1324 7851 599 2966 2602 2173 364 184 1989 1784 16727 1120 4769 4317 14502 160
is_linear=0
shrinkage=0.1


Tree=14
num_leaves=31
num_cat=0
split_feature=8 33 34 1 1 7 30 15 30 39 7 23 31 34 38 1 26 7 25 5 10 25 29 26 8 26 25 6 23 6
split_gain=3375.31 807.487 413.496 289.393 285.778 163.787 132.438 80.0319 76.1183 39.5627 35.1578 40.9569 31.7818 67.3999 43.0009 27.8673 26.5181 25.342 24.759 24.094 23.19 24.2013 22.8606 22.3673 21.6487 32.2697 21.6057 51.2317 20.2442 21.9465
threshold=61.000000000000007 2.5000000000000004 1.5000000000000002 111.50000000000001 118.50000000000001 1495.0000000000002 2.5000000000000004 129.809516 1.5000000000000002 1.5000000000000002 1559.0000000000002 0.072962000000000013 1.5000000000000002 2.5000000000000004 1.5000000000000002 117.50000000000001 43.500000000000007 1495.0000000000002 56.500000000000007 9.0000000000000018 400363632.00000006 55.500000000000007 4.5000000000000009 43.500000000000007 158.00000000000003 73.500000000000014 55.500000000000007 565.00000000000011 0.078626500000000016 80.000000000000014
decision_type=2 2 2 2 2 2 2 2 2 2 2 2 2 2 2 2 2 2 2 2 2 2 2 2 2 2 2 2 2 2
left_child=-1 2 7 -4 5 6 9 10 23 19 11 20 24 14 -14 -8 -13 26 -10 -5 21 -2 -16 -3 -11 -26 -9 -28 29 -15
right_child=1 8 3 4 -6 -7 15 17 18 12 -12 16 13 28 22 -17 -18 -19 -20 -21 -22 -23 -24 -25 25 -27 27 -29 -30 -31
leaf_value=-0.11667527689589563 0.03486646991273195 -0.13827393785158351 0.10986189331518387 0.082573350531825018 0.10974865216387913 0.096869002260825218 -0.11685613813460385 -0.049076088809955676 -0.050092544247677208 -0.079754319138093027 0.10624835343410655 -0.12623071221577253 -0.04527606551223471 -0.075948985670368702 0.035460474994485271 0.098171003027347714 0.031761497506725675 0.10445466249030746 0.10964390507935787 -0.069145913547322677 0.017469264359467846 0.091840816935134892 0.11070922398343075 0.025110887987167974 -0.035610378394030862 0.025618011548807624 0.11169735323332626 0.0021328270684369552 -0.048038367557336065 -0.0094040598469649888
leaf_weight=1852.5048352628946 88.499113298952579 9.6703394800424558 209.03124719113111 57.100267626345158 180.40812043100595 114.17331182956696 169.85889250040054 48.872337438166142 9.7733621448278409 94.687377721071243 273.2678132429719 11.38468925654888 48.661128804087639 53.283991679549217 120.9447904676199 6.2488351017236701 158.91268172115088 32.787584513425827 1355.8542287349701 12.816517740488051 60.021115489304066 473.20006693899632 60.602858260273933 62.74452805519104 891.1813403069973 95.280220791697502 52.750938087701797 223.48540662229061 227.61496292054653 709.19497970491648
leaf_count=14502 574 49 2517 511 2229 1132 1286 234 41 452 3164 52 211 217 582 38 1047 383 16686 88 406 4746 356 274 3779 538 460 1179 981 3127
internal_value=0 0.0380153 0.0170639 -0.00369854 -0.0120508 -0.0203065 -0.0255581 0.0615753 0.103203 -0.0193445 0.0753204 0.0646494 -0.0215958 -0.0105347 0.0382039 -0.109226 0.0211994 0.0206628 0.108501 0.0547615 0.0765509 0.0828642 0.0605794 0.00329235 -0.0340805 -0.0296965 0.0122123 0.0230556 -0.021867 -0.0140544
internal_weight=0 5912.31 4474.27 3051.09 2842.06 2661.65 2547.48 1423.18 1438.04 2371.37 1065.29 792.018 2301.45 1220.3 230.209 176.108 170.297 357.896 1365.63 69.9168 621.72 561.699 181.548 72.4149 1081.15 986.462 325.109 276.236 990.094 762.479
internal_count=61841 47339 30289 18044 15527 13298 12166 12245 17050 10842 9989 6825 10243 5474 1149 1324 1099 2256 16727 599 5726 5320 938 323 4769 4317 1873 1639 4325 3344
is_linear=0
shrinkage=0.1


Tree=15
num_leaves=31
num_cat=0
split_feature=8 33 34 1 1 7 30 7 22 30 39 25 6 6 8 26 22 2 6 6 6 16 6 25 25 6 0 6 10 1
split_gain=2968.34 744.181 355.076 256.436 251.04 140.681 121.415 75.3873 78.8853 74.0183 32.9745 30.4257 43.8834 45.4609 37.8376 41.9264 30.4026 30.3047 34.9656 48.468 32.4076 33.8804 32.3961 28.7189 27.8582 41.6366 38.829 27.8726 27.1981 24.7086
threshold=61.000000000000007 2.5000000000000004 1.5000000000000002 111.50000000000001 118.50000000000001 1495.0000000000002 2.5000000000000004 1559.0000000000002 0.11296050000000001 1.5000000000000002 1.5000000000000002 53.500000000000007 169.00000000000003 199.00000000000003 158.00000000000003 73.500000000000014 0.13624850000000002 1.0000000180025095e-35 775.00000000000011 755.00000000000011 567.00000000000011 6634.6856405000008 757.00000000000011 1211.5000000000002 55.500000000000007 565.00000000000011 0.80141250000000008 501.00000000000006 9731.946777500003 117.50000000000001
decision_type=2 2 2 2 2 2 2 2 2 2 2 2 2 2 2 2 2 2 2 2 2 2 2 2 2 2 2 2 2 2
left_child=-1 2 7 -4 5 6 10 8 -2 -3 -5 16 -13 -14 -15 17 -12 18 19 20 21 -16 -21 -20 27 -26 -27 -10 -17 -8
right_child=1 9 3 4 -6 -7 29 -9 24 -11 11 12 13 14 15 28 -18 -19 23 22 -22 -23 -24 -25 25 26 -28 -29 -30 -31
leaf_value=-0.11452549617046295 0.073926080563936 0.0029478973744435557 0.10875043748382647 0.051546881349115496 0.10873536020614152 0.094344700016906938 -0.11451001956034329 0.10455569342790356 0.12396342064692918 0.10740137521255773 -0.023858634527167431 0.089487047667754727 -0.27049763171689362 -0.059003047821517329 0.0064705200030509436 -0.00020948927014177544 -0.073565760088696724 0.042984108150870226 -0.034635125237341663 0.13336895568469276 -0.033461052224499306 0.14658277366829947 0.0088126883168454309 0.08768337956662775 0.11007016514779411 0.068174834502047532 -0.00071496410719342179 -0.055798301789590499 0.086824854341089164 0.090531552217433392
leaf_weight=1706.0643294304609 527.97397022694349 71.741848275065422 190.97344467043877 67.151148036122322 164.68330715596676 105.93197450041771 156.68185175210238 280.27476473152637 9.8051692470908147 1247.731265462935 388.48233318328857 40.851692348718643 6.9575652554631224 170.41768841445446 126.49467647075653 73.899560779333115 180.08930310606956 85.300898045301437 768.49388746917248 42.278786823153496 254.33550228923559 19.984885096549988 41.259683229029179 19.686518624424934 56.017981976270676 112.71994987130165 298.43806502223015 71.691461846232414 69.836046598851681 6.1061475798487654
leaf_count=14502 5241 323 2517 599 2229 1132 1286 3544 68 16727 1595 392 55 816 593 396 772 401 3215 176 1063 84 171 86 537 914 1599 342 428 38
internal_value=0 0.0359625 0.0159553 -0.00335337 -0.0110298 -0.0185456 -0.0232943 0.0583584 0.0463323 0.101722 -0.017522 -0.0195487 -0.0129188 -0.0154105 -0.014349 -0.00928109 -0.0396029 -0.0147177 -0.0185856 0.00255986 -0.0118818 0.0255867 0.0718506 -0.03158 0.0197794 0.0291907 0.0181713 -0.0341705 0.0420774 -0.106819
internal_weight=0 5656.29 4336.82 2979.9 2788.92 2624.24 2518.31 1356.92 1076.65 1319.47 2355.52 2288.37 1719.8 1678.95 1671.99 1501.57 568.572 1357.83 1272.53 484.354 400.815 146.48 83.5385 788.18 548.673 467.176 411.158 81.4966 143.736 162.788
internal_count=61841 47339 30289 18044 15527 13298 12166 12245 8701 17050 10842 10243 7876 7484 7429 6613 2367 5789 5388 2087 1740 677 347 3301 3460 3050 2513 410 824 1324
is_linear=0
shrinkage=0.1


Tree=16
num_leaves=31
num_cat=0
split_feature=8 33 34 1 1 29 30 7 30 23 33 14 25 25 6 29 25 1 8 14 4 2 26 29 24 12 17 28 26 2
split_gain=2613.41 683.61 303.918 227.594 221.019 122.469 108.652 73.7488 72.4643 71.3307 31.6025 28.5259 27.5352 30.2286 49.5644 26.9095 25.9297 23.4061 23.1061 34.6153 22.7351 22.2677 61.0012 32.7248 22.3908 21.95 20.0906 21.7013 42.7939 27.2129
threshold=61.000000000000007 2.5000000000000004 1.5000000000000002 111.50000000000001 118.50000000000001 1.5000000000000002 2.5000000000000004 1559.0000000000002 1.5000000000000002 0.060528000000000005 1.5000000000000002 1.0000000180025095e-35 55.500000000000007 502.00000000000006 1069.0000000000002 10.500000000000002 56.500000000000007 70.500000000000014 158.00000000000003 76.918755500000017 18.500000000000004 3.5000000000000004 114.50000000000001 3.5000000000000004 0.10154900000000001 1.0000000180025095e-35 1717.1709735000002 122.50000000000001 71.500000000000014 3.5000000000000004
decision_type=2 2 2 2 2 2 2 2 2 2 2 2 2 2 2 2 2 2 2 2 2 2 2 2 2 2 2 2 2 2
left_child=11 2 7 -4 5 -5 10 9 -3 12 26 17 -2 18 -15 20 -10 -1 19 -14 -12 23 -23 24 -11 -8 27 28 29 -7
right_child=1 8 3 4 -6 6 25 -9 16 21 15 -13 13 14 -16 -17 -18 -19 -20 -21 -22 22 -24 -25 -26 -27 -28 -29 -30 -31
leaf_value=-0.11655820861881611 0.017097590797091271 0.0026535963548778223 0.1077528162319808 0.082007738532534416 0.10783534241391982 -0.025923608464302875 0.082965616398893507 0.10315417819339188 -0.055673354251954632 0.0056319526269208581 -0.0098015285896399362 -0.11406399847813037 0.069192791645582064 -0.14127673357654275 0.065118807781931645 0.10060696792650725 0.10768164137249894 0.1094496889174566 0.096903469015206023 -0.16221474649286305 0.074097970869770532 0.097675416558098194 -0.036794546031008526 0.057915835279449358 -0.055812765276971155 -0.11178944950987563 0.067858303644272852 -0.062830412454243256 0.030471300447812162 0.044618433040337052
leaf_weight=8.1530461162328738 86.384148836135864 71.729367136955261 174.31800686568022 119.29744013398886 150.191655613482 1686.0892317146063 6.0281248539686194 256.87388225644827 9.8012650161981565 189.46600067615509 195.32776069641113 1550.3203625977039 25.670758031308651 15.423780828714369 47.366376407444477 32.940056480467319 1130.5236706584692 10.462591290473936 350.92633619904518 8.6397617086768133 38.6969283670187 93.698781184852123 52.715280316770077 83.308648988604546 86.328676283359528 144.70289368927479 25.359222009778023 120.66164210438728 159.5602335780859 56.519493021070957
leaf_count=75 575 323 2517 1300 2229 7237 40 3544 41 1181 953 14342 279 78 399 225 16686 85 4107 58 196 751 290 534 449 1289 187 626 956 289
internal_value=0 0.033975 0.0149089 -0.00303566 -0.0100959 -0.0169474 -0.0217347 0.0551717 0.100145 0.0433196 -0.0163787 -0.112586 0.0687918 0.0787589 0.0144198 0.0159828 0.106278 0.0104656 0.0892457 0.0109219 0.00407159 0.0163914 0.0492605 0.00298998 -0.0136013 -0.104001 -0.0205968 -0.0217057 -0.019097 -0.0236357
internal_weight=0 5418.55 4206.5 2909.69 2735.37 2585.18 2465.89 1296.8 1212.05 1039.93 2315.15 1568.94 534.411 448.027 62.7902 266.965 1140.32 18.6156 385.237 34.3105 234.025 505.517 146.414 359.103 275.795 150.731 2048.19 2022.83 1902.17 1742.61
internal_count=61841 47339 30289 18044 15527 13298 11998 12245 17050 8701 10669 14502 5496 4921 477 1374 16727 160 4444 337 1149 3205 1041 2164 1630 1329 9295 9108 8482 7526
is_linear=0
shrinkage=0.1


Tree=17
num_leaves=31
num_cat=0
split_feature=8 33 34 1 1 7 30 7 30 23 31 34 38 14 25 10 0 28 2 25 0 28 1 31 29 39 39 23 1 25
split_gain=2307.58 628.987 260.717 202.267 194.898 108.549 101.555 71.5305 71.1547 65.5004 27.3001 58.581 33.0039 25.5564 25.2989 31.809 24.9295 27.0366 32.0778 23.8964 20.7626 19.9747 19.6296 19.5723 19.3516 18.8585 18.4518 17.8977 17.7835 17.1291
threshold=61.000000000000007 2.5000000000000004 1.5000000000000002 111.50000000000001 118.50000000000001 1559.0000000000002 2.5000000000000004 1559.0000000000002 1.5000000000000002 0.049538000000000006 1.5000000000000002 2.5000000000000004 1.5000000000000002 1.0000000180025095e-35 55.500000000000007 259111104.00000003 1.4208120000000004 122.50000000000001 3.5000000000000004 56.500000000000007 7.5000000000000002e-06 135.50000000000003 117.50000000000001 13.500000000000002 4.5000000000000009 2.5000000000000004 3.5000000000000004 0.077740000000000017 111.50000000000001 43.500000000000007
decision_type=2 2 2 2 2 2 2 2 2 2 2 2 2 2 2 2 2 2 2 2 2 2 2 2 2 2 2 2 2 2
left_child=13 2 7 -4 5 6 10 9 23 14 -5 12 -12 20 28 -16 17 18 26 -10 -1 -19 -8 -3 -14 -13 -11 29 -2 -27
right_child=1 8 3 4 -6 -7 22 -9 19 16 11 25 24 -15 15 -17 -18 21 -20 -21 -22 -23 -24 -25 -26 27 -28 -29 -30 -31
leaf_value=-0.11495359166026596 0.10581192343937276 0.021947309031587554 0.10685370238135067 -0.026005872743728342 0.10703436919928566 0.091822198115130288 -0.11042705962048847 0.1018134290067744 -0.050250993958926793 0.014485261368471058 -0.034333515052834572 0.068700281053041601 0.037299058791451171 -0.11254792108371242 0.09431071791564645 0.015820675496862054 -0.0088251963197507541 -0.25782170116103681 0.095492117497815221 0.10684749047231601 0.10691000795840917 -0.020974916982787348 0.077143782056831631 -0.13714394672229932 0.1059869061420049 -0.062626012665194131 0.10675674632611792 -0.042408376681683069 -0.0087722723519977012 -0.0056132646121074921
leaf_weight=7.4750668108463314 17.569903969764709 62.90093494951725 158.98890380561352 1088.2355534955859 136.86398791149259 90.962621740996838 132.8486163765192 235.3348920494318 9.7743550986051542 205.02146653085947 49.212356992065907 26.063913971185684 142.43026422709227 1420.7130558341742 298.29793240875006 62.440013878047466 213.72733336687088 3.9942522644996634 87.220346689224243 1030.518100976944 9.68055711686611 32.810725383460522 5.8239154219627371 8.8169993162155134 57.605120345950127 57.115502461791039 24.233994975686073 221.94471971690655 59.121980100870132 681.27030900865793
leaf_count=75 190 277 2517 5040 2229 1108 1287 3544 41 1457 219 170 829 14342 3870 495 1118 20 841 16686 85 185 38 46 358 240 196 980 329 3029
internal_value=0 0.032044 0.0139093 -0.00274649 -0.00922335 -0.0154546 -0.0194172 0.0521893 0.0987297 0.0405626 -0.0144565 -0.00428483 0.0390305 -0.111083 0.0696363 0.0807249 0.0181331 0.0344422 0.0438763 0.105371 0.0102394 -0.0466787 -0.10255 0.00238864 0.0570794 -0.01523 0.024239 -0.0175079 0.0174787 -0.0100233
internal_weight=0 5201.15 4089.14 2849.37 2690.38 2553.51 2462.55 1239.77 1112.01 1004.44 2323.88 1235.64 249.248 1437.87 437.43 360.738 567.008 353.281 316.476 1040.29 17.1556 36.805 138.673 71.7179 200.035 986.394 229.255 960.331 76.6919 738.386
internal_count=61841 47339 30289 18044 15527 13298 12190 12245 17050 8701 10865 5825 1406 14502 4884 4365 3817 2699 2494 16727 160 205 1325 323 1187 4419 1653 4249 519 3269
is_linear=0
shrinkage=0.1


Tree=18
num_leaves=31
num_cat=0
split_feature=8 33 7 1 1 34 30 6 0 25 25 6 14 23 39 8 2 6 6 26 6 25 8 7 26 2 25 34 29 25
split_gain=2039.64 579.102 231.416 211.171 153.694 170.636 92.847 69.6059 66.9322 41.2699 30.4345 32.7972 22.9384 22.6819 23.0895 22.6801 37.8282 34.0705 47.0666 35.9232 22.6132 24.2405 21.2356 20.1334 30.5446 28.932 22.9225 20.9018 31.5242 19.3181
threshold=61.000000000000007 2.5000000000000004 1559.0000000000002 111.50000000000001 118.50000000000001 1.5000000000000002 2.5000000000000004 463.00000000000006 0.86574300000000015 55.500000000000007 251.50000000000003 2559.0000000000005 1.0000000180025095e-35 0.073406500000000013 1.5000000000000002 158.00000000000003 4.5000000000000009 565.00000000000011 559.00000000000011 65.500000000000014 545.00000000000011 49.500000000000007 158.00000000000003 1089.0000000000002 68.500000000000014 1.0000000180025095e-35 90.500000000000014 4.5000000000000009 11.500000000000002 51.500000000000007
decision_type=2 2 2 2 2 2 2 2 2 2 2 2 2 2 2 2 2 2 2 2 2 2 2 2 2 2 2 2 2 2
left_child=12 2 3 -2 5 8 13 -3 9 -5 22 -12 -1 14 -7 -10 17 18 -17 -19 21 -15 -11 24 25 27 -25 28 -16 -29
right_child=1 7 -4 4 -6 6 -8 -9 15 10 11 -13 -14 20 23 16 -18 19 -20 -21 -22 -23 -24 26 -26 -27 -28 29 -30 -31
leaf_value=0.010026288610657519 0.10496638083178345 0.10491424864725372 0.097406577542209272 -0.007815461336500143 0.10638114282983409 0.069902597949896034 -0.10062250457380711 0.0063759727497201581 -0.059183727365627915 0.025104675258235343 -0.034456813856280855 0.088847878778033754 -0.11121224394459089 0.069555421093880299 -0.0029676593154145609 -0.043690825348805119 0.089026052831448682 -0.043062565009483772 0.1098006434330306 0.049751512254909216 -0.017777510536408209 -0.06925276244506029 0.096598179372450702 -0.075577894937100751 0.060294009034100905 0.049360960624629947 0.13566714038837405 -0.072512452465854652 0.13658602463583924 -0.018592566998109693
leaf_weight=15.795249402523039 203.95187673345208 941.79786305502057 299.98264119774103 78.755226939916611 131.3539585955441 39.902211681008339 127.78567865863442 77.592374436557293 50.114299364387989 49.09539519995451 49.643197797238827 38.147469073534012 1300.1609594523907 13.675924591720102 567.54938151687384 31.725162088871002 54.997079439461231 174.87468671798706 53.951268568634987 54.759104043245316 741.241614125669 157.12632483243942 270.19198535382748 65.622867919504642 69.039983674883842 81.832923781126738 5.5729896649718276 77.151726022362709 16.662031792104244 478.83212269097567
leaf_count=160 3315 16657 4653 451 2333 410 1325 393 260 445 338 417 14342 95 2462 156 410 881 589 292 3425 700 3559 321 406 571 30 327 80 2038
internal_value=0 0.0301581 0.0129473 0.00606904 0.000272321 -0.00389039 -0.0176428 0.0974139 0.0331669 0.0584477 0.0712673 0.0191225 -0.109757 -0.0130608 -0.00507637 0.00395271 0.0124971 -0.000851285 0.0529642 -0.0209299 -0.0253361 -0.0581386 0.0856049 -0.00727259 -0.00441775 -0.00807373 -0.0590423 -0.0121959 0.00101249 -0.0260748
internal_weight=0 5002.93 3983.54 3683.56 3479.6 3348.25 2442 1019.39 906.255 485.833 407.078 87.7907 1315.96 2314.21 1402.17 420.422 370.307 315.31 85.6764 229.634 912.044 170.802 319.287 1362.26 1291.07 1222.03 71.1959 1140.2 584.211 555.984
internal_count=61841 47339 30289 25636 22321 19988 12190 17050 7798 5210 4759 755 14502 10865 6645 2588 2328 1918 745 1173 4220 795 4004 6235 5884 5478 351 4907 2542 2365
is_linear=0
shrinkage=0.1


Tree=19
num_leaves=31
num_cat=0
split_feature=8 33 7 1 1 34 30 6 0 25 25 6 31 34 29 14 25 8 4 6 6 39 11 39 6 1 26 25 1 31
split_gain=1803.93 530.121 208.089 189.846 137.704 142.573 83.571 68.7105 59.347 30.387 28.438 28.2672 22.1083 45.1897 27.4942 22.0797 21.6408 21.0438 20.9692 22.1953 47.0587 21.5503 20.0286 24.1117 19.9499 19.2886 18.8535 24.7833 18.6812 17.7657
threshold=61.000000000000007 2.5000000000000004 1559.0000000000002 111.50000000000001 118.50000000000001 1.5000000000000002 2.5000000000000004 463.00000000000006 0.7918265000000001 55.500000000000007 251.50000000000003 2559.0000000000005 1.5000000000000002 2.5000000000000004 4.5000000000000009 1.0000000180025095e-35 56.500000000000007 158.00000000000003 6.5000000000000009 565.00000000000011 559.00000000000011 1.5000000000000002 3771.1109620000002 2.5000000000000004 501.00000000000006 117.50000000000001 56.500000000000007 55.500000000000007 70.500000000000014 8.5000000000000018
decision_type=2 2 2 2 2 2 2 2 2 2 2 2 2 2 2 2 2 2 2 2 2 2 2 2 2 2 2 2 2 2
left_child=15 2 3 -2 5 8 12 16 9 22 17 -12 -7 14 26 28 -3 -11 -10 20 24 -21 23 -5 -20 -8 27 -14 -1 -9
right_child=1 7 -4 4 -6 6 25 29 18 10 11 -13 13 -15 -16 -17 -18 -19 19 21 -22 -23 -24 -25 -26 -27 -28 -29 -30 -31
leaf_value=-0.1144027682060159 0.10400010559474669 -0.045791235756058091 0.09578759663854218 -0.083879446546274064 0.10573731065787968 -0.022254462443848197 -0.10706073486345516 0.023819654751376474 -0.17179639688817414 0.021289266189105364 -0.029809636546928836 0.089781390423263358 -0.06415057555667053 -0.012203108865188883 0.097232412076127775 -0.11003214575981415 0.10571774031670232 0.096759121085133598 0.12501145145712486 -0.017133855356081428 0.10849109773027105 0.043699337458333522 0.080432473793229736 0.058747218642872412 -0.064734509029730561 0.07895222836919813 0.067265822558559826 0.027672236379827478 0.10492865048829514 -0.12100912777892747
leaf_weight=6.9003132283687583 186.17090761289001 9.5333010256290418 275.79189538583159 34.185225799679756 119.54070760309696 1079.44587418437 112.84614239633083 67.858466729521751 6.5807995051145545 43.92912370711565 49.597385212779045 32.858665563166142 43.983905084431171 977.40247774124146 56.308267533779144 1188.4046265333891 849.46808698400855 232.45251833274961 6.6503097563982001 268.0623766258359 57.096244890242815 74.394675433635712 21.386111468076706 18.143932789564133 33.222111620008945 5.864308536052703 54.092214398086071 88.613322287797928 8.8817741721868497 9.6777256131172162
leaf_count=75 3315 39 4653 164 2333 5040 1287 336 39 414 332 392 188 4419 367 14342 16618 3366 45 1490 692 450 173 83 158 38 378 473 85 57
internal_value=0 0.0283745 0.01207 0.00566155 0.000303159 -0.00351948 -0.0160526 0.0958985 0.0309826 0.0573741 0.0693872 0.0178473 -0.0118294 -0.00260838 0.0359842 -0.108472 0.104036 0.0847637 0.0053871 0.00804058 0.0502758 -0.00391858 -0.00110417 -0.0344269 -0.0330868 -0.0978717 0.0175109 -0.00278636 0.00903161 0.00574276
internal_weight=0 4815.16 3878.62 3602.83 3416.66 3297.12 2418.56 936.538 878.559 432.553 358.838 82.4561 2299.85 1220.4 242.998 1204.19 859.001 276.382 446.007 439.426 96.9687 342.457 73.7153 52.3292 39.8724 118.71 186.689 132.597 15.7821 77.5362
internal_count=61841 47339 30289 25636 22321 19988 12190 17050 7798 4924 4504 724 10865 5825 1406 14502 16657 3780 2874 2835 895 1940 420 247 203 1325 1039 661 160 393
is_linear=0
shrinkage=0.1


Tree=20
num_leaves=31
num_cat=0
split_feature=8 33 7 1 1 34 30 30 0 25 25 6 25 8 14 28 26 2 5 10 26 23 4 6 25 6 2 26 6 6
split_gain=1598.16 486.578 187.015 170.752 123.485 118.878 76.1634 67.5073 52.2684 27.3204 26.6367 24.5518 22.9157 20.5268 19.892 18.9103 40.4336 41.3207 33.2983 22.6397 22.1123 21.212 17.5764 19.2249 42.4206 18.6114 24.8733 25.5187 17.3119 17.2933
threshold=61.000000000000007 2.5000000000000004 1559.0000000000002 111.50000000000001 118.50000000000001 1.5000000000000002 2.5000000000000004 1.5000000000000002 0.7918265000000001 55.500000000000007 251.50000000000003 2559.0000000000005 56.500000000000007 158.00000000000003 1.0000000180025095e-35 123.50000000000001 57.500000000000007 1.0000000180025095e-35 10.500000000000002 13286.032230000003 56.500000000000007 0.080625500000000017 6.5000000000000009 565.00000000000011 54.500000000000007 869.00000000000011 1.5000000000000002 56.500000000000007 68048.000000000015 501.00000000000006
decision_type=2 2 2 2 2 2 2 2 2 2 2 2 2 2 2 2 2 2 2 2 2 2 2 2 2 2 2 2 2 2
left_child=14 2 3 -2 5 8 15 -3 9 -5 13 -12 -9 -11 -1 16 17 20 -19 -18 21 -7 -10 24 29 -25 27 -27 -23 -24
right_child=1 7 -4 4 -6 6 -8 12 22 10 11 -13 -14 -15 -16 -17 19 18 -20 -21 -22 28 23 25 -26 26 -28 -29 -30 -31
leaf_value=0.0088475354258423268 0.10308780240549127 0.00052599665179980709 0.094168019572661063 -0.00087037441333942295 0.10516174720765503 -0.0084588976752687176 -0.096117930358321252 -0.049845611178016183 -0.1598367547269115 0.019449615691567407 -0.026343975063982474 0.087238108866011826 0.10485031515413645 0.094934550064608283 -0.1089868511741356 -0.045490211766819291 0.014378506328514857 0.082517895993841808 -0.01263514183409515 0.089557576480268505 -0.093621851277793988 -0.036531294597929455 0.12215812609609589 -0.033440536548676715 0.10573768195104671 -0.0403261820131256 0.066378214183422865 0.045070189488770493 0.055718963149404346 -0.060634606883264663
leaf_weight=14.517985492944716 169.86967604979873 70.067541673779488 253.62255442142487 73.206792496144772 108.7266800403595 1224.8436848446727 109.30480114370584 9.6949688494205457 6.376683145761489 43.309707015752792 50.461068920791149 30.55457578971982 779.08069249242544 214.17004609853029 1085.097949758172 146.08061619102955 172.69865400716662 78.300451476126909 69.350153505802155 52.153588216751814 37.102602168917656 490.34176664054394 6.1507284939289084 129.32684125751257 53.411777928471565 92.155982419848442 64.722415611147881 56.414146825671196 21.223225146532059 32.64489171653986
leaf_count=160 3315 323 4653 420 2333 5376 1325 41 39 414 332 392 16686 3366 14342 768 1011 660 302 350 159 2150 45 687 701 467 472 314 89 149
internal_value=0 0.0266366 0.011223 0.00526851 0.000327568 -0.00317495 -0.0145654 0.0945929 0.0288954 0.0545223 0.0665022 0.0164928 0.102949 0.0822375 -0.107431 -0.0106763 -0.00830651 -0.0130024 0.0378254 0.031816 -0.017234 -0.0156018 0.00498196 0.00739901 0.047931 -0.00350915 0.0146393 -0.00789999 -0.0327041 -0.0316543
internal_weight=0 4645.37 3786.52 3532.9 3363.03 3254.31 2401.4 858.843 852.906 411.702 338.495 81.0156 788.776 257.48 1099.62 2292.09 2146.01 1921.16 147.651 224.852 1773.51 1736.41 441.203 434.827 92.2074 342.619 213.293 148.57 511.565 38.7956
internal_count=61841 47339 30289 25636 22321 19988 12190 17050 7798 4924 4504 724 16727 3780 14502 10865 10097 8736 962 1361 7774 7615 2874 2835 895 1940 1253 781 2239 194
is_linear=0
shrinkage=0.1


Tree=21
num_leaves=31
num_cat=0
split_feature=8 33 7 1 1 34 6 30 0 25 25 29 11 28 2 25 26 6 11 6 6 26 6 13 10 25 6 14 6 25
split_gain=1416.41 445.247 167.837 153.593 110.832 100.985 66.6373 65.2076 58.5467 54.4251 43.1502 40.9145 32.246 29.8071 43.3154 30.2628 33.5743 26.821 24.4561 23.7606 67.4383 26.3821 24.3915 21.6676 22.1138 21.0285 19.789 19.2479 18.8329 18.7975
threshold=61.000000000000007 2.5000000000000004 1559.0000000000002 111.50000000000001 118.50000000000001 2.5000000000000004 463.00000000000006 2.5000000000000004 0.63837050000000006 53.500000000000007 161.50000000000003 3.5000000000000004 4513.0468750000009 122.50000000000001 3.5000000000000004 1136.5000000000002 118.50000000000001 835.00000000000011 3396.4222415000004 603.00000000000011 559.00000000000011 55.500000000000007 565.00000000000011 2.5000000000000004 8723.9868165000025 52.500000000000007 80.000000000000014 1.0000000180025095e-35 1111.0000000000002 56.500000000000007
decision_type=2 2 2 2 2 2 2 2 2 2 2 2 2 2 2 2 2 2 2 2 2 2 2 2 2 2 2 2 2 2
left_child=27 2 3 -2 5 8 29 23 9 12 -11 13 -5 14 19 16 -16 -18 -12 20 25 -21 -22 24 28 -10 -26 -1 -7 -3
right_child=1 6 -4 4 -6 7 -8 -9 11 10 18 -13 -14 -15 15 -17 17 -19 -20 21 22 -23 -24 -25 26 -27 -28 -29 -30 -31
leaf_value=0.0079691971579470746 0.10221833896673338 -0.036673472174564826 0.092534951484821451 -0.031058212391135289 0.10464657853519839 -0.034710514804704488 0.0042990297526443334 -0.10198075394748277 0.068115927599309914 0.082722341972688546 -0.0066958092918703877 0.044117651985449355 0.095884403169394811 -0.067282350313351974 0.10273365187982426 -0.071541531024614649 0.11854523466362731 -0.1439994922611787 0.085071378794105576 -0.049590868527284587 0.11198739795639692 0.0015371157433231538 -0.0027024386091782709 -0.048872721254609862 -0.05552719062406869 -0.074267058728443622 0.0010358305638152256 -0.10805887817919864 0.057571216521593985 0.10463417337412893
leaf_weight=14.506921529769896 154.94573397934437 9.5417243242263776 233.33341589570045 126.34003459662199 98.839563269168139 412.70474519580603 76.113203663378954 91.118033193051815 12.401076413691042 275.04633546620607 114.65527633950114 174.60941848158836 23.776514917612076 80.016200616955757 79.173216138035059 16.430459816008806 5.9953467622399357 11.086062356829641 38.891926310956478 226.82719423249364 61.832406293600798 181.82329634949565 26.486629702150822 168.91695910692215 66.283322215080261 63.417520634829998 925.36134391278028 989.83722630143166 23.367033697664738 702.583231870085
leaf_count=160 3315 39 4653 557 2333 1924 393 1208 70 3676 712 1039 204 410 746 99 61 65 461 1136 855 954 123 724 283 290 4285 14342 106 16618
internal_value=0 0.0250061 0.0104458 0.00491052 0.000349068 -0.00286582 0.0932351 -0.0197006 0.0158415 0.0408655 0.0590148 0.000437168 -0.0109521 -0.00952642 -0.0027845 0.0538902 0.0753012 -0.0518498 0.0165479 -0.0139342 0.0182027 -0.0268422 0.0775922 -0.0150049 -0.0109979 -0.0509785 -0.00274494 -0.106383 -0.0297656 0.102741
internal_weight=0 4481.92 3693.68 3460.35 3305.4 3206.56 788.238 1687.75 1518.81 578.71 428.594 940.099 150.117 765.489 685.473 112.685 96.2546 17.0814 153.547 572.788 164.138 408.65 88.319 1596.63 1427.72 75.8186 991.645 1004.34 436.072 712.125
internal_count=61841 47339 30289 25636 22321 19988 17050 8530 11458 5610 4849 5848 761 4809 4399 971 872 126 1173 3428 1338 2090 978 7322 6598 360 4568 14502 2030 16657
is_linear=0
shrinkage=0.1


Tree=22
num_leaves=31
num_cat=0
split_feature=8 33 7 1 1 30 34 6 0 12 25 25 6 26 22 14 25 10 33 29 7 26 25 6 25 34 22 25 6 23
split_gain=1256.19 406.674 150.469 138.183 99.5494 85.1384 74.3937 65.7625 40.3911 30.4598 20.6141 25.3365 20.7715 19.0259 18.7594 18.6767 17.6889 17.4158 17.3591 21.703 18.6311 30.9726 19.7175 19.9594 22.6748 27.182 24.2995 20.7933 19.7572 18.5411
threshold=61.000000000000007 2.5000000000000004 1559.0000000000002 111.50000000000001 118.50000000000001 2.5000000000000004 1.5000000000000002 463.00000000000006 0.7918265000000001 1.0000000180025095e-35 55.500000000000007 236.50000000000003 1069.0000000000002 64.500000000000014 0.20400900000000002 1.0000000180025095e-35 56.500000000000007 9556.8525390000013 1.5000000000000002 10.500000000000002 1079.0000000000002 65.500000000000014 1211.5000000000002 2515.0000000000005 53.500000000000007 4.5000000000000009 0.13624850000000002 252.50000000000003 3616.0000000000005 0.05410750000000001
decision_type=2 2 2 2 2 2 2 2 2 2 2 2 2 2 2 2 2 2 2 2 2 2 2 2 2 2 2 2 2 2
left_child=15 2 3 -2 5 6 8 16 10 -7 -5 13 -13 -12 -14 -1 -3 -15 20 -20 21 22 23 24 26 -26 -8 -25 -29 -23
right_child=1 7 -4 4 -6 9 18 -9 -10 -11 11 12 14 17 -16 -17 -18 -19 19 -21 -22 29 -24 27 25 -27 -28 28 -30 -31
leaf_value=0.0071772639171352251 0.10138156866080422 -0.033016577156003993 0.090876780157534309 0.0024124972540785447 0.10418498770285267 0.095318323457864285 -0.012224671193993189 0.0038712428092732586 0.0056287431979826002 -0.10724850350904247 0.095051936963998204 -0.058030444436380994 0.064027702545395013 -0.068649152987079284 -0.20631647471331194 -0.10723345498097588 0.10417391758557909 0.062876008713432352 0.0051084981507771923 0.095511496143369179 -0.049692996657040578 0.10031824768890017 0.09689799826632535 -0.08257019095173164 0.013911733839088641 -0.019806213967316015 -0.060584670302682636 0.060884019805601909 -0.034209119822390943 0.01549842011340187
leaf_weight=14.497376546263693 141.29946098104119 9.5388089716434461 214.78746193647385 71.355730444192886 89.809759669005871 8.0458072721958143 330.33230077475309 76.073797896504402 424.75322376564145 95.926578283309937 173.23585806787014 26.748162239789963 50.027756877243519 14.263629782944916 2.7055692449212065 902.18327707052231 638.38902874290943 34.223127380013466 220.87547385320067 30.184562362730503 122.56125379353762 32.69856832921505 16.092243038117886 78.877421848475933 544.2512353733182 426.40961243957281 151.57986011356115 25.272498160600662 161.2787342518568 121.65363469719887
leaf_count=160 3315 39 4653 413 2333 63 1395 393 2839 1329 3218 156 566 98 20 14342 16618 421 1097 225 710 258 75 341 2586 1891 712 112 708 755
internal_value=0 0.0234274 0.00970662 0.00457051 0.000365572 -0.00258193 0.000442411 0.0918272 0.0267081 -0.0915731 0.0507406 0.0621897 0.0137485 0.0795545 0.0501573 -0.105424 0.102154 0.0241845 -0.0088155 0.0159775 -0.0119107 -0.00945864 -0.0132795 -0.0143115 -0.00970395 -0.000900502 -0.0274357 -0.0395264 -0.0213266 0.033467
internal_weight=0 4333.25 3609.25 3394.46 3253.16 3163.35 3059.38 724.002 797.313 103.972 372.56 301.204 79.4815 221.723 52.7333 916.681 647.928 48.4868 2262.07 251.06 2011.01 1888.45 1734.09 1718 1452.57 970.661 481.912 265.429 186.551 154.352
internal_count=61841 47339 30289 25636 22321 19988 18596 17050 7731 1392 4892 4479 742 3737 586 14502 16657 519 10865 1322 9543 8833 7820 7745 6584 4477 2107 1161 820 1013
is_linear=0
shrinkage=0.1


Tree=23
num_leaves=31
num_cat=0
split_feature=8 33 7 1 1 30 6 34 0 1 25 25 6 26 14 39 7 2 25 25 13 25 1 26 25 11 10 0 2 10
split_gain=1114.55 371.05 134.797 124.377 89.5085 75.684 64.8352 61.8114 35.6713 27.0372 18.7303 23.5323 18.5423 18.4322 18.1681 16.8916 18.6388 26.1705 22.2414 33.0973 26.1026 16.7121 16.6087 16.2193 25.0471 17.6436 16.0621 17.2165 22.5055 23.9919
threshold=61.000000000000007 2.5000000000000004 1559.0000000000002 111.50000000000001 118.50000000000001 2.5000000000000004 463.00000000000006 1.5000000000000002 0.7918265000000001 117.50000000000001 55.500000000000007 236.50000000000003 2559.0000000000005 64.500000000000014 1.0000000180025095e-35 1.5000000000000002 626.00000000000011 2.5000000000000004 58.500000000000007 54.500000000000007 1.5000000000000002 56.500000000000007 70.500000000000014 58.500000000000007 114.50000000000001 4875.7783200000013 2366.7760010000006 0.61940200000000012 1.0000000180025095e-35 17454.036135000006
decision_type=2 2 2 2 2 2 2 2 2 2 2 2 2 2 2 2 2 2 2 2 2 2 2 2 2 2 2 2 2 2
left_child=14 2 3 -2 5 7 21 8 10 -7 -5 13 -13 -12 22 16 17 18 19 -10 -20 -3 -1 25 -25 -18 -9 28 -28 -30
right_child=1 6 -4 4 -6 9 -8 26 15 -11 11 12 -14 -15 -16 -17 23 -19 20 -21 -22 -23 -24 24 -26 -27 27 -29 29 -31
leaf_value=-0.11337533522171213 0.10056815435735374 -0.029740417961453006 0.089183093514181008 0.0021735043180895067 0.10377098699535128 -0.10558433467255929 0.0034858497326732667 0.041215459771813866 -0.047729764271739056 0.089149207763234553 0.093453123613594979 -0.021602212487817463 0.081798193759818741 0.022418220538241634 -0.10649792738870484 0.043227497398689398 -0.055481727536421388 0.093558651386679556 -0.059824181101745637 0.094832328608124045 0.1393360440445526 0.10376108364363844 0.10211598193867213 -0.025783463798094292 0.12182302883684858 -0.25951895437179545 -0.0054905450261580257 -0.018982533665656619 0.0028508045615857976 0.10065877050320049
leaf_weight=6.4314493685960761 128.83503188192844 9.531018525362013 197.853152602911 71.285574831068516 81.570903342217207 88.097066856920719 76.037967588752508 64.461619298905134 26.836386486887932 7.7576759904623023 159.29704657942057 52.198581609874964 25.971765447407961 47.39744633063674 821.67897112667561 91.110909268260002 56.764910563826561 35.460381038486958 67.051910504698753 41.418323654681444 7.2969614788889876 579.81928514316678 8.0576716959476453 79.698193550109863 13.433737613260744 4.5800179839134207 1069.0450152419508 1012.8191518522799 60.526412356644869 42.823401015251875
leaf_count=75 3315 39 4653 413 2333 1329 393 339 126 63 3218 351 391 519 14342 628 256 329 328 599 44 16618 85 412 89 28 4812 4880 385 449
internal_value=0 0.0218859 0.00898635 0.00422962 0.000359294 -0.00233974 0.0903897 0.000428327 0.0246899 -0.0898242 0.0480167 0.0594886 0.0127521 0.077164 -0.104541 0.00507977 -0.0053721 0.016679 -0.00243819 0.0387798 -0.0402776 0.101602 0.00646342 -0.0307902 -0.00449209 -0.0707152 -0.00798142 -0.00943268 -0.00118266 0.0433779
internal_weight=0 4198.98 3533.59 3335.74 3206.9 3125.33 665.388 3029.48 779.802 95.8547 356.15 284.865 78.1703 206.694 836.168 423.652 332.541 178.064 142.604 68.2547 74.3489 589.35 14.4891 154.477 93.1319 61.3449 2249.68 2185.21 1172.39 103.35
internal_count=61841 47339 30289 25636 22321 19988 17050 18596 7731 1392 4892 4479 742 3737 14502 2839 2211 1426 1097 725 372 16657 160 785 501 284 10865 10526 5646 834
is_linear=0
shrinkage=0.1


Tree=24
num_leaves=31
num_cat=0
split_feature=8 33 7 1 1 30 6 34 0 1 25 25 26 6 14 8 37 29 7 2 25 6 26 14 39 25 0 10 0 38
split_gain=990.979 337.824 120.536 111.9 80.4959 67.2681 63.8502 51.6421 30.8628 24.019 16.8851 21.8336 17.786 16.5839 16.4674 15.9215 23.4942 15.8678 21.0909 22.1009 23.4485 23.1561 18.4287 17.5865 16.2739 15.8489 15.0016 14.6451 14.4117 14.0317
threshold=61.000000000000007 2.5000000000000004 1559.0000000000002 111.50000000000001 118.50000000000001 2.5000000000000004 463.00000000000006 1.5000000000000002 0.7918265000000001 117.50000000000001 55.500000000000007 251.50000000000003 64.500000000000014 2559.0000000000005 1.0000000180025095e-35 158.00000000000003 14.000000000000002 1.5000000000000002 626.00000000000011 2.5000000000000004 73.500000000000014 535.00000000000011 54.500000000000007 171.11894450000003 2.5000000000000004 56.500000000000007 7.5000000000000002e-06 9556.8525390000013 0.50603650000000011 1.5000000000000002
decision_type=2 2 2 2 2 2 2 2 2 2 2 2 2 2 2 2 2 2 2 2 2 2 2 2 2 2 2 2 2 2
left_child=14 2 3 -2 5 7 25 8 10 -7 -5 12 -12 28 26 16 -8 18 19 20 21 -10 -20 -22 -19 -3 -1 -14 -13 -9
right_child=1 6 -4 4 -6 9 15 29 17 -11 11 13 27 -15 -16 -17 -18 24 22 -21 23 -23 -24 -25 -26 -27 -28 -29 -30 -31
leaf_value=-0.11306363460226732 0.099769412170050198 -0.026799496703945228 0.087444645342303562 0.0019579862537185129 0.10339932890533128 -0.10391686366012896 -0.10886664825649323 -0.017748296315092466 -0.062419651856785718 0.083333737259595364 0.091338498344711347 -0.0080369768380856299 -0.062289214647430605 0.079193091803111126 -0.1058414890001641 0.03718481909072572 0.11351658714986063 0.013891450685187485 -0.13337562037784267 0.096219830467710932 -0.02284196017792902 0.086409247870764011 -0.025610548530909064 -0.1770874138880093 0.09704586418122263 0.10339047689368784 0.10064781308387127 0.058446120168654164 -0.23480261045036399 -0.0012701669980614138
leaf_weight=5.8795378208160383 117.46110145002604 9.519823417067526 182.40527084842324 71.222306579351425 74.060175474733114 80.928263649344444 20.92960744351149 806.96009152010083 15.554088562726973 7.4837590344250193 148.13917242363095 48.270720303058624 14.647124465554951 24.234088905155659 747.86146072298288 48.930158849805593 6.1456578671932212 168.95038408413529 19.091416552662849 27.047831796109676 23.822862885892391 31.883983872830868 94.001849893480539 10.717323951423166 27.344654366374016 526.4269383251667 7.4421263039112091 31.987145040184259 2.9753421172499648 1437.0074200667441
leaf_count=75 3315 39 4653 413 2333 1329 107 3863 73 63 3242 309 98 391 14342 259 27 1127 93 269 128 415 486 51 197 16618 85 421 18 7002
internal_value=0 0.0204152 0.00832185 0.00392681 0.00037134 -0.00209619 0.0889137 0.000434166 0.0229659 -0.0880668 0.0452742 0.0566896 0.0743837 0.0110308 -0.103878 0.00313868 -0.0583892 0.00475975 -0.0135472 0.0178367 -0.00802498 0.0376109 -0.0438025 -0.0707021 0.0254752 0.101078 0.00632592 0.020525 -0.021203 -0.00719592
internal_weight=0 4078.15 3466.2 3283.79 3166.33 3092.27 611.952 3003.86 759.89 88.412 341.476 270.254 194.773 75.4802 761.183 76.0054 27.0753 418.414 222.119 109.026 81.9783 47.4381 113.093 34.5402 196.295 535.947 13.3217 46.6343 51.2461 2243.97
internal_count=61841 47339 30289 25636 22321 19988 17050 18596 7731 1392 4892 4479 3761 718 14502 393 134 2839 1515 936 667 488 579 179 1324 16657 160 519 327 10865
is_linear=0
shrinkage=0.1


Tree=25
num_leaves=31
num_cat=0
split_feature=8 33 7 1 1 6 30 34 39 25 6 26 0 3 29 14 1 26 2 5 6 29 6 17 25 26 2 34 29 25
split_gain=881.631 307.858 107.717 100.841 72.5579 62.0431 59.9546 45.8041 37.2289 31.2685 78.6878 44.3401 30.4306 38.0269 24.7222 22.4194 21.4359 20.4936 47.7346 30.3414 23.4839 20.3048 20.1006 106.797 17.8044 17.5123 19.664 16.6449 39.8376 32.0657
threshold=61.000000000000007 2.5000000000000004 1495.0000000000002 111.50000000000001 118.50000000000001 463.00000000000006 2.5000000000000004 2.5000000000000004 3.5000000000000004 55.500000000000007 565.00000000000011 57.500000000000007 0.58006250000000004 3.5000000000000004 3.5000000000000004 435.96299450000004 117.50000000000001 114.50000000000001 1.0000000180025095e-35 12.500000000000002 789.00000000000011 2.5000000000000004 135446.50000000003 1257.7583300000003 87.500000000000014 44.500000000000007 1.5000000000000002 17.500000000000004 16.500000000000004 533.50000000000011
decision_type=2 2 2 2 2 2 2 2 2 2 2 2 2 2 2 2 2 2 2 2 2 2 2 2 2 2 2 2 2 2
left_child=-1 2 3 -2 6 -3 7 8 9 11 15 -5 13 -12 -10 -11 -8 18 21 -20 -19 -14 -4 -24 -22 26 27 28 -9 -29
right_child=1 5 22 4 -6 -7 16 25 14 10 12 -13 17 -15 -16 -17 -18 20 19 -21 24 -23 23 -25 -26 -27 -28 29 -30 -31
leaf_value=-0.10328467189391233 0.098977171611585868 0.1005758088588684 0.093799573717684409 -0.031297224497943657 0.10306544310745867 0.0028586395021592322 -0.10259750788574251 -0.0014631087369385101 0.012674917722747004 0.094374996785624402 0.070456175634177401 0.1193217565418133 -0.033063686777164134 -0.016678870563191627 0.10171460642654212 -0.30762703597192992 0.077842341670911086 0.14168234800848051 0.087538876307072577 -0.02854710140762361 -0.069512082991753543 0.011257227966508777 0.053520733489031615 -0.97297917794126509 0.10825057358429863 -0.021790175399570743 0.070373342789786728 -0.064236069479294944 0.16503538774898038 0.057549420923013787
leaf_weight=692.51436441391706 107.09119726158679 487.29762416519225 161.44581828266382 270.78845629096031 67.218441281467676 74.972538746893406 74.250991128385067 602.04176570475101 53.272370368242264 126.60696960613132 136.19661522656679 21.065558977425098 230.56558811292052 79.215140972286463 75.203695990145206 1.4026576913893212 7.2243886627256861 6.2510866373777381 89.729432806372643 30.057330898940563 89.832613676786423 187.36720161139965 11.392414238303898 1.1125123538076866 6.0114361196756354 795.78002662956715 37.07372760027647 98.101767644286156 14.721921548247336 27.731123477220535
leaf_count=14502 3315 16657 4393 1279 2333 393 1328 2623 351 2476 2030 240 1199 460 610 13 63 35 876 175 471 965 293 26 45 3756 309 442 63 120
internal_value=0 0.0189898 0.00768142 0.00355918 0.000292113 0.0875463 -0.00196513 0.000349561 0.0134867 0.00831704 0.0168488 -0.0204258 0.00590403 0.0384133 0.0647945 0.0899701 -0.086598 -0.00504113 0.00275729 0.0584102 -0.0461143 -0.0131938 0.084339 -0.0378028 -0.0583626 -0.0113543 -0.000702828 -0.00425127 0.00251115 -0.0373969
internal_weight=0 3971.02 3408.75 3234.8 3127.71 562.27 3060.49 2979.02 1403.57 1275.09 983.236 291.854 855.226 215.412 128.476 128.01 81.4754 639.815 537.72 119.787 102.095 417.933 173.951 12.5049 95.844 1575.45 779.67 742.597 616.764 125.833
internal_count=61841 47339 30289 25577 22262 17050 19929 18538 11225 10264 8745 1519 6256 2490 961 2489 1391 3766 3215 1051 551 2164 4712 319 516 7313 3557 3248 2686 562
is_linear=0
shrinkage=0.1


Tree=26
num_leaves=31
num_cat=0
split_feature=8 33 7 1 1 6 30 34 39 25 6 26 0 3 29 26 14 10 25 13 38 25 10 6 6 25 25 34 6 25
split_gain=782.953 277.9 96.8689 90.553 65.2295 60.6456 52.9954 37.741 31.3918 25.6466 70.3742 38.7294 26.1272 33.1266 22.1806 21.5169 17.8194 17.6184 17.4904 15.5541 16.4528 15.9515 15.7719 21.6758 17.893 19.3571 34.1347 17.4104 17.0473 16.8311
threshold=61.000000000000007 2.5000000000000004 1559.0000000000002 111.50000000000001 118.50000000000001 463.00000000000006 2.5000000000000004 2.5000000000000004 3.5000000000000004 55.500000000000007 565.00000000000011 57.500000000000007 0.58006250000000004 3.5000000000000004 3.5000000000000004 43.500000000000007 1.0000000180025095e-35 498.85238650000002 56.500000000000007 2.5000000000000004 3.5000000000000004 57.500000000000007 10966.420895000001 1111.0000000000002 80.000000000000014 251.50000000000003 252.50000000000003 5.5000000000000009 1889.0000000000002 272.50000000000006
decision_type=2 2 2 2 2 2 2 2 2 2 2 2 2 2 2 2 2 2 2 2 2 2 2 2 2 2 2 2 2 2
left_child=16 2 3 -2 6 18 7 8 9 11 17 -5 13 -12 -10 -8 -1 -11 -3 22 21 -21 23 -9 27 28 -27 -24 -26 -28
right_child=1 5 -4 4 -6 -7 15 19 14 10 12 -13 -14 -15 -16 -17 -18 -19 -20 20 -22 -23 24 -25 25 26 29 -29 -30 -31
leaf_value=0.01638045448929356 0.098183711752506925 -0.034113199480619798 0.084031744657728696 -0.028133278075146123 0.10276527107466907 0.0025737766307501759 -0.096748815421082102 -0.024964086334561215 0.011449179063903456 -0.29182602671447433 0.066768407474801672 0.11744223888274241 -0.0046167267398209031 -0.014897950403179242 0.09682251292586376 0.14882478522874851 -0.10473915711850597 0.091520614436371883 0.10276501912218337 0.00033785454183295964 0.10217631625052388 -0.068093011347234667 0.0206421739701995 0.058930499745611577 0.017032890462138562 -0.087539512655605653 0.094737449413081612 -0.087429497716293214 0.12619868324831082 -0.0041657831486849525
leaf_weight=12.389797911047934 97.643944473937154 9.5403200387954694 156.17424677498639 271.09973799437284 60.990366231650114 74.944879353046417 71.583561193197966 517.96664590388536 53.088270217180252 1.2112428136169899 131.59202732890844 19.596286438405514 638.70239459723234 79.784279119223356 71.307864390313625 3.7550978846848002 619.57308036834002 117.66233561187983 434.53791761212051 49.972439728677273 7.8348030000925055 107.00457391142845 23.212168708443642 32.743819005787373 393.55634707584977 49.7826978713274 18.2054443359375 41.662278637290001 14.844345159828661 313.57925768941641
leaf_count=160 3315 39 4653 1279 2333 393 1351 2478 351 10 2051 244 3790 460 610 41 14342 2479 16618 216 34 474 98 154 1959 221 87 185 71 1345
internal_value=0 0.0177009 0.00713579 0.00336925 0.000373831 0.0857818 -0.00168736 0.000424618 0.0124638 0.00773106 0.0155466 -0.0183198 0.00546873 0.0359433 0.0603879 -0.0845087 -0.102365 0.0876146 0.0998244 -0.0101861 -0.0392499 -0.0463086 -0.00677818 -0.0199759 0.00172413 0.00587014 -0.0103246 -0.0487613 0.0210008 0.00126116
internal_weight=0 3863.58 3344.56 3188.38 3090.74 519.023 3029.75 2954.41 1384.04 1259.65 968.952 290.696 850.079 211.376 124.396 75.3387 631.963 118.874 444.078 1570.36 164.812 156.977 1405.55 550.71 854.843 789.968 381.567 64.8744 408.401 331.785
internal_count=61841 47339 30289 25636 22321 17050 19988 18596 11274 10313 8790 1523 6301 2511 961 1392 14502 2489 16657 7322 724 690 6598 2632 3966 3683 1653 283 2030 1432
is_linear=0
shrinkage=0.1


Tree=27
num_leaves=31
num_cat=0
split_feature=8 33 1 7 1 30 30 34 1 0 33 39 34 14 5 7 26 10 25 6 2 6 12 6 25 25 23 34 25 25
split_gain=696.801 253.596 83.3474 87.3668 82.5679 46.7986 30.9535 29.6469 22.148 20.6942 17.7828 24.8401 20.2275 17.1427 15.602 15.1397 24.0391 16.8317 16.2611 19.5638 20.3029 20.035 20.7127 14.6715 16.3581 22.3164 15.1048 16.8059 15.1482 16.5622
threshold=61.000000000000007 3.5000000000000004 111.50000000000001 1559.0000000000002 118.50000000000001 2.5000000000000004 1.0000000180025095e-35 1.5000000000000002 117.50000000000001 0.7918265000000001 1.5000000000000002 10.500000000000002 3.5000000000000004 1.0000000180025095e-35 16.500000000000004 1079.0000000000002 74.500000000000014 11481.242190000003 1211.5000000000002 68198.000000000015 3.5000000000000004 68048.000000000015 4.5000000000000009 77.500000000000014 43.500000000000007 47.500000000000007 0.073406500000000013 32.500000000000007 53.500000000000007 59.500000000000007
decision_type=2 2 2 2 2 2 2 2 2 2 2 2 2 2 2 2 2 2 2 2 2 2 2 2 2 2 2 2 2 2
left_child=13 2 -2 4 5 7 -3 9 -7 -4 15 12 -12 -1 -8 16 18 -18 19 20 21 22 23 -9 -25 -26 27 -27 -28 -30
right_child=1 6 3 -5 -6 8 14 10 -10 -11 11 -13 -14 -15 -16 -17 17 -19 -20 -21 -22 -23 -24 24 25 26 28 -29 29 -31
leaf_value=0.014777461911179702 0.095484649417330633 -0.11261564174082997 0.03836553059152345 0.081013615601124342 0.10249338078534181 -0.10025708585260423 0.10046194128223447 0.22028706529438571 0.074414989090387032 0.003978010067844609 0.034917377418018522 0.094090972200012418 -0.019124117464573123 -0.10426789145793497 -0.43953217464146754 -0.043074393727714266 0.0093195722435493854 0.081471942187261559 0.091458241988047764 -0.11664276572224397 0.048184807168450715 0.098831807715410488 -0.052852377997280466 -0.057975785329185917 0.21627233454292721 0.0035986403892764845 -0.049785584498882762 -0.051411385471278215 0.019667385970733808 -0.025349721245432579
leaf_weight=12.36196994781494 105.37103631719947 7.0037576407194129 306.63902352750301 145.06572432629764 79.139140620827675 64.089375417679548 358.02750323712826 2.7812759280204764 8.1864434033632261 407.66497730091214 134.89160188287497 37.300977759063244 142.35235055536032 563.01744543015957 0.53585913777351279 116.62939860671759 99.089821644127369 47.989827767014503 15.876649312674997 17.098708152770996 59.599373064935207 16.36570443212986 117.15839195996523 66.754058033227921 4.4499582499265662 827.31022523343563 139.2589850127697 59.532886825501919 119.09070648252964 260.48646952211857
leaf_count=160 3978 45 4892 4636 3338 1335 14241 12 76 2839 1004 650 758 14342 4 710 626 353 75 78 404 68 530 298 19 3735 681 268 534 1152
internal_value=0 0.016445 0.00793599 0.00513609 0.00164144 -0.000957835 0.0955881 0.000958901 -0.0804726 0.01874 -0.00460197 0.0174773 0.00716949 -0.10171 0.0996549 -0.00812824 -0.00592852 0.0328618 -0.00927322 -0.0102196 -0.00913177 -0.0112493 -0.0123776 -0.00917279 -0.00960492 -0.00731509 -0.0080229 -9.41274e-05 -0.0215755 -0.0112258
internal_weight=0 3765.74 3400.17 3294.8 3149.74 3070.6 365.567 2998.32 72.2758 714.304 2284.02 314.545 277.244 575.379 358.563 1969.47 1852.84 147.08 1705.76 1689.89 1672.79 1613.19 1596.82 1479.66 1476.88 1410.13 1405.68 886.843 518.836 379.577
internal_count=61841 47339 33049 29071 24435 21097 14290 19686 1411 7731 11955 2412 1762 14502 14245 9543 8833 979 7854 7779 7701 7297 7229 6699 6687 6389 6370 4003 2367 1686
is_linear=0
shrinkage=0.1


Tree=28
num_leaves=31
num_cat=0
split_feature=8 33 1 7 1 30 30 34 39 29 28 2 25 6 25 25 26 25 6 38 26 6 25 1 14 6 0 14 25 25
split_gain=620.266 231.658 75.3858 77.3358 74.5642 41.3185 27.6354 25.282 44.1774 37.5956 23.3128 51.4577 25.6828 55.7231 32.1863 26.0061 24.6242 30.56 22.1209 22.1142 21.7249 20.9065 20.3595 19.6657 19.3977 17.4463 17.0361 16.5405 16.4953 36.9711
threshold=61.000000000000007 3.5000000000000004 111.50000000000001 1559.0000000000002 118.50000000000001 2.5000000000000004 1.0000000180025095e-35 3.5000000000000004 4.5000000000000009 4.5000000000000009 122.50000000000001 3.5000000000000004 53.500000000000007 565.00000000000011 52.500000000000007 85.500000000000014 136.50000000000003 1136.5000000000002 789.00000000000011 9.5000000000000018 65.500000000000014 835.00000000000011 99.500000000000014 117.50000000000001 36.752483000000005 797.00000000000011 3.7028140000000005 1.0000000180025095e-35 251.50000000000003 253.50000000000003
decision_type=2 2 2 2 2 2 2 2 2 2 2 2 2 2 2 2 2 2 2 2 2 2 2 2 2 2 2 2 2 2
left_child=27 2 -2 4 5 7 -3 8 10 -10 11 12 14 15 -4 26 17 -13 -12 22 28 -18 -17 -7 -20 -26 -14 -1 -15 -30
right_child=1 6 3 -5 -6 23 -8 -9 9 -11 18 16 13 20 -16 19 21 -19 24 -21 -22 -23 -24 -25 25 -27 -28 -29 29 -31
leaf_value=0.013326669850643819 0.094497039124573357 -0.10846266500782933 0.0088395125159474088 0.078946353455146168 0.10225049633550609 -0.098465800497354039 0.09871681627140319 -0.011004214349026223 0.0081856065045624645 0.11276908772772876 0.13074190908848074 0.087277162244771694 0.088917160366630207 0.0056778656239804652 -0.053116481633266537 -0.22038629471495683 0.11600347748851676 -0.037313582685083155 0.12951762778055181 -0.34653267993094428 0.033406038376381737 -0.13811793372968786 0.042461805841362769 0.069058182399127879 -0.15947760278582912 -0.039800505938993529 -0.19458364103635817 -0.10384530118689526 -0.088346141867838679 -0.0072619414585527124
leaf_weight=12.33828744292259 96.290326943621039 6.5674541890621176 161.4213232845068 134.52506040409207 71.769487792626023 58.992557570338249 327.4252515565604 1117.9559976551682 66.14713061414659 71.55519531108439 7.6411380991339675 138.44849219359457 121.08021431043744 415.44660604000092 174.48793283849955 3.5326541364193025 4.6099352911114684 22.950649943202734 6.1452544517815104 2.0302149746567002 154.40185153111815 10.873694080859421 17.770561877638102 7.9519335888326159 13.600161250680683 116.72863186895847 2.1574065536260596 511.40663582086563 70.767983496189117 273.78331967070699
leaf_count=160 3978 45 761 4636 3338 1335 14245 5604 388 919 62 2169 2522 2277 826 43 63 138 89 14 1006 64 193 76 74 664 16 14342 320 1474
